tree
version=v4
num_class=1
num_tree_per_iteration=1
label_index=0
max_feature_idx=17
objective=binary sigmoid:1
feature_names=Column_0 Column_1 Column_2 Column_3 Column_4 Column_5 Column_6 Column_7 Column_8 Column_9 Column_10 Column_11 Column_12 Column_13 Column_14 Column_15 Column_16 Column_17
feature_infos=[-0.23021071853730229:0.10904935568762895] [-0.51588892572253742:0.52722939377543376] [-0.96546546705936398:0.75899652681922747] [0.35432016075016742:1] [-0.19910057236304168:0.21583027335781324] [-0.10962962962962963:0.10813594232749724] [0:0.99999979423872543] [0.016000185226820601:90.280384416256794] [0:1] [0:1] [-4.7868596026378194:3.9186120647476859] [0:1] [0:99.911831744204733] [0:99.174377932639644] [-25.627992397676991:128.09078479223763] [0:99.999996542185457] [-401.57128407781232:592.32546345861238] [0.0045984058859595356:0.1977225672877847]
tree_sizes=3444 3492 3475 3477 3465 3494 3496 3481 3465 3499 3502 3488 3492 3493 3498 3517 3510 3510 3505 3508 3497 3502 3492 3506 3513 3492 3508 3516 3496 3503 3515 3496 3517 3517 3512 3499 3531 3509 3507 3527 3516 3507 3510 3501 3493 3535 3510 3504 3515 3522 3519 3523 3512 3521 3520 3517 3518 3510 3516 3523 3509 3508 3514 3528 3512 3531 3512 3521 3498 3514 3516 3509 3499 3510 3512 3516 3520 3524 3495 3536 3500 3532 3512 3484 3467 3511 3479 3539 3503 3507 3514 3476 3475 3515 3484 3508 3491 3493 3497 3475 3462 3477 3514 3510 3451 3510 3471 3498 3483 3501 3448 3484 3510 3466 3489 3460 3496 3435 3485 3504 3532 3456 3496 3464 3493 3480 3515 3434 3494 3484 3502 3462 3490 3476 3436 3510 3451 3474 3460 3441 3446 3518 3502 3480 3481 3487 3488 3439 3491 3441 3475 3444 3448 3494 3458 3491 3432 3483 3443 3495 3475 3463 3469 3475 3493 3441 3452 3463 3460 3470 3452 3453 3481 3453 3477 3440 3454 3437 3428 3498 3409 3474 3426 3491 3458 3494 3458 3498 3446 3447 3496 3448 3460 3443 3445 3457 3474 3449 3466 3457 3467 3508 3478 3456 3433 3439 3452 3463 3418 3465 3428 3471 3465 3438 3489 3479 3491 3465 3473 3450 3464 3428 3488 3432 3494 3519 3441 3442 3431 3476 3440 3497 3481 3433 3440 3461 3437 3503 3464 3475 3494 3443 3481 3456 3467 3524 3457 3435 3449 3466 3478 3469 3459 3442 3451 3448 3445 3479 3452 3460 3428 3440 3496 3505 3415 3426 3485 3485 3508 3437 3447 3433 3471 3454 3471 3441 3456 3441 3493 3438 3433 3534 3472 3422 3446 3465 3506 3418 3437 3462 3470 3499 3432 3432 3448 3470 3438 3445 3474 3505

Tree=0
num_leaves=31
num_cat=0
split_feature=13 0 5 0 15 13 14 4 5 10 2 10 7 15 5 1 15 4 4 1 1 0 0 1 1 0 16 4 10 2
split_gain=1216.2 363.326 415.494 356.6 269.368 241.077 225.21 217.767 155.783 161.313 139.713 127.887 106.439 108.441 100.724 98.0331 83.7829 80.7045 73.8351 127.316 110.384 86.4829 76.8718 73.2211 70.9602 70.3202 69.917 74.9733 69.7707 67.643
threshold=35.368931500447722 0.095110055631624071 -0.00082832888207334799 -0.035966164160086377 98.412620307444215 48.239770916903403 2.9386621351057429 -0.01968689201201573 -0.0059523809523809859 0.5287768926255989 0.02527898192867355 0.49706561974151203 2.6530036154711687 98.615095075619266 -0.0020161290322580623 0.0073290242491828436 80.439139902854478 -0.024822695035460914 -0.017572230387125073 0.0015467907182986839 0.034538486999986344 0.0098216539419592689 -0.020198457405705045 -0.036618382022876962 0.050884874418378988 0.036721466958787245 -121.35833796454783 -0.021777267355685245 0.21563418794119896 -0.0742266665363054
decision_type=2 2 2 2 2 2 2 2 2 2 2 2 2 2 2 2 2 2 2 2 2 2 2 2 2 2 2 2 2 2
left_child=3 2 5 12 6 8 15 -4 -2 25 26 -9 13 16 23 17 -1 -5 20 -20 21 22 -16 -12 -18 -10 27 -8 -6 -7
right_child=1 -3 7 4 28 29 10 11 9 -11 14 -13 -14 -15 18 -17 24 -19 19 -21 -22 -23 -24 -25 -26 -27 -28 -29 -30 -31
leaf_value=-0.41515588366777212 -0.36228209824813867 -0.34302797199433549 -0.37281273060208175 -0.31429311218699907 -0.3796690654634427 -0.39833115576671596 -0.39725399680965351 -0.39100718874349427 -0.368954726465339 -0.39284315711343193 -0.41011545456903037 -0.40490510226967097 -0.3910755334508309 -0.35828952944018438 -0.32120852605759531 -0.35274434273113098 -0.30623562063483012 -0.3655895965848564 -0.42297736163500838 -0.37045726258490314 -0.38905533624325217 -0.29624896718911081 -0.36913163089233081 -0.34695085007802984 -0.34773463730620957 -0.42544784453116669 -0.39843352669134763 -0.34952248798604052 -0.41954954776199876 -0.38322863119755041
leaf_weight=20.992643594741821 2747.7832336425781 548.43912053108215 1291.5962781906128 397.39519906044006 208.84030938148499 933.08930516242981 135.24272465705872 5910.4286253452301 2233.6769948005676 1222.2832453250885 47.887015104293823 2299.1578249931335 67.198839426040649 201.35543751716614 126.3372905254364 771.70642614364624 567.5988986492157 95.00811505317688 134.14669418334961 825.31341123580933 179.38730382919312 81.983767986297607 247.82621073722839 1095.0020711421967 125.8495454788208 56.477189779281616 429.78078937530518 210.03401517868042 230.95616888999939 3609.3760857582092
leaf_count=46 5460 1049 2619 716 429 1984 287 12400 4496 2573 104 4947 141 397 231 1505 1005 190 298 1666 375 142 499 2111 243 126 914 407 510 7464
internal_value=-0.377405 -0.383185 -0.38427 -0.357962 -0.363167 -0.377562 -0.35972 -0.391897 -0.3712 -0.378176 -0.366232 -0.394899 -0.330337 -0.32588 -0.360927 -0.341622 -0.316746 -0.324191 -0.369045 -0.3778 -0.355827 -0.342759 -0.35295 -0.349597 -0.313767 -0.370348 -0.384973 -0.368219 -0.400612 -0.386331
internal_weight=27052.2 20852.3 20303.9 6199.84 5216.85 10802.7 4777.05 9501.18 6260.22 3512.44 3512.94 8209.59 982.995 915.797 2737.88 1264.11 714.441 492.403 1594.99 959.46 635.535 456.147 374.164 1142.89 693.448 2290.15 775.058 345.277 439.796 4542.47
internal_count=55334 43118 42069 12216 10384 22103 9445 19966 12655 7195 7034 17347 1832 1691 5426 2411 1294 906 3211 1964 1247 872 730 2215 1248 4622 1608 694 939 9448
is_linear=0
shrinkage=1


Tree=1
num_leaves=31
num_cat=0
split_feature=13 0 0 5 15 13 5 4 1 1 4 7 1 10 10 2 0 3 5 5 14 10 2 0 14 15 0 15 1 4
split_gain=1137.03 358.492 317.328 333.877 265.337 196.664 172.284 235.094 237.573 200.572 159.044 138.824 116.086 109.465 107.842 105.335 98.4285 95.406 90.2269 82.1861 81.4616 80.9807 79.0766 106.334 81.3496 78.3843 76.0154 73.758 72.8781 71.8442
threshold=37.365390451518586 -0.035966164160086377 0.095110055631624071 -0.00076074564068728801 98.615095075619266 46.437181111436672 -0.0040948177890853246 -0.017317340641167019 0.028696057896862002 -0.0063325705172649184 -0.020859086707057047 0.75604605854021523 0.046883585898850354 0.43017445377057723 0.52037155221742404 -0.057731779712424873 0.023813542120143093 0.84226371730178073 -0.0053763440860215552 -0.00095192786914954908 13.731137017618972 0.22191126902871897 -0.0090232344126018899 -0.0048353075354651441 71.111399311705512 99.170027892653977 0.0053526163452454071 82.894691395455297 -0.017294935296623942 -0.030747750999542297
decision_type=2 2 2 2 2 2 2 2 2 2 2 2 2 2 2 2 2 2 2 2 2 2 2 2 2 2 2 2 2 2
left_child=1 12 3 5 6 14 -3 8 11 -9 -5 -8 17 -12 16 -13 27 25 -16 -11 26 -6 23 -15 -24 -1 29 28 -2 -17
right_child=2 4 -4 10 21 -7 7 9 -10 19 13 15 -14 22 18 20 -18 -19 -20 -21 -22 -23 24 -25 -26 -27 -28 -29 -30 -31
leaf_value=0.089975978310922092 0.020540036746354455 0.046582725839884875 0.050805943029312718 0.023875858590607452 0.016835745722132093 0.011469939921899154 0.023307438375874984 -0.027132649508474712 0.018819296353309228 0.036735241317493388 0.0061156086604079599 -0.053077789764126318 0.032742588635782992 0.013189173749980687 0.02791103843002106 0.077096799005195588 -0.0021070550834055759 0.04893463084743771 0.0039787808679653007 0.015485417368250856 0.034907208675780031 -0.025942716483034589 0.0050163653362817326 -0.033620154747962601 -0.020689141607499434 0.031896353422140498 0.10135138519860019 0.020956755351712469 0.043595712165218424 0.04521225798644668
leaf_weight=477.22325196862221 437.74921661615372 1816.2403628230095 535.71585333347321 949.75662052631378 204.08387625217438 5379.1422848105431 317.76314544677734 228.99819728732109 837.49438261985779 661.8474583029747 5365.8185738325119 19.926674336194992 274.82383644580841 162.3393726348877 725.89390009641647 393.31835317611694 209.37633773684502 333.54503521323204 860.91442975401878 1456.0322087109089 208.9834426343441 241.59107476472855 1277.7943162024021 480.20311790704727 405.44004708528519 66.144532889127731 155.51082792878151 839.67175024747849 1579.4332464337349 320.75048336386681
leaf_count=827 887 3490 1016 1916 418 11145 639 511 1705 1300 11250 46 542 337 1450 705 444 634 1813 2991 411 540 2694 1084 895 131 264 1700 3060 618
internal_value=0.0194646 0.0352846 0.0128644 0.0117759 0.0309524 0.0179809 0.0335435 0.0283958 0.0399297 0.0173196 0.00457218 0.0524132 0.0610979 0.00218856 0.0255079 0.0608326 0.0309838 0.0699845 0.0149267 0.0221261 0.0629372 -0.00635356 -0.00687156 -0.0217937 -0.00117531 0.0829059 0.0696735 0.033409 0.0385924 0.0627747
internal_weight=27223.5 8014.28 19209.2 18673.5 6862.54 10032.2 6416.87 4600.63 2253.75 2346.88 8641.35 1416.25 1151.74 7691.6 4653.04 1098.49 3066.23 876.913 1586.81 2117.88 1078.56 445.675 2325.78 642.542 1683.23 543.368 869.58 2856.85 2017.18 714.069
internal_count=55463 15772 39691 38675 13638 20499 12680 9190 4388 4802 18176 2683 2134 16260 9354 2044 6091 1592 3263 4291 1998 958 5010 1421 3589 958 1587 5647 3947 1323
is_linear=0
shrinkage=0.05


Tree=2
num_leaves=31
num_cat=0
split_feature=13 5 13 15 4 1 15 5 4 10 4 2 14 2 2 6 10 3 4 6 1 2 14 4 16 17 1 14 4 5
split_gain=982.317 293.023 221.974 218.135 317.735 273.509 186.504 152.832 152.117 146.72 129.278 111.825 93.6868 81.2082 99.9565 81.4712 80.9315 114.007 83.0593 84.995 80.1525 76.5872 79.4699 82.8235 75.3713 74.3647 69.9252 69.8843 82.0593 71.9843
threshold=35.368931500447722 -0.0018148820326679414 49.354479975562946 98.615095075619266 -0.029352417256181148 0.034103269684439823 2.6315737534739392 -0.0025839793281653973 -0.025541466015665867 0.43017445377057723 -0.060651727978137608 -0.0090232344126018899 16.905871921562696 -0.022425560928625115 0.12855190974508771 0.82209028839255527 0.53715891830616325 0.86853900534462891 -0.0031597845764391726 0.44443950622771028 -0.029333126758328863 -0.0090232344126018899 39.067182836312917 0.012228260869565079 -124.79359776301224 0.034877337591782749 -0.0047058910374125264 82.273519714687509 0.0087267095647917143 -0.0039724764334110865
decision_type=2 2 2 2 2 2 2 2 2 2 2 2 2 2 2 2 2 2 2 2 2 2 2 2 2 2 2 2 2 2
left_child=3 2 13 4 5 11 -3 20 -8 -10 -7 -1 -13 -2 15 27 18 -18 -9 -20 -6 -11 26 -24 -19 -5 -23 29 -29 -15
right_child=1 6 -4 25 7 10 8 16 9 21 -12 12 -14 14 -16 -17 17 24 19 -21 -22 22 23 -25 -26 -27 -28 28 -30 -31
leaf_value=0.026972864029848827 0.015417973420062257 0.039778636861515816 0.010027113024706776 -0.011778350611800664 -0.02176631224911707 0.069605652613586172 0.025599664314475936 0.034229797916514669 0.008673217796624496 -0.017168477897375224 0.015845423185113155 0.07660575637236515 0.023855595414038991 0.039104327544778175 0.0013906707411410763 0.0060378423344825552 0.023527566071341155 0.036267559861389832 0.027881786299055085 -0.025795777988438601 0.045734818343001069 -0.008625897474547008 -0.016866603678067572 0.011836839879972839 -0.029640959501913589 0.023485418526188184 0.018588456459589776 -0.0216526234090927 0.036914902985684513 0.023424539065091152
leaf_weight=151.1288665831089 1500.6819809675217 432.25495445728302 3819.1304546296597 280.923688352108 45.52341964840889 144.14026501774788 930.71795937418938 1287.06746083498 6641.4769420027733 857.01502174139023 498.80293223261833 1110.4393194615841 91.076310247182846 2569.4527361690998 308.00342497229576 304.84526592493057 481.20006921887398 53.896922022104263 173.66732144355774 128.17840841412544 1295.4368876218796 343.43881502747536 860.16676613688469 355.05833601951599 222.24346289038658 319.57555732131004 754.76324331760406 123.36760541796684 116.08313643932343 1023.5663813948631
leaf_count=296 3055 833 7908 609 99 259 1858 2521 13812 1885 1009 1951 180 4984 644 632 965 105 346 282 2461 740 1885 740 493 643 1546 269 227 2058
internal_value=0.0183087 0.013106 0.0194333 0.0356476 0.038676 0.0547467 0.00757699 0.0299782 0.00628128 0.00444882 0.0278978 0.0675086 0.0726072 0.0254749 0.02887 0.0309157 0.0222825 0.00883178 0.0286937 0.00508768 0.0434433 -0.00440051 0.000329421 -0.00848018 -0.016777 0.00698843 0.0100778 0.0328945 0.00674028 0.0346375
internal_weight=27223.3 20940 9765.13 6283.3 5682.8 1995.59 11174.9 3687.21 10742.6 9811.92 642.943 1352.64 1201.52 5946 4445.32 4137.32 2346.25 757.34 1588.91 301.846 1340.96 3170.44 2313.43 1215.23 276.14 600.499 1098.2 3832.47 239.451 3593.02
internal_count=55295 43076 19777 12219 10967 3695 23299 7272 22466 20608 1268 2427 2131 11869 8814 8170 4712 1563 3149 628 2560 6796 4911 2625 598 1252 2286 7538 496 7042
is_linear=0
shrinkage=0.05


Tree=3
num_leaves=31
num_cat=0
split_feature=13 2 4 1 5 1 15 5 4 13 4 10 10 10 6 6 16 7 2 6 14 15 2 14 5 13 1 14 3 14
split_gain=913.235 235.607 294.444 373.361 221.343 208.527 196.068 174.857 148.74 139.942 130.456 125.33 121.934 120.246 96.4321 78.3799 75.3408 73.2571 70.6762 70.6547 70.5397 74.2744 64.62 63.6134 64.6062 63.4307 63.2146 61.0402 60.8838 60.5164
threshold=37.477250158851582 0.0049484645475908621 -0.028389935117461015 0.030495636693652371 -0.0018148820326679414 -0.021461890559324865 2.6315737534739392 -0.0015165881682547286 -0.05573440878463725 49.354479975562946 -0.025541466015665867 0.3528835077135421 0.49706561974151203 0.43017445377057723 0.83581995990314661 0.87431119670813562 -94.461601059953011 0.53595313629460539 -0.056121177179164233 0.49999772728306086 6.1492756594358164 97.484230746434463 -0.0090232344126018899 39.067182836312917 0.012325300028212529 28.421628604482311 0.017414807235589264 13.034553560733512 0.84017679674315515 4.5456361379906243
decision_type=2 2 2 2 2 2 2 2 2 2 2 2 2 2 2 2 2 2 2 2 2 2 2 2 2 2 2 2 2 2
left_child=1 11 3 17 9 12 -6 19 -5 18 -8 14 27 -12 -1 16 25 -3 -2 -7 21 -19 -15 -24 -25 -10 -11 -4 -13 -14
right_child=4 2 5 8 6 7 10 -9 15 26 13 28 29 22 -16 -17 -18 20 -20 -21 -22 -23 23 24 -26 -27 -28 -29 -30 -31
leaf_value=0.030392163973981236 0.0087228748486824475 -0.016907881279541907 0.044218930164199352 0.062133903733128028 0.039575537621402986 0.050110146579579212 0.025053277182964462 0.021867484021600839 0.020666179846236553 0.0058079158901185104 0.0070637836182141679 0.022418983719040598 0.025724946794478377 -0.017414422905737231 -0.01272888551589829 -0.04160992524542359 0.046532610888780385 0.083353394304671147 0.024977056638270361 0.02873759506949522 0.051119409126815646 0.052591202485396629 0.010014367947587161 -0.011260307111758744 0.038917414566572807 -0.025576196864065794 0.019986812980749169 -0.011582164107746075 -0.012898716943723432 -0.056497573881767162
leaf_weight=1013.5556037127972 789.9064148068428 26.771407246589661 102.03048193454742 158.55535072088242 425.00784561038017 1192.6217961013317 740.72487378120422 2116.4597678482533 174.61126202344894 2739.7600903809071 6248.9891925156116 168.75836035609245 27.167795121669769 802.6062987446785 148.67097392678261 72.183025181293488 129.87939983606339 679.50330522656441 4361.32212048769 572.23616248369217 488.94131830334663 275.88929128646851 823.09106335043907 1066.7770309746265 68.253735721111298 128.90440288186073 1102.3872224092484 94.306952446699142 440.67157930135727 126.94546604156494
leaf_count=1979 1623 57 194 286 811 2227 1471 4248 349 5702 13005 337 54 1776 316 163 246 1155 8657 1118 903 513 1710 2322 135 281 2234 202 943 296
internal_value=0.0173409 0.0313736 0.0358612 0.0509982 0.0113829 0.0282234 0.00633179 0.0315586 0.0198807 0.017098 0.00488275 0.0152462 -0.00871398 0.00322445 0.0248762 0.00662956 0.014664 0.0650463 0.0224846 0.0431803 0.0665654 0.0744702 -0.00546601 -0.000568525 -0.00824293 0.00102684 0.00987612 0.0174159 -0.00311883 -0.042003
internal_weight=27307.5 8138.66 6367.01 2135.24 19168.8 4231.77 10175.5 3881.32 664.133 8993.38 9750.44 1771.66 350.451 9009.72 1162.23 505.578 433.395 1471.11 5151.23 1764.86 1444.33 955.393 2760.73 1958.12 1135.03 303.516 3842.15 196.337 609.43 154.113
internal_count=55313 15867 12292 3953 39446 8339 21230 7593 1325 18216 20419 3575 746 18948 2295 1039 876 2628 10280 3345 2571 1668 5943 4167 2457 630 7936 396 1280 350
is_linear=0
shrinkage=0.05


Tree=4
num_leaves=31
num_cat=0
split_feature=13 0 0 5 15 13 14 4 2 5 1 2 16 2 2 15 12 7 7 2 1 0 14 3 1 17 0 16 7 1
split_gain=830.384 254.64 251.226 250.725 200.208 191.432 173.451 143.869 109.928 87.9053 83.1443 92.2344 82.2908 76.5452 92.3716 89.6326 76.2136 75.2821 73.0369 68.3659 67.8847 159.459 106.825 67.8672 66.3656 67.4002 62.6888 62.3657 61.8123 61.2402
threshold=35.368931500447722 0.095110055631624071 -0.035966164160086377 -0.0018148820326679414 98.412620307444215 48.239770916903403 2.9386621351057429 -0.020859086707057047 0.017283755235096555 -0.0087652312590398278 0.050884874418378988 0.0049484645475908621 49.944114434448487 0.12855190974508771 0.010308104683129858 38.88886145406633 37.926301005655255 0.77072504783501594 4.2143306028502092 -0.091363231865529193 -0.0085252008233596219 -0.022442260348026082 9.8355295380474264 0.82927272244026484 0.017414807235589264 0.031545779946397894 0.0093556992890508183 25.95612540501433 1.4559031177947084 0.032789822822990623
decision_type=2 2 2 2 2 2 2 2 2 2 2 2 2 2 2 2 2 2 2 2 2 2 2 2 2 2 2 2 2 2
left_child=2 3 10 5 6 13 17 -5 23 -10 11 -1 -9 14 27 -16 20 -4 -14 -7 21 -11 26 -8 -21 -26 -23 -2 -3 -19
right_child=1 28 4 7 -6 19 8 12 9 16 -12 -13 18 -15 15 -17 -18 29 -20 24 -22 22 -24 -25 25 -27 -28 -29 -30 -31
leaf_value=0.023697999401796364 0.015265564703481142 0.067423735788860309 0.027121889404814581 0.020394639743022681 -0.0046519684901410677 -0.0062141022956677394 0.037866723601993099 0.00069705135190251837 0.05488522749956818 0.071932836929875926 0.026918877597574706 0.069738000841333039 0.014679609541635552 -0.0025920158999371131 -0.010107589568964041 0.031491351017672753 -0.0099772220495172956 0.063183221816756507 -0.023489124509870854 0.0068796915201399817 0.031678650198321716 0.0093943209028852434 -0.02966852222355883 -0.0026120764657466323 0.044621576757294258 0.014321999401129659 0.092678020401916389 0.083261538754852968 0.032632806680598481 0.036183711666748532
leaf_weight=129.74473258852959 2260.2975653409958 194.6108880341053 364.55408841371536 1384.9390734434128 436.01144936680794 681.94314232468605 131.25865209102631 7394.0070880055428 296.454280346632 80.641328752040863 209.32992368936539 673.33452102541924 1869.369644254446 289.07116475701332 135.62731710076332 2862.3157626986504 138.14208495616913 612.24397540092468 134.34032911062241 2500.7990697324276 2141.6221525967121 90.75193864107132 195.54287564754486 490.49761971831322 251.70357409119606 677.73130840063095 30.085329651832581 34.233187884092331 371.14840909838676 319.68624228239059
leaf_count=252 4550 347 708 2766 929 1452 252 15621 540 141 408 1169 3835 605 287 5557 292 1085 295 5182 4141 184 432 1022 483 1380 50 60 711 613
internal_value=0.0162895 0.0115101 0.0321523 0.0105958 0.0278134 0.016431 0.0307073 0.00534983 0.025053 0.0290513 0.0549843 0.0622998 0.00313268 0.0224621 0.0238305 0.0296094 0.0261902 0.0463857 0.0121206 0.00824501 0.0281583 0.0091685 -0.00682934 0.00593338 0.0111195 0.0225275 0.0301298 0.01628 0.0446003 0.0539214
internal_weight=27382 21042.1 6339.9 20476.4 5327.49 9693.72 4891.48 10782.7 3595 2973.24 1012.41 803.079 9397.72 5581.54 5292.47 2997.94 2676.79 1296.48 2003.71 4112.18 2538.64 397.021 316.38 621.756 3430.23 929.435 120.837 2294.53 565.759 931.93
internal_count=55349 43131 12218 42073 10389 19556 9460 22517 7054 5780 1829 1421 19751 11059 10454 5844 5240 2406 4130 8497 4948 807 666 1274 7045 1863 234 4610 1058 1698
is_linear=0
shrinkage=0.05


Tree=5
num_leaves=31
num_cat=0
split_feature=13 0 10 5 5 3 4 6 13 4 0 2 4 10 10 10 5 15 0 4 15 15 1 12 0 10 4 4 2 1
split_gain=658.87 251.136 244.617 200.554 171.6 134.411 126.61 110.009 108.315 105.164 96.0904 95.5213 90.9876 89.9851 85.2125 82.0119 81.5889 80.3192 67.1933 65.6337 64.4275 63.5964 93.9028 75.093 70.5252 63.1537 61.6965 60.2771 57.7041 73.3284
threshold=38.048334338366097 0.095110055631624071 0.25421044374313917 -0.00076074564068728801 -0.0046752980970931604 0.88117820745023268 0.0061066645627554381 0.84210193907274988 48.239770916903403 -0.020859086707057047 -0.04320217770746191 0.022223136784710159 -0.050420555371754265 0.5287768926255989 0.49706561974151203 0.70766728668360535 -0.0059523809523809859 98.973438531657038 0.02752741906633634 -0.012207402664911269 89.682486300110909 74.666567111243893 -0.03112075537427933 42.157725910852662 -0.0066331568378770753 -0.87802173143247042 -0.021157471924757195 -0.0053093043562310585 -0.036489700922775918 -0.011942732560292884
decision_type=2 2 2 2 2 2 2 2 2 2 2 2 2 2 2 2 2 2 2 2 2 2 2 2 2 2 2 2 2 2
left_child=2 3 6 8 11 12 7 10 13 -5 20 19 -6 18 -11 -7 -15 -14 21 -4 -1 22 26 -24 27 -12 -2 -25 -10 -30
right_child=1 -3 4 9 5 15 -8 -9 28 14 25 -13 17 16 -16 -17 -18 -19 -20 -21 -22 -23 23 24 -26 -27 -28 -29 29 -31
leaf_value=0.012360299025618573 0.029754662827374819 0.042992279398030554 -0.00011785720048586625 0.019993072572320067 0.058923961012185694 0.0082724228726689837 0.00027681944590052563 0.015355191057959029 0.00059848498103550732 0.0047506557712757858 0.0066870984577734761 0.045224247880671302 0.018637100597320818 0.022641930370725559 -0.0074223278977356005 -0.022683802667014641 3.5626138399587547e-05 -0.024037016465414566 -0.0052490046685545327 0.055106024617248728 0.070069584084679074 0.016806774198215944 0.05375968566091275 0.034114814682087206 0.038792815469866924 0.038619955183878646 -0.012855704077623559 -0.0024295022878351993 0.0046993117066243973 0.020257397139113509
leaf_weight=55.752876400947571 159.02136299014091 566.7865454852581 240.6416677236557 865.18557271361351 133.03097259998322 534.71533048152924 249.40428411960602 519.54564496874809 1548.1030916571617 5515.9167985320091 162.74955210089684 750.53174725174904 2015.6794213056564 679.10089910030365 1944.4199908673763 356.66611737012863 968.12274941802025 116.64387962222099 192.11979806423187 69.297724694013596 364.91843613982201 1355.0564021468163 430.17269951105118 204.18855908513069 758.8291192650795 3183.0741080343723 182.38259452581406 252.21390470862389 1517.3955876529217 1512.0383150875568
leaf_count=110 309 1053 495 1721 237 1093 517 1032 3249 11513 327 1391 4010 1335 4216 778 2022 259 404 127 630 2705 793 392 1446 6018 385 521 3151 3038
internal_value=0.0155306 0.0102195 0.026848 0.00919233 0.0181795 0.0123337 0.0349082 0.0369234 0.0140558 0.00349165 0.0398984 0.035581 0.0188056 0.019007 0.00157796 -0.00411401 0.00935553 0.0163027 0.0235057 0.0122294 0.0624212 0.0251588 0.0308551 0.0358065 0.0294514 0.0370667 0.00699163 0.01392 0.00845153 0.0124646
internal_weight=27403.7 18651.1 8752.65 18084.3 4217.21 3156.74 4535.44 4286.04 9758.75 8325.52 3766.49 1060.47 2265.35 5181.21 7460.34 891.381 1647.22 2132.32 3533.98 309.939 420.671 3341.86 1986.81 1645.4 1215.23 3345.82 341.404 456.402 4577.54 3029.43
internal_count=55277 38253 17024 37200 8390 6377 8634 8117 19750 17450 7085 2013 4506 10312 15729 1871 3357 4269 6955 622 740 6551 3846 3152 2359 6345 694 913 9438 6189
is_linear=0
shrinkage=0.05


Tree=6
num_leaves=31
num_cat=0
split_feature=13 0 0 5 1 15 14 1 5 10 2 3 4 2 1 2 0 4 4 4 16 2 2 6 15 0 7 6 15 10
split_gain=634.336 222.199 219.325 208.037 187.115 183.223 154.102 200.395 168.001 128.703 114.986 111.368 111.051 108.768 119.934 104.196 98.3655 98.2239 95.8818 83.6169 83.2755 72.8363 69.9774 69.8393 72.8548 69.5503 67.5629 64.1583 62.2112 60.5263
threshold=38.048334338366097 -0.029128272923023651 0.095110055631624071 -0.00076074564068728801 0.035892923060606825 98.039071511192915 4.2759699505699365 -0.041068728795688632 -0.0040948177890853246 0.27374609271067413 0.057280687102370512 0.86550705293756602 -0.05573440878463725 -0.044265365366472319 -0.0057971176843259432 0.0020505819560006256 -0.0020249763023797831 -0.015561409192045348 0.0097065900844197656 -0.017317340641167019 49.944114434448487 0.023414072302793461 0.027548463599912691 0.89565139508574421 90.133029118641716 -0.0025962820701551921 0.64698758614898255 0.38461242605826113 87.531262224945536 0.73907397495946225
decision_type=2 2 2 2 2 2 2 2 2 2 2 2 2 2 2 2 2 2 2 2 2 2 2 2 2 2 2 2 2 2
left_child=1 4 3 13 15 6 10 -8 19 18 26 -11 -6 25 16 -1 -15 -5 -10 21 -19 -9 -22 24 -17 -2 -3 -21 -16 -13
right_child=2 5 -4 17 12 -7 7 8 9 11 -12 29 -14 14 28 23 -18 20 -20 27 22 -23 -24 -25 -26 -27 -28 -29 -30 -31
leaf_value=0.020628667317672073 0.01172610621068837 0.0032864917103029461 0.040149830102365003 0.015250088863144962 0.049680062991821781 -0.0080066423687752738 -0.034211099176687666 -0.013876660323556264 0.029709773584350743 0.017687000104367179 0.059389721026767074 0.0034211466443722868 0.0054397098548795665 0.017279113983463022 0.023434968652193144 0.032756002882577358 -0.00074426173277496351 -0.0027042402501201088 -0.014699084510381167 0.058446783879800547 0.01640345632654407 0.0311456391259851 -0.005175146110755615 0.031310947666964926 0.072441346086058289 -0.0056069920945229354 0.034578168910828981 0.031255678283939818 -0.00075550116848228628 -0.024636209447748539
leaf_weight=207.54064348340034 1341.8372900485992 206.97349059581757 570.35228708386421 1340.9355553686619 208.82732596993446 480.3927951157093 167.93950361013412 122.49119210243225 1409.7854638397694 950.34113612771034 429.00610285997391 490.4553636610508 442.25979316234589 1638.2430449128151 4100.3385205566883 139.2162544131279 1407.3607679307461 5218.901739269495 133.01260977983475 456.01246386766434 1234.2101235389709 336.92732185125351 540.1308485865593 179.65311548113823 683.1234832406044 1017.6754971146584 1035.6815455555916 413.79522174596786 284.19987943768501 316.1009504199028
leaf_count=405 2736 420 1057 2706 378 1019 372 257 2720 1891 761 1012 895 3285 8076 262 2932 11110 285 815 2513 636 1145 341 1163 2150 1961 786 586 695
internal_value=0.0148333 0.0258947 0.00962068 0.00865994 0.0412407 0.0217857 0.0239983 0.0194425 0.0213891 0.0153433 0.0370714 0.00608975 0.0196292 0.0136026 0.0165726 0.0528741 0.00895059 0.00285406 0.0258811 0.0363971 0.000477159 0.0191417 0.00983467 0.059553 0.0657229 0.00425021 0.0293663 0.0455111 0.021867 -0.00757493
internal_weight=27503.7 8809.54 18694.2 18123.8 1860.62 6948.92 6468.52 4796.86 4628.92 3299.7 1671.66 1756.9 651.087 9789.66 7430.14 1209.53 3045.6 8334.18 1542.8 1329.23 6993.24 459.419 1774.34 1001.99 822.34 2359.51 1242.66 869.808 4384.54 806.556
internal_count=55370 17074 38296 37239 3444 13630 12611 9469 9097 6603 3142 3598 1273 19765 14879 2171 6217 17474 3005 2494 14768 893 3658 1766 1425 4886 2381 1601 8662 1707
is_linear=0
shrinkage=0.05


Tree=7
num_leaves=31
num_cat=0
split_feature=4 2 1 2 5 14 1 10 0 0 14 1 0 17 6 15 0 10 14 6 15 10 5 17 4 14 14 7 2 15
split_gain=514.169 299.444 246.553 321.121 292.248 158.146 175.399 139.355 116.097 135.158 113.979 109.203 97.932 93.9116 91.1242 126.98 86.5944 86.5349 86.342 134.214 102.608 87.1616 86.2636 83.7445 81.6062 71.6056 78.3707 71.0902 70.4635 68.317
threshold=-0.025541466015665867 0.035741541266908747 -0.0063325705172649184 -0.0098061855975704257 -0.0018148820326679414 16.905871921562696 0.038752986297233387 0.56224599086875326 -0.0089636257685914919 0.080771717942936652 44.087523384685625 0.033216906735507583 -0.0044370580066153895 0.036359450798355043 0.65384363906292831 83.157829085930175 -0.020198457405705045 0.3528835077135421 41.560814357514623 0.57142721088759474 83.157829085930175 0.57098863772532715 0.0084829635514414043 0.043973245822656722 0.0047777553424706029 41.560814357514623 3.4933393956276295 1.5427793638070131 0.05797178921677091 96.332640616053496
decision_type=2 2 2 2 2 2 2 2 2 2 2 2 2 2 2 2 2 2 2 2 2 2 2 2 2 2 2 2 2 2
left_child=1 11 8 7 10 6 -3 -4 -2 17 14 23 -9 -13 15 -5 -7 -10 19 20 27 -20 -19 25 -14 26 29 -6 -22 -1
right_child=2 5 3 4 18 16 -8 12 9 -11 -12 13 24 -15 -16 -17 -18 22 21 -21 28 -23 -24 -25 -26 -27 -28 -29 -30 -31
leaf_value=0.055494096347405687 0.01367486907596412 0.056325297641139964 0.007545180133108273 0.05248829422018958 0.038699704829031886 0.031386787463104075 0.016813977568311739 0.0074124589808953513 0.001077031046267088 0.032035582137434633 0.019889855760609115 -0.020420455860006379 -0.034659294654290969 0.013528648676487634 0.015928779738257039 0.027154182104509168 -0.011263460621454113 -0.017171429549915809 0.010180559856629506 0.0020079141980875992 0.0021294949976356308 -0.0099564076502214743 0.030137437691973121 0.013638868328366228 0.0078682222002209989 0.0760843975291116 0.012952532812222929 -0.0085404608384651165 0.028913850380285089 0.021411039978776039
leaf_weight=351.40917733311653 1713.7071215808392 1425.4158724248409 3559.0606513023376 1026.7215646505356 1021.2272998094559 374.45123085379601 349.81478855013847 359.60143953561783 3191.2036425769329 284.00950407981873 2197.3744499385357 281.35981485247612 502.95944818854332 738.07184666395187 476.41489914059639 954.37283030152321 174.45848509669304 1324.522201359272 2373.1136681139469 966.02301871776581 603.74158987402916 694.67965579032898 103.91660159826279 1005.5257170796394 145.41790863871574 90.915194094181061 411.97755238413811 86.375025689601898 413.8844607770443 252.78862896561623
leaf_count=628 3472 2528 7289 1865 1974 714 687 744 6651 535 4325 601 1136 1467 939 1823 364 2878 4870 1997 1242 1510 208 2010 304 159 817 183 799 494
internal_value=0.0139498 0.0276892 0.0105421 0.0140141 0.0187091 0.0412869 0.0485395 0.00289712 0.00247198 -0.00144315 0.028164 0.017599 -0.0135147 0.00415881 0.0355623 0.0402838 0.0178314 -0.00350138 0.0115633 0.0174608 0.024485 0.00562069 -0.0137298 0.0240845 -0.0251212 0.0335718 0.0297682 0.0350157 0.0130231 0.0412342
internal_weight=27454.5 5456.19 21998.3 15381 10813.9 2324.14 1775.23 4567.04 6617.36 4903.65 4654.88 3132.05 1007.98 1019.43 2457.51 1981.09 548.91 4619.64 6159.04 3091.25 2125.23 3067.79 1428.44 2112.62 648.377 1107.09 1016.18 1107.6 1017.63 604.198
internal_count=55213 10469 44744 31000 21527 4293 3215 9473 13744 10272 8952 6176 2184 2068 4627 3688 1078 9737 12575 6195 4198 6380 3086 4108 1440 2098 1939 2157 2041 1122
is_linear=0
shrinkage=0.05


Tree=8
num_leaves=31
num_cat=0
split_feature=13 0 0 10 5 3 6 6 4 15 0 1 4 16 14 7 13 15 10 0 1 15 14 15 14 0 16 15 1 4
split_gain=529.089 213.4 202.268 161.74 155.683 149.23 112.572 104.138 92.3092 88.605 84.9218 79.7622 84.7752 78.5445 99.0418 71.057 66.1449 65.4368 63.3234 60.6902 79.8213 65.1154 79.6785 65.1767 63.0957 56.4384 55.114 53.9088 53.8494 53.475
threshold=38.048334338366097 -0.035966164160086377 0.095110055631624071 0.31275851359805001 -0.00076074564068728801 0.87502044488060204 0.71794779750282223 0.88888666667229144 -0.01968689201201573 98.973438531657038 0.029031323209413883 0.028696057896862002 -0.017317340641167019 -93.557806268867807 20.120703953331827 0.79432960961720178 42.476978445117055 89.682486300110909 0.61301356334018464 -0.013635383112674484 -0.036618382022876962 93.552519433873684 5.3467737035453791 83.636287603374953 5.3467737035453791 -0.10513237206117036 -98.491371140621908 87.804815586006143 0.050884874418378988 -0.011345265363998878
decision_type=2 2 2 2 2 2 2 2 2 2 2 2 2 2 2 2 2 2 2 2 2 2 2 2 2 2 2 2 2 2
left_child=1 7 4 6 10 9 26 17 -6 13 16 12 -8 14 -5 -10 18 -1 27 -15 24 22 -22 -24 -21 -18 -3 -2 -19 -28
right_child=2 3 -4 5 8 -7 11 -9 15 -11 -12 -13 -14 19 -16 -17 25 28 -20 20 21 -23 23 -25 -26 -27 29 -29 -30 -31
leaf_value=0.017823078242617151 0.031192580953505494 0.024017845140392 0.037976031074972168 0.026381789790113824 0.017306372785567389 -0.0018380542734248496 0.038303153004901468 0.013603684409515787 -0.0070490410242479394 -0.021092734293880335 -0.0038382573830608676 -0.0073808901342192704 -0.024542026203706227 0.03278515135843036 0.072614821185886733 0.00386051340885279 -0.039266411316001754 0.061859115810672466 0.0082535201167979692 0.05803834127206562 0.066298999791251312 -0.025240965264789524 0.024816849781921384 -0.0059438038481536091 -0.063094761537816554 0.011257708108598483 0.045007997953397917 0.0093485005013777475 0.030968799081361183 0.027697644229555802
leaf_weight=134.96851593255997 1230.3560298383236 1446.0743891000748 569.23552057147026 879.33465975522995 956.56870958209038 1184.3246479332447 280.7138264477253 243.29093945026398 2074.5199925899506 125.34795540571213 780.9487376511097 356.62946423888206 66.3442322909832 316.51653274893761 133.41397815942764 5320.5910349786282 55.736006081104279 665.99960079789162 712.60153993964195 13.011579394340513 73.41796600818634 104.86955001950264 399.42862021923065 302.70752447843552 61.852952718734741 6661.4767726659775 980.05057346820831 366.60210213065147 179.00276771187782 818.96566849946976
leaf_count=261 2345 2772 1049 1689 1894 2456 522 475 4460 277 1634 742 142 599 233 11125 124 1150 1442 23 128 223 775 623 147 13467 1796 737 338 1573
internal_value=0.0133728 0.0235109 0.00862756 0.0203693 0.00770759 0.0126951 0.0273545 0.0428828 0.00269066 0.0198372 0.0119797 0.00922534 0.0262896 0.022083 0.0324723 0.000800101 0.0133482 0.0501517 0.0206475 0.0138099 0.00752279 0.0117374 0.0167375 0.0115552 -0.0420416 0.0108385 0.0312858 0.026178 0.0553154 0.0371278
internal_weight=27494.9 8766.27 18728.6 7543 18159.4 3594.23 3948.78 1223.26 8351.68 2409.9 9807.72 703.688 347.058 2284.55 1012.75 7395.11 9026.77 979.971 2309.56 1271.8 955.288 880.424 775.554 702.136 74.8645 6717.21 3245.09 1596.96 845.002 1799.02
internal_count=55221 16944 38277 14720 37228 7173 7547 2224 17479 4717 19749 1406 664 4440 1922 15585 18115 1749 4524 2518 1919 1749 1526 1398 170 13591 6141 3082 1488 3369
is_linear=0
shrinkage=0.05


Tree=9
num_leaves=31
num_cat=0
split_feature=13 0 0 0 10 5 1 5 6 6 4 17 4 1 17 1 10 5 17 4 1 17 4 6 4 1 14 4 14 0
split_gain=513.167 171.304 157.003 146.086 126.733 120.848 131.812 109.747 104.029 95.7188 89.322 78.0358 77.4797 72.8476 103.206 69.6257 69.4729 68.6457 65.4493 63.2031 67.3352 59.7845 76.9762 59.7351 57.1986 56.6964 102.057 56.1842 53.9699 53.7427
threshold=37.699566450672556 -0.035966164160086377 0.095480421980933414 -0.015504186535965142 0.26705112266405612 -0.0024605291171862493 -0.0063325705172649184 -0.0046752980970931604 0.71794779750282223 0.82209028839255527 -0.014137951300627003 0.037525675063163129 -0.011345265363998878 0.029555704357708865 0.042932203910273824 0.028696057896862002 0.51284072931167624 -0.029057759566234184 0.045962452251377385 -0.053775621791704135 0.037775753915498568 0.036586430743804473 0.0055648424301137931 0.65789300554472341 -0.015561409192045348 0.024056682064045952 20.120703953331827 0.0075831184426002904 63.514104724711423 0.02686808985998845
decision_type=2 2 2 2 2 2 2 2 2 2 2 2 2 2 2 2 2 2 2 2 2 2 2 2 2 2 2 2 2 2
left_child=1 9 3 10 8 6 23 12 27 17 13 -9 -6 14 -2 24 29 -1 -18 -19 -21 22 -8 -5 -10 26 -13 -3 -23 -7
right_child=2 4 -4 5 7 16 21 11 15 -11 -12 25 -14 -15 -16 -17 18 19 -20 20 -22 28 -24 -25 -26 -27 -28 -29 -30 -31
leaf_value=0.0020456298058548505 0.039150544312675756 0.032220595606783524 0.037332706906587125 0.0047903850192129276 0.018339350453499281 0.0067129277387241769 0.012191524241172409 0.0033927657189584386 0.034449324426352762 0.021977958208532721 0.0071946890342475108 0.050069221432243807 0.049615159476395831 0.0058023817192808429 0.015580211305654935 -0.0077426035389549161 -0.0090076463412018682 0.069734631458669691 0.015562077654553303 0.057215800148172818 0.0078861783916244835 0.016343553057900844 0.032347503604488188 -0.017754994563453558 -0.023482112741729684 0.010194283682571349 -0.017193447576818382 0.0010835151171450961 -0.0031580576833323292 -0.0039543529947357343
leaf_weight=63.86562842130661 879.58295813202858 2855.5289317369461 451.73462918400764 1710.8235497176647 582.72316393256187 4982.9797231256962 896.94016128778458 1983.7110741436481 266.08467736840248 431.09554794430733 1757.4667392075062 285.11029699444771 299.94982585310936 536.8973836004734 983.95053905248642 325.96254581212997 2069.9743330776691 381.36680662631989 311.88599807024002 186.98825097084045 109.7987567782402 1035.7863303422928 1003.804356187582 354.71814581751823 50.732383847236633 461.42392006516457 70.299359977245331 152.61982694268227 539.59147438406944 1547.3950970470905
leaf_count=126 1660 5351 829 3509 1131 10269 1782 4052 496 821 3587 519 538 1087 1957 679 4487 644 641 326 217 2052 1921 762 109 923 151 312 1115 3253
internal_value=0.012764 0.0229754 0.00820716 0.00750024 0.0201377 0.00512436 0.0109223 0.013594 0.0267394 0.0407158 0.0157594 0.00874855 0.0289675 0.02203 0.0267053 0.00848088 0.0015192 0.051602 -0.00579043 0.056269 0.0389659 0.0168665 0.0228361 0.000918638 0.0251727 0.0217553 0.0367648 0.0306408 0.00966395 0.00418528
internal_weight=27570.8 8507.26 19063.5 18611.8 7334.15 14453.9 5541.66 3683.22 3650.93 1173.11 4157.9 2800.54 882.673 2400.43 1863.53 642.78 8912.24 742.019 2381.86 678.154 296.787 3476.12 1900.74 2065.54 316.817 816.834 355.41 3008.15 1575.38 6530.37
internal_count=55306 16395 38911 38082 14261 29791 11141 7314 6947 2134 8291 5645 1669 4704 3617 1284 18650 1313 5128 1187 543 6870 3703 4271 605 1593 670 5663 3167 13522
is_linear=0
shrinkage=0.05


Tree=10
num_leaves=31
num_cat=0
split_feature=12 2 0 4 1 1 0 6 14 5 0 5 1 0 7 2 16 5 16 15 16 14 15 4 0 1 12 2 0 14
split_gain=442.561 297.433 175.445 173.745 147.696 139.32 128.146 115.236 113.981 111.805 108.382 93.6686 111.611 85.8306 85.2712 77.3451 68.6244 73.515 64.7251 63.5803 74.7415 61.4126 60.2995 70.6083 133.791 77.0341 54.8298 53.2993 52.665 52.6067
threshold=39.109352563929022 0.026418096738951513 0.095110055631624071 -0.033352191436289029 0.029117398570727149 -0.046880255352074407 -1.0000000180025095e-35 0.84210193907274988 14.648478344162495 -0.0040948177890853246 -0.040087471096008874 -0.00082832888207334799 -0.011316939625136751 -0.02370800695179812 0.70110157837943166 -0.044265365366472319 -79.361518806968121 -0.0040948177890853246 48.288043765405043 82.69214866894491 -115.38715381684214 6.1492756594358164 98.039071511192915 -0.016582346634848807 0.0053526163452454071 -0.0057971176843259432 57.465866057663554 0.027548463599912691 -0.027637941714285161 86.573177434247796
decision_type=2 2 2 2 2 2 2 2 2 2 2 2 2 2 2 2 2 2 2 2 2 2 2 2 2 2 2 2 2 2
left_child=1 6 11 4 21 8 7 19 -5 -7 -6 12 -2 -10 -11 -14 17 -8 -13 -1 -21 -3 23 24 -16 -25 -20 -28 -23 -17
right_child=2 3 -4 5 10 9 16 -9 13 14 -12 18 15 -15 22 29 -18 -19 26 20 -22 28 -24 25 -26 -27 27 -29 -30 -31
leaf_value=0.031430661852298009 0.0012486499668485705 0.059344144605197061 0.033759148617516763 0.02375292476732534 0.048153593916476951 0.036034418106666889 0.028722059512125826 -0.0064972013330358742 0.052605330930547395 0.0028151241955386148 -0.0027204847619094648 -0.0016751973399003264 0.0015870364912769618 -0.059261886542237512 0.024647893378256954 0.019830953312582871 -0.015595220085865719 -0.0017229906279605347 0.02954728017703926 0.024992257373213572 0.008435744720516546 0.046985955355935055 -0.012437607147573582 -0.010149437400163792 0.067709700330733383 0.022389533091519954 0.011772054809080067 -0.0073830154492419949 0.0082216215160739094 0.0057494086003522212
leaf_weight=771.04242905974388 2831.5897386074066 723.00495103001595 567.13740476965904 111.65227848291397 168.61180204153061 1341.4633499085903 270.26211467385292 519.04522424936295 19.923666089773178 659.04947131872177 276.14515107870102 5146.6689051389694 1049.2127986848354 123.01304185390472 756.18524760007858 3132.7653926610947 546.21843707561493 744.48020285367966 279.05847585201263 1155.6889628767967 1661.8624969422817 288.02688404917717 114.79965397715569 213.06081652641296 236.88347151875496 1243.3949018120766 1126.3299541771412 535.96495032310486 125.92590707540512 841.38944044709206
leaf_count=1474 5858 1255 1045 218 301 2478 514 1074 36 1340 561 10888 2171 286 1447 6117 1167 1536 547 2210 3340 516 243 456 410 2420 2297 1139 247 1704
internal_value=0.0120499 0.0192298 0.00646262 0.0266161 0.0409952 0.021897 0.0108891 0.0155234 -0.0141005 0.0239046 0.0165664 0.00542662 0.00918707 -0.0436689 0.0188566 0.0136618 -0.00130602 0.00638561 0.0012593 0.0187084 0.0152268 0.0505513 0.0229793 0.0246392 0.0349197 0.0176295 0.00903885 0.00559599 0.0351937 0.0168497
internal_weight=27579.9 12069.7 15510.1 6401.14 1581.71 4819.43 5668.6 4107.64 254.589 4564.84 444.757 14943 7854.96 142.937 3223.37 5023.37 1560.96 1014.74 7088.02 3588.59 2817.55 1136.96 2564.32 2449.52 993.069 1456.46 1941.35 1662.29 413.953 3974.15
internal_count=55295 23529 31766 12214 2880 9334 11315 8098 540 8794 862 30721 15850 322 6316 9992 3217 2050 14871 7024 5550 2018 4976 4733 1857 2876 3983 3436 763 7821
is_linear=0
shrinkage=0.05


Tree=11
num_leaves=31
num_cat=0
split_feature=13 0 15 0 14 1 2 5 1 5 14 4 10 0 15 2 4 0 2 2 0 1 15 14 0 4 1 13 2 1
split_gain=384.767 162.466 170.15 145.725 141.278 143.013 139.389 134.845 125.634 115.35 104.219 94.2523 82.5232 80.8825 76.7815 75.9058 73.9655 114.818 68.7215 66.27 64.9618 61.438 82.5033 74.2915 72.8496 71.398 62.1461 64.4034 59.885 56.371
threshold=38.048334338366097 -0.029633054011212492 97.674323958992076 0.095110055631624071 2.9386621351057429 -0.0337660639726328 0.0049484645475908621 -0.00076074564068728801 0.035892923060606825 -0.0010655304036640831 20.443727775526238 -0.060651727978137608 0.36665807117821092 0.029031323209413883 83.333293067246345 0.0020505819560006256 -0.011144565425405482 0.0057734106455030751 0.05797178921677091 -0.044265365366472319 -0.012334052617583699 -0.014506356346230152 77.23171797829437 75.928255196424558 -0.0020249763023797831 0.011299757496069042 0.066249385541200648 48.102495680240501 0.036325024783308943 0.010929070532190305
decision_type=2 2 2 2 2 2 2 2 2 2 2 2 2 2 2 2 2 2 2 2 2 2 2 2 2 2 2 2 2 2
left_child=1 8 4 7 18 10 12 13 15 14 -6 -10 -7 19 -8 -1 17 -11 -3 -2 -9 24 23 -23 -21 26 27 -25 -19 -18
right_child=3 2 -4 -5 5 6 9 20 11 16 -12 -13 -14 -15 -16 -17 29 28 -20 21 -22 22 -24 25 -26 -27 -28 -29 -30 -31
leaf_value=0.015407787170200207 0.0043556672974371831 0.027206388226557993 -0.0090045627371746761 0.032288066470241517 0.0037560329337328925 0.012194370447117455 0.039162306888218194 0.0112425826907159 0.047508510545200278 0.011552958701415946 -0.062548136115900987 0.0040387182243816792 -0.022560141165112495 -0.0047984749090595955 0.019660971086395057 0.049103589576763598 -0.020677202857024082 -0.0026285478329033654 0.053963996446904021 0.015080789681976951 -0.00011063925437303172 0.026411811679724714 0.0042106900101395684 -0.031053403425492055 -0.0026100541201531688 0.02082356639354057 0.057891778376170301 0.007535501108792933 0.059076914632226842 0.0087283599719949097
leaf_weight=202.25215521454811 2184.0016356408596 1040.6431186497211 591.54102483391762 571.89127287268639 154.86542728543282 372.75550720095634 979.31068924069405 1545.4389522075653 170.0915575325489 726.96302178502083 96.006743729114532 467.23789325356483 315.25844115018845 783.41338381171227 1041.567607998848 962.54017171263695 199.40726268291473 47.052865564823151 311.87394404411316 1438.0939195156097 6821.0201273858547 2352.8251861333847 892.50433641672134 190.16292244195938 977.46239376068115 757.22232115268707 37.554438978433609 250.62960037589073 239.24482446908951 892.20101210474968
leaf_count=391 4478 1966 1238 1053 315 732 1797 3131 303 1436 229 935 681 1639 1988 1708 430 96 548 2858 14368 4505 1792 410 2038 1483 68 506 422 1791
internal_value=0.0114757 0.0200977 0.0166549 0.00743536 0.0190202 0.0151863 0.0171044 0.00665572 0.0334873 0.0205789 -0.021618 0.01564 -0.00373067 0.0106161 0.0291113 0.0432527 0.012387 0.0221155 0.0333764 0.011946 0.00198651 0.0143497 0.0178147 0.0211983 0.00792213 0.0112706 -0.00385179 -0.00911219 0.0489357 0.00335676
internal_weight=27613 8810.81 7008.69 18802.2 6417.15 5064.63 4813.76 18230.3 1802.12 4125.75 250.872 637.329 688.014 9863.87 2020.88 1164.79 2104.87 1013.26 1352.52 9080.46 8366.46 6896.46 4480.9 3588.39 2415.56 1235.57 478.347 440.793 286.298 1091.61
internal_count=55335 17006 13669 38329 12431 9917 9373 37276 3337 7960 544 1238 1413 19777 3785 2099 4175 1954 2514 18138 17499 13660 8764 6972 4896 2467 984 916 518 2221
is_linear=0
shrinkage=0.05


Tree=12
num_leaves=31
num_cat=0
split_feature=13 0 15 4 1 5 1 13 5 4 3 5 10 4 10 17 0 0 7 15 0 12 13 16 0 7 4 6 10 5
split_gain=364.506 144.931 143.068 167.247 156.631 136.935 98.1751 86.3316 85.8168 85.6869 81.785 74.5845 74.5362 72.3982 62.9687 60.026 58.5289 63.5165 58.4194 55.7341 53.9323 52.7632 51.8191 50.0787 59.2915 47.8609 47.7568 88.9157 47.128 47.039
threshold=35.368931500447722 0.095110055631624071 98.973438531657038 -0.027528323289814745 0.032789822822990623 -0.00076074564068728801 -0.0073916237169398113 42.147384074969175 -0.0016635475870084846 -0.01968689201201573 0.8174249101298291 -0.0062131102609931368 -0.95012187435082873 -0.013906447534766163 0.45204090537214298 0.035661099617598703 0.0095694510161507835 -0.013380618862242143 0.84003375382449852 89.248134324003686 -0.039260977388428112 30.718286283171981 63.872674242334249 -100.59477726274947 0.001729854871236043 1.3026178309364302 0.0047777553424706029 0.47499881250296766 -0.12391495254657518 1.0000000180025095e-35
decision_type=2 2 2 2 2 2 2 2 2 2 2 2 2 2 2 2 2 2 2 2 2 2 2 2 2 2 2 2 2 2
left_child=2 5 3 4 12 7 13 11 -8 -7 20 -2 -1 16 21 -9 17 -5 19 23 -6 -13 -17 24 -11 -3 -25 29 -12 -28
right_child=1 25 -4 6 10 9 8 15 -10 18 28 14 -14 -15 -16 22 -18 -19 -20 -21 -22 -23 -24 26 -26 -27 27 -29 -30 -31
leaf_value=-0.0094483718586437643 0.026196901642111012 0.054587476686229479 -0.0058293478872727227 0.032222724907225359 0.051946923320281627 0.014254693671146006 0.028492846843971062 0.012836822474920261 0.012031932765542331 0.06449417776518776 0.018949643060405766 -0.0019087960562303196 0.045466064650326543 -0.044092994315879208 0.0011488850212696777 0.0056509949745192755 0.052957662464514346 -0.023087074742939293 0.0036051184232176489 -0.030435444123731926 0.016384893945512485 0.024113654564852 -0.012600170761897303 -0.0097753328564294025 0.0017516694354679785 0.022948852930042767 0.035890349259433574 -0.020496515038391713 -0.019931655610742297 0.0049235911933773711
leaf_weight=64.526171445846558 1380.2821837067604 170.60565793514252 454.42225459218025 76.737324506044388 165.62144780158997 1324.4290441274643 1436.1573629379272 3231.8378711342812 1764.681643396616 57.088217973709106 133.40831828117371 245.52882009744644 1458.4396085441113 99.028558969497681 890.21148934960365 3965.4804639220238 52.936046123504639 160.4128632247448 5368.0191780030727 204.34786894917488 299.24565747380257 942.68367204070091 431.19847729802132 1695.3625917434692 110.60730755329132 399.28785362839699 199.94201031327248 229.5401397049427 187.43134748935699 317.16113373637199
leaf_count=129 2616 298 944 143 292 2607 2682 6440 3473 105 257 495 2608 226 1815 8045 94 344 11180 457 579 1801 919 3661 232 748 395 503 393 664
internal_value=0.0107004 0.00754744 0.0212038 0.0232864 0.0337851 0.00685913 0.0165347 0.0106345 0.0194176 0.002456 0.0156532 0.017187 0.0431394 -0.00718008 0.0112035 0.00766365 0.00542112 -0.00518987 0.000546144 -0.00528909 0.0290548 0.0187365 0.00386104 -0.00332005 0.023111 0.0324203 -0.0051351 0.00540122 -0.00376443 0.0168971
internal_weight=27516.7 21163.6 6353.05 5898.63 2308.67 20593.7 3589.95 11087.2 3200.84 9506.5 785.707 3458.71 1522.97 389.115 2078.42 7628.52 290.086 237.15 8182.07 2814.05 464.867 1188.21 4396.68 2609.7 167.696 569.894 2442.01 746.643 320.84 517.103
internal_count=55145 42981 12164 11220 4258 41935 6962 22131 6155 19804 1521 6727 2737 807 4111 15404 581 487 17197 6017 871 2296 8964 5560 337 1046 5223 1562 650 1059
is_linear=0
shrinkage=0.05


Tree=13
num_leaves=31
num_cat=0
split_feature=13 0 15 14 0 0 1 2 10 14 17 6 15 0 7 2 0 1 15 6 1 4 10 4 7 10 6 10 3 0
split_gain=345.64 138.601 132.749 116.224 111.787 127.226 117.93 149.749 118.702 116.608 141.691 141.647 121.344 91.4281 89.1579 87.4395 81.311 82.8986 89.7076 75.4615 67.2895 110.224 145.735 106.313 65.2428 70.0628 63.933 63.7467 58.2703 58.1539
threshold=35.368931500447722 -0.037483591874165854 98.039071511192915 2.9386621351057429 0.095110055631624071 -0.015504186535965142 -0.013880049829116607 -0.010690527098604597 0.49706561974151203 44.599050385951486 0.027021214942323225 0.57970930476912474 77.23171797829437 0.0051161073825714857 1.2460554467632281 -1.0000000180025095e-35 -0.10513237206117036 0.027101929777791339 39.401383539934507 0.82692188424747304 0.043172171865208747 0.0081541882876207134 0.08547677672789146 0.025462929290380302 0.6277132874894521 -0.27976664942241486 0.071428061228132958 0.22892557044276649 0.82927272244026484 0.017409856402087958
decision_type=2 2 2 2 2 2 2 2 2 2 2 2 2 2 2 2 2 2 2 2 2 2 2 2 2 2 2 2 2 2
left_child=1 19 3 24 5 16 27 8 -8 11 -11 12 14 -10 -9 28 -2 18 -18 26 21 22 -12 -22 -3 -26 -1 -7 -5 -13
right_child=4 2 -4 15 -6 6 7 9 13 10 20 29 -14 -15 -16 -17 17 -19 -20 -21 23 -23 -24 -25 25 -27 -28 -29 -30 -31
leaf_value=-0.056228738411267333 -0.037105634481812165 0.00054284207545828933 -0.0049433495964987069 0.027306495930494064 0.02898509188051588 0.0019534826734491002 0.0044466782754973939 0.042631211913345166 -0.0033639700348543078 0.023693298749432205 0.014500760895274601 0.016954578144026539 0.013232340325785977 -0.034161486910206311 0.006055345918268615 0.018074160014827697 0.0011923073587791493 0.0049249143482344099 0.022948055939326084 0.018610806973217552 0.023354075059140923 0.0037803576826068302 -0.034920461476374308 -0.0079255724152238749 0.010737847590790937 0.043240839368042898 0.051238705405586352 -0.0104709489466428 -0.021499548534318336 -0.0097744459977997314
leaf_weight=14.170139878988264 77.420493453741074 135.24644502997398 589.82859387993813 81.866728335618973 574.61767083406448 3015.610836148262 2772.3221081197262 973.77679198980331 606.47638255357742 900.3776693046093 213.95018008351326 345.0525788962841 1094.1006542444229 399.87504470348358 201.00576540827751 3322.3706730604172 576.47145000100136 1521.6940807402134 2661.1471353471279 316.43280747532845 705.14311224222183 1588.7487659752369 492.64870288968086 441.87015452980995 202.72809728980064 910.16761708259583 592.60014644265175 1569.8188102841377 241.74306446313858 496.02484709024429
leaf_count=31 171 269 1226 155 1060 6232 5676 1825 1286 1777 425 682 2175 908 407 6396 1185 3068 5145 601 1386 3263 1091 928 390 1642 1049 3353 512 1040
internal_value=0.0103042 0.0204825 0.0174652 0.0201658 0.00723221 0.00662701 0.00445692 0.00721557 -0.000892607 0.0113266 0.00603393 0.0187172 0.0252141 -0.0156014 0.0363731 0.0156576 0.0137235 0.0145504 0.0190744 0.0384058 0.00141497 -0.00352672 -0.0199563 0.011304 0.0333349 0.03732 0.048729 -0.00230001 -0.00915261 0.00119115
internal_weight=27635.3 6407.15 5483.95 4894.12 21228.2 20653.5 15816.8 11231.4 3778.67 7452.7 4342.74 3109.96 2268.88 1006.35 1174.78 3645.98 4836.73 4759.31 3237.62 923.203 3442.36 2295.35 706.599 1147.01 1248.14 1112.9 606.77 4585.43 323.61 841.077
internal_count=55354 12271 10590 9364 43083 42023 32454 22869 7870 14999 8870 6129 4407 2194 2232 7063 9569 9398 6330 1681 7093 4779 1516 2314 2301 2032 1080 9585 667 1722
is_linear=0
shrinkage=0.05


Tree=14
num_leaves=31
num_cat=0
split_feature=13 0 0 15 14 0 10 4 14 0 1 2 2 2 0 7 1 0 7 14 1 15 14 17 13 1 7 10 4 0
split_gain=299.211 122.723 112.01 110.777 113.012 101.886 101.164 111.639 122.69 108.805 112.361 130.878 108.015 93.6168 86.2629 80.9744 77.4774 76.3311 74.9205 71.4154 88.1445 70.2499 81.3953 114.018 65.7601 81.6366 63.5209 70.4705 62.407 81.2673
threshold=35.645398819525795 -0.037483591874165854 0.095480421980933414 98.412620307444215 2.9386621351057429 -0.012108954231934985 0.50492117341438525 0.0047777553424706029 31.352358516174345 0.02623636943560138 -0.0079840743482205625 -0.034149659852118389 0.0083500053262455329 0.035741541266908747 -0.10513237206117036 2.6530036154711687 0.040572559262056454 -0.0033264069687232536 1.5600570779421219 86.573177434247796 0.025752496102414726 83.157829085930175 44.599050385951486 0.03709922631498188 49.354479975562946 0.068413380717527117 0.76462920388326083 -0.27127883613650755 -0.024822695035460914 1.0000000180025095e-35
decision_type=2 2 2 2 2 2 2 2 2 2 2 2 2 2 2 2 2 2 2 2 2 2 2 2 2 2 2 2 2 2
left_child=1 15 5 4 26 14 9 8 12 10 -7 -12 17 28 -2 -1 -10 -8 21 20 -16 22 -13 -24 25 -21 -3 -28 -6 -30
right_child=2 3 -4 -5 13 6 7 -9 16 -11 11 18 -14 -15 19 -17 -18 -19 -20 24 -22 -23 23 -25 -26 -27 27 -29 29 -31
leaf_value=0.040020259362496306 -0.040632915919609651 0.013056197759267167 0.030856657125351628 -0.0067476378890305375 -0.020441044479262545 0.0014563995735761021 0.010810107517351553 0.0091845351979834584 -0.027972079933177848 -0.0030092251032831068 0.00055571178814273843 0.034340597576078283 0.012857218158682611 0.018863059859069421 0.018565616457177012 -0.016108130270122142 0.004897656523414274 -0.021915406304260657 0.0012749371855926236 -0.065564043903604138 0.004818768705062859 -0.0029767378318773241 0.024599138916954869 -0.0026724388013000698 0.0029875779856371374 0.067515915139119684 0.010771710231323438 0.044043834979308388 0.02142327521377746 -0.009415908275637104
leaf_weight=850.61679059267044 77.589546948671341 372.86011299490929 466.38336572051048 485.38973572850227 248.46105062961578 3015.5086495876312 251.59953731298447 1329.563954770565 886.08435842394829 2361.5104846358299 1416.5281466543674 1085.2981935739517 835.90780115127563 2702.9918696284294 3514.0093986392021 69.508057653903961 224.74801504611969 610.64770314097404 552.18433725833893 76.412526696920395 1745.2065430879593 276.07911559939384 1422.7712473571301 524.56336209177971 314.0693384706974 13.570485442876814 199.66671326756477 784.11260053515434 489.91521286964417 378.7949059009552
leaf_count=1546 174 720 855 1021 518 6230 514 2727 1967 4932 2922 2048 1678 5182 6860 141 460 1354 1130 178 3517 564 2775 1080 643 24 384 1409 941 778
internal_value=0.00954239 0.0188441 0.00662685 0.016092 0.0182335 0.00607652 0.00388244 -0.00275188 -0.00840168 0.00645944 0.00915575 0.0135551 4.98626e-05 0.013831 0.0117302 0.0357802 -0.0213217 -0.0123663 0.0183245 0.0124476 0.0140039 0.0211699 0.0233681 0.0172529 -0.00780934 -0.045494 0.0306303 0.037291 0.00165605 0.00797607
internal_weight=27582.6 6582.32 21000.2 5662.19 5176.8 20533.9 14793 4138.55 2808.99 10654.4 8292.93 5277.42 1698.16 3820.16 5740.86 920.125 1110.83 862.247 3860.9 5663.27 5259.22 3308.71 3032.63 1947.33 404.052 89.983 1356.64 983.779 1117.17 868.71
internal_count=55272 12640 42632 10953 9932 41777 30381 8700 5973 21681 16749 10519 3546 7419 11396 1687 2427 1868 7597 11222 10377 6467 5903 3855 845 202 2513 1793 2237 1719
is_linear=0
shrinkage=0.05


Tree=15
num_leaves=31
num_cat=0
split_feature=4 1 12 5 1 2 0 2 10 0 6 0 14 6 15 3 0 14 0 2 15 0 14 15 4 6 1 14 7 4
split_gain=274.904 172.689 160.167 153.373 188.154 167.671 113.026 101.635 100.909 95.2639 124.847 86.1466 76.772 76.0792 103.356 75.2973 74.5159 70.0134 72.0354 67.0497 66.2543 63.9647 62.5571 59.4919 54.9454 55.6812 54.7994 54.2348 52.8887 65.2055
threshold=-0.027119919196577021 0.030495636693652371 38.791571310679878 -0.0018148820326679414 -0.0063325705172649184 0.0042826617920008105 0.095110055631624071 0.0027910713908169899 0.50492117341438525 -0.04320217770746191 0.87431119670813562 0.02623636943560138 41.077727508174569 0.74999531252929896 82.894691395455297 0.86782697790449059 -0.0068711930921397544 5.6040149037659219 -0.02370800695179812 -0.056121177179164233 99.382675151166708 0.00098231858708235824 -2.6077229724873265 39.401383539934507 0.0020190143882352633 0.44999775001124986 -0.046880255352074407 25.180843394879101 0.62357621266811269 -0.011144565425405482
decision_type=2 2 2 2 2 2 2 2 2 2 2 2 2 2 2 2 2 2 2 2 2 2 2 2 2 2 2 2 2 2
left_child=1 2 7 4 16 -6 8 -1 11 -3 22 19 13 14 -7 -10 23 20 -19 -5 -9 -20 -11 -2 27 -26 -21 -17 -28 -30
right_child=3 9 -4 6 5 12 -8 17 15 10 -12 -13 -14 -15 -16 24 -18 18 21 26 -22 -23 -24 -25 25 -27 28 -29 29 -31
leaf_value=0.017561095963370313 -0.0037512712837029158 0.028275057754946778 0.0035230556534792193 -0.004380854675019117 0.0066186760459965681 0.044031966993865274 0.028367506482634489 0.04930256477065291 0.0060970020798001845 0.025641147966903047 -0.049240129601468535 -0.0051897809301336469 0.015807602591180761 0.00062531396992039753 0.020892516482248671 -0.0067245171717585624 -0.0045961610090396341 0.038071758140488576 -0.0048724363946608291 -0.0045214888888591197 -0.0012430767711900511 0.049193838783078453 -0.0026509474062599357 0.019480154666772706 0.01230297879767653 -0.014810252809854497 -0.0063790250992453645 -0.025425341322309222 0.022048249948061076 0.0092894002459062118
leaf_weight=908.95673295855522 425.80953881144524 365.57719007134438 631.39583265781403 965.9413857460022 2712.0065342485905 952.81164059042931 440.95117476582527 1030.6961649954319 1114.5620077550411 262.92360487580299 120.24792686104774 1543.9604615569115 2137.6329433917999 210.03555575013161 977.82931104302406 867.78217869997025 1904.3878519535065 532.56536030769348 235.8974412381649 601.41802734136581 69.183225870132446 71.221382051706314 760.59019207954407 781.09472364187241 460.14526516199112 321.7766852080822 389.32210084795952 700.79689586162567 1373.1980590522289 3698.3698571324348
leaf_count=1752 882 685 1271 2022 5439 1713 812 1838 2281 503 274 3256 4152 419 1849 1863 3970 970 473 1262 139 127 1533 1517 960 706 809 1575 2646 7491
internal_value=0.00955927 0.0201809 0.0263071 0.0072123 0.0117923 0.0163448 0.00350461 0.0313574 0.00259383 0.00605634 -0.00104536 0.00550441 0.0225102 0.0292033 0.0323123 -0.00460666 0.00156387 0.0378229 0.0269506 0.00785371 0.0461232 0.00766563 0.00461682 0.0112838 -0.00968213 0.00114534 0.00980311 -0.0150795 0.0113807 0.012744
internal_weight=27569.1 4989.26 3479.92 22579.8 10101.6 6990.32 12478.2 2848.52 12037.3 1509.34 1143.76 8572.21 4278.31 2140.68 1930.64 3465.06 3111.29 1939.56 839.684 7028.25 1099.88 307.119 1023.51 1206.9 2350.5 781.922 6062.31 1568.58 5460.89 5071.57
internal_count=55189 9565 6570 45624 19941 13572 25683 5299 24871 2995 2310 17486 8133 3981 3562 7385 6369 3547 1570 14230 1977 600 2036 2399 5104 1666 12208 3438 10946 10137
is_linear=0
shrinkage=0.05


Tree=16
num_leaves=31
num_cat=0
split_feature=16 2 10 4 4 10 4 0 17 15 6 0 17 2 5 14 0 1 14 0 5 1 1 1 1 17 6 0 14 10
split_gain=271.571 173.042 106.642 104.106 102.129 108.082 100.87 136.416 88.2837 75.8623 71.1837 69.329 67.8395 74.3108 74.7927 64.838 63.9992 62.6826 62.1099 61.1525 59.2192 56.0861 52.9048 52.4411 52.2154 50.6808 50.6112 53.9533 84.2307 51.7123
threshold=-70.116510714256776 0.0056716288281413877 0.36000596079352004 -0.05573440878463725 -0.020859086707057047 0.50492117341438525 0.0050467187607563533 -0.0016743414128623016 0.045962452251377385 99.382675151166708 0.84210193907274988 0.029809916540445885 0.035661099617598703 -0.047082891691682748 1.0000000180025095e-35 41.077727508174569 0.095480421980933414 1.0000000180025095e-35 19.095569536768231 -0.011126084315579913 -0.0088888888888888889 0.063365683841057382 0.028303776162851825 0.10884418433377241 0.025752496102414726 0.036471569597354682 0.8666651259288366 -0.021658169868786974 10.374543411162341 0.17353610166360925
decision_type=2 2 2 2 2 2 2 2 2 2 2 2 2 2 2 2 2 2 2 2 2 2 2 2 2 2 2 2 2 2
left_child=1 2 10 -3 8 12 7 15 26 11 -1 20 13 -6 17 -7 -14 -15 -9 24 -5 -20 -8 -22 -4 -26 27 -2 -29 -30
right_child=4 3 19 9 5 6 22 18 -10 -11 -12 -13 16 14 -16 -17 -18 -19 21 -21 23 -23 -24 -25 25 -27 -28 28 29 -31
leaf_value=0.017159367018588854 0.036833637862571732 0.043326033052825529 0.035959970586342371 0.036587869033847163 -0.0046663118440697475 0.012404830914785321 -0.00182537014327273 -0.0037294348255124984 0.0050561028314318954 -0.017366296176267417 -0.013682712750046172 -0.009490970429507745 0.0014552038145286142 0.0080307612818785214 0.0038406223184360671 -0.0095476679227983838 0.024081387358075641 0.02171538587246151 -0.031505230479076961 -0.014059830901751209 0.020571036768251876 0.016719044815585612 0.018688305510627432 -0.0082053703619356308 -0.030046311656150623 0.014770243101817649 -0.0012500188791528246 0.036435030931852672 0.021631254746995111 -0.01799410944716856
leaf_weight=1724.8187262713909 638.10264387726784 495.29655936360359 132.16327750682831 572.36028134822845 745.5590794980526 723.23811802268028 630.45109021663666 378.4925542473793 1301.0064496099949 137.11581492424011 209.84331321716309 187.6190088391304 5843.4448696374893 1366.4640793204308 1781.2141877114773 628.79141584038734 330.18996152281761 2158.8318147361279 816.54354807734489 734.40382885932922 4093.4350389540195 65.099418163299561 626.77160367369652 164.69090846180916 102.55730193853378 163.889185577631 186.70501056313515 277.52588176727295 145.40599149465561 189.82062941789627
leaf_count=3335 1175 901 248 1046 1558 1457 1324 806 2603 293 437 393 11997 2759 3657 1338 613 4158 1835 1569 7857 130 1249 334 225 323 373 516 279 400
internal_value=0.00894414 0.0162402 0.0066799 0.0214305 0.00556674 0.00404797 -0.00323511 -0.00883574 0.0144928 0.0193269 0.0138141 0.0203295 0.00635304 0.0101148 0.0121916 0.00219533 0.00266534 0.016411 -0.0206712 -0.00550196 0.0214878 -0.0279444 0.00840145 0.0194581 0.0102652 -0.00247999 0.0230332 0.0266577 0.0160608 -0.000806437
internal_weight=27551.9 8718.19 3067.68 5650.52 18833.7 16095.1 3869.39 2612.17 2738.57 5155.22 1934.66 5018.11 12225.7 6052.07 5306.51 1352.03 6173.63 3525.3 1260.14 1133.01 4830.49 881.643 1257.22 4258.13 398.61 266.446 1437.56 1250.86 612.753 335.227
internal_count=55188 16961 6137 10824 38227 32881 8139 5566 5346 9923 3772 9630 24742 12132 10574 2795 12610 6917 2771 2365 9237 1965 2573 8191 796 548 2743 2370 1195 679
is_linear=0
shrinkage=0.05


Tree=17
num_leaves=31
num_cat=0
split_feature=13 15 14 5 0 13 2 0 10 2 6 16 0 15 17 4 14 2 1 0 1 0 10 5 1 4 4 15 4 0
split_gain=236.211 109.333 171.658 89.6981 95.9953 89.9235 88.0206 86.5533 90.5099 86.5473 69.4868 73.6975 61.9026 62.3718 61.4995 59.3127 82.9142 96.7549 66.907 63.9462 59.1309 108.855 60.1003 59.4155 58.103 52.704 49.9697 47.9297 58.383 88.4585
threshold=35.368931500447722 98.973438531657038 4.2759699505699365 -0.0032835331701000499 0.095110055631624071 49.354479975562946 0.026418096738951513 -0.015504186535965142 0.50492117341438525 0.0049484645475908621 0.57970930476912474 -41.177687672793645 -0.037483591874165854 94.936618731067696 0.04197229247736424 0.015238312642208209 42.028256891061929 0.0428266745994553 -0.0026036032422750012 0.0013793112195399251 -0.021461890559324865 -0.017262819905216175 0.012997686263927799 -0.0079849174764933233 0.021121825029282445 0.0047777553424706029 -0.010941839989980049 33.639835468264984 -0.0035748484026942857 -0.0052607207289453615
decision_type=2 2 2 2 2 2 2 2 2 2 2 2 2 2 2 2 2 2 2 2 2 2 2 2 2 2 2 2 2 2
left_child=1 2 9 5 7 27 14 24 10 -1 -9 26 -11 -14 -4 16 17 19 -19 -10 21 22 -8 -22 -5 -21 -12 -2 29 -29
right_child=3 -3 6 4 -6 -7 20 8 15 12 11 -13 13 -15 -16 -17 -18 18 -20 25 23 -23 -24 -25 -26 -27 -28 28 -30 -31
leaf_value=0.016230045034579078 -0.018421428611175687 -0.0071421078749222752 -0.0084477747706191361 0.017894151911648851 0.02598389031661065 0.0035294355880862377 -0.019176987724409844 0.0062828622069466024 0.0017219032806854531 0.056985705186988346 0.012519355611522967 0.0015662200486137514 0.043974927986804968 0.019882448453551416 0.02614313564610701 0.012960502249959552 -0.021492863097816849 -0.0063038615610236347 0.028423230691734799 -0.028851003772435813 0.037605695025854591 -0.02841010479515059 0.058402985136325317 0.015751152629347894 0.00087842407028469326 0.0074501911603021753 -0.027687268986262961 0.016336123882130512 0.022416988317503099 -0.0020000270731480524
leaf_weight=743.0426687002182 110.15609526634216 441.77863168716431 686.34358468651772 1354.2855911254883 449.33678424358368 3286.7325277030468 36.715186417102814 5598.9543317556381 529.04072034358978 311.95866540074348 93.776904195547104 1259.865874350071 526.69035139679909 548.28988525271416 158.09332236647606 337.77193138003349 912.37472859025002 237.39311611652374 333.62100774049759 513.91743966937065 360.01106056571007 185.18002671003342 77.998841911554337 2284.2928986549377 796.90280500054359 124.13873824477196 439.21105539798737 2224.541910380125 1695.2951566874981 933.88539010286331
leaf_count=1423 232 920 1401 2639 831 6698 75 11404 1112 558 186 2611 948 1043 299 694 2047 509 647 1169 653 404 136 4384 1627 258 960 4286 3236 1891
internal_value=0.00840008 0.0168524 0.0186434 0.00586795 0.00327693 0.00994436 0.0122588 0.00246272 0.000571016 0.0299999 0.00353962 -0.00502735 0.0373771 0.0316866 -0.00197175 -0.00677217 -0.00928685 -0.00287964 0.0139858 -0.0111312 0.0163403 -0.00470068 0.0335729 0.0187266 0.0115907 -0.0217883 -0.0206131 0.0141919 0.014932 0.0109145
internal_weight=27591.6 6360.4 5918.62 21231.2 12980.6 8250.61 3788.63 12531.3 10380.1 2129.98 7391.81 1792.85 1386.94 1074.98 844.437 2988.26 2650.49 1738.11 571.014 1167.1 2944.2 299.894 114.714 2644.3 2151.19 638.056 532.988 4963.88 4853.72 3158.43
internal_count=55281 12244 11324 43037 26694 16343 7352 25863 21597 3972 15161 3757 2549 1991 1700 6436 5742 3695 1156 2539 5652 615 211 5037 4266 1427 1146 9645 9413 6177
is_linear=0
shrinkage=0.05


Tree=18
num_leaves=31
num_cat=0
split_feature=16 2 17 4 0 5 2 1 15 16 10 7 0 7 10 1 6 2 15 0 0 10 5 4 0 1 13 17 0 7
split_gain=219.313 114.976 145.319 85.0619 94.8428 76.1676 101.733 97.9387 73.2799 77.4099 71.0177 70.4813 63.2879 62.7384 62.1923 61.9425 78.3229 61.897 91.0317 68.0162 56.8266 74.981 58.65 55.7162 57.9754 54.386 53.804 53.3113 51.2283 57.8961
threshold=-70.116510714256776 0.040965885816152008 0.036773975003870966 -0.015561409192045348 0.080771717942936652 1.0000000180025095e-35 -0.044265365366472319 -0.0085252008233596219 98.039071511192915 -155.1733997623322 0.091461078400704485 1.4693358831159082 -0.029633054011212492 0.83719108688728905 -0.90103476573052754 -0.057125133333402987 0.8666651259288366 0.035741541266908747 62.340352750508039 0.011920445558192312 0.021844690388443298 0.58647854640877861 -0.0050747114267564166 0.0025523734458742235 0.001729854871236043 0.037775753915498568 38.63394661971811 0.042932203910273824 -0.0055040961361540169 1.5600570779421219
decision_type=2 2 2 2 2 2 2 2 2 2 2 2 2 2 2 2 2 2 2 2 2 2 2 2 2 2 2 2 2 2
left_child=1 2 8 15 5 6 -5 26 9 -1 -10 -6 14 -7 -3 -2 17 18 27 -19 21 28 -23 24 -24 -16 -8 -17 -9 -30
right_child=3 12 -4 4 11 13 7 20 10 -11 -12 -13 -14 -15 25 16 -18 19 -20 -21 -22 22 23 -25 -26 -27 -28 -29 29 -31
leaf_value=0.025314554500146438 0.00056122950996999885 -0.012557086265227412 0.019243464576303645 -0.0061956815021841326 0.045063428865025922 -0.012054577695335765 -0.031635514534219374 0.0093831963497135497 0.0066215497702723641 0.0017700700288679951 -0.041804673117580279 0.010184969302706499 0.018249551817515582 0.00077738507865114789 0.048421877050823237 0.048250269836055425 -0.00940270291837309 0.023854602800615323 0.0048663055501729849 0.073073837994993049 -0.0012355643074645718 0.017733516331030052 -0.0041214740138385015 0.0097113398550498949 -0.041578661346167931 0.015001526815879622 0.00082776126603839302 0.012493304513130292 0.025140078542821243 -0.0008953937214739269
leaf_weight=411.45151624083519 977.69835469126701 62.164669156074524 2376.9872447252274 1713.3971239626408 217.59847694635391 1342.4497300684452 134.85244810581207 1315.4128401577473 135.51783952116966 2303.973469555378 171.54311284422874 433.20526376366615 2611.8935754597187 3279.6841747760773 473.79727229475975 227.59503960609436 293.69601947069168 931.51996719837189 1214.2661134302616 75.911161065101624 805.67087742686272 433.64599013328552 317.78260681033134 365.93334725499153 153.05844560265541 163.82284128665924 2384.8019883334637 192.32979044318199 1794.3689680099487 242.37178564071655
leaf_count=777 1982 126 4593 3605 390 2913 299 2589 271 4640 387 836 5022 6828 859 416 599 1771 2429 130 1650 833 663 743 348 316 4938 383 3422 489
internal_value=0.00793163 0.0144925 0.00999383 0.00489921 0.00317981 0.00232928 0.00485475 0.00723699 0.0027196 0.00533762 -0.0204323 0.0218467 0.0218273 -0.00294952 0.035181 0.0114614 0.0150921 0.0178154 0.0118061 0.0275633 0.0110185 0.0131542 0.00281015 -0.00492366 -0.0162979 0.0398352 -0.00090968 0.0318732 0.0170745 0.0220419
internal_weight=27558.4 8711.15 5399.47 18847.3 14934.2 14283.4 9661.3 7947.9 3022.49 2715.42 307.061 650.804 3311.68 4622.13 699.785 3913.02 2935.32 2641.62 1634.19 1007.43 5428.24 4622.57 1270.42 836.774 470.841 637.62 2519.65 419.925 3352.15 2036.74
internal_count=55247 16991 10668 38256 30546 29320 19579 15974 6075 5417 658 1226 6323 9741 1301 7710 5728 5129 3228 1901 10737 9087 2587 1754 1011 1175 5237 799 6500 3911
is_linear=0
shrinkage=0.05


Tree=19
num_leaves=31
num_cat=0
split_feature=4 1 13 5 1 0 2 0 7 14 0 14 2 7 2 7 0 16 14 1 2 2 13 17 2 15 4 1 1 2
split_gain=201.101 172.707 158.466 116.612 122.377 86.3702 77.0761 74.2368 73.669 68.893 74.0665 68.4989 64.4422 61.4023 61.3682 59.678 59.8929 58.7426 56.8444 55.1664 65.9373 62.8093 51.3808 67.8853 51.2293 50.0817 60.6538 79.5988 58.989 63.6245
threshold=-0.027119919196577021 0.029117398570727149 44.561167254304301 -0.0024605291171862493 0.018657257604542763 -0.038353569089508009 0.0027910713908169899 0.080771717942936652 1.4559031177947084 87.843031415392232 -0.0075263781997035864 -4.7488730696258896 0.0095956870618554083 1.4846767002295911 0.15347887135620039 0.62357621266811269 0.02686808985998845 -41.177687672793645 29.656770103449656 -0.036618382022876962 -0.051500607149947475 0.1223182174546799 25.174998309899511 0.037857142857142874 0.14322920458014329 97.674323958992076 -0.017317340641167019 0.024478886590148307 -0.0085252008233596219 0.012206080141145541
decision_type=2 2 2 2 2 2 2 2 2 2 2 2 2 2 2 2 2 2 2 2 2 2 2 2 2 2 2 2 2 2
left_child=1 2 6 4 9 -3 18 15 -9 10 17 -7 -6 -14 -8 -5 19 24 -1 21 -21 -17 -13 -24 -2 26 27 -22 29 -28
right_child=3 5 -4 7 12 11 14 8 -10 -11 -12 22 13 -15 -16 16 -18 -19 -20 20 25 -23 23 -25 -26 -27 28 -29 -30 -31
leaf_value=0.011120387333721549 0.032758042021123715 0.019928537841880506 0.0028146508646932763 -0.0080968734217074685 0.0088745817815907794 0.021011356773021884 0.036109375733208715 0.047257300746330853 0.0073920380249373743 -0.010249560496617682 0.0011863446148277152 0.0097922016313815204 0.024242961725139178 0.00068853252130442449 -0.0048185459952685503 -0.0024394198077332899 -0.0060212764388577547 0.008727615049077762 0.069010643451126438 -0.0057082407528140965 0.029883727631307106 -0.042720979688952138 -0.038104706579704106 -0.0051982319477205672 -0.052540729313653417 -0.021037223809329125 0.012767318374728288 0.0024696206265491403 0.0080197706796387921 -0.013405962559456659
leaf_weight=671.85732215642929 468.02977523207664 503.8937511742115 761.83670097589493 1393.830581009388 1884.7656154930592 202.95251050591469 1796.3191392719746 176.21145239472389 338.51481154561043 703.56301489472389 2418.2847442626953 217.97796675562859 2126.5092422366142 318.06486004590988 96.509944826364517 907.78354555368423 1633.6322000920773 1115.9625886976719 45.261696398258209 1133.8181890249252 646.52705371379852 108.31953477859497 259.51782637834549 395.71205818653107 18.290332973003387 153.99947562813759 344.46221700310707 448.45483416318893 5513.4981844425201 712.40628802776337
leaf_count=1303 864 961 1526 2957 3737 391 3317 314 657 1471 4913 427 3993 632 194 1902 3457 2215 77 2401 1213 251 568 799 41 331 702 890 11159 1531
internal_value=0.0073608 0.0164854 0.0228775 0.00535843 0.00974947 0.00284472 0.0287338 0.00241618 0.0210395 0.00418451 0.00671034 -0.00515449 0.0158219 0.0211783 0.0340226 0.00167861 0.00285292 0.0150476 0.0147742 0.00430711 0.00556012 -0.00673355 -0.011236 -0.0182315 0.02955 0.00719405 0.00776123 0.0186562 0.00594554 -0.00487538
internal_weight=27516.8 4951.84 3371.78 22564.9 9053.47 1580.05 2609.95 13511.5 514.726 4724.13 4020.57 1076.16 4329.34 2444.57 1892.83 12996.7 11602.9 1602.28 717.119 9969.27 8953.17 1016.1 873.208 655.23 486.32 7819.35 7665.35 1094.98 6570.37 1056.87
internal_count=55194 9563 6417 45631 17866 3146 4891 27765 971 9504 8033 2185 8362 4625 3511 26794 23837 3120 1380 20380 18227 2153 1794 1367 905 15826 15495 2103 13392 2233
is_linear=0
shrinkage=0.05


Tree=20
num_leaves=31
num_cat=0
split_feature=12 2 4 1 10 1 15 0 1 14 0 6 14 4 17 2 5 16 0 7 6 7 0 1 6 4 2 14 13 4
split_gain=168.698 162.827 108.734 134.848 106.409 102.089 87.7756 75.6717 82.3291 74.3895 73.79 82.2918 76.1251 72.1345 67.646 64.7925 65.5475 66.0177 69.0515 62.7396 62.2635 60.8386 60.999 58.0583 57.4409 56.0856 55.2065 53.0735 52.6316 51.287
threshold=39.109352563929022 0.035741541266908747 -0.025898657621765128 -0.036618382022876962 0.34650666079020459 0.039270971527744211 84.158332516502469 1.0000000180025095e-35 0.014496509843660592 14.982108481694526 0.080771717942936652 0.65789300554472341 89.001144773670774 0.01097241915518843 0.031995330440736026 -0.06097688628715555 -0.0036193636775487255 46.50961927831861 0.001729854871236043 1.3292467272383732 0.72221820989883523 0.9514539038969213 0.014139557898993869 -0.030289894758195605 0.84210193907274988 -0.0019920318725100135 0.15983103818116765 35.35794877686255 54.645391467538055 0.0027973218553899453
decision_type=2 2 2 2 2 2 2 2 2 2 2 2 2 2 2 2 2 2 2 2 2 2 2 2 2 2 2 2 2 2
left_child=1 4 5 9 24 26 20 8 -6 -4 11 12 15 28 -10 -2 23 29 -19 -12 -5 22 -13 -17 -1 -9 -3 -23 -14 -18
right_child=10 2 3 6 7 -7 -8 25 14 -11 19 21 13 -15 -16 16 17 18 -20 -21 -22 27 -24 -25 -26 -27 -28 -29 -30 -31
leaf_value=0.013561411809708294 -0.002052494969712985 0.034883660268061882 0.010458456923452829 0.027137524888809661 0.019620737892505714 0.0043257496361741553 0.0074282728887079714 -0.021118373923263521 -0.018150578557399686 -0.044340633228553528 0.043519761964599737 -0.0048979754150600963 -0.03602433648893949 0.0011704316488681504 0.006134929739999362 0.0036659686252922454 -0.0036042195182597347 0.032261197208153673 0.0053810436656174286 0.010024431814516873 -0.0041365174689251437 -0.015118476342348135 -0.028175714597942565 0.019278946649093291 -0.0061853131000841541 0.013465092006952985 -0.0029438610957994178 0.0055459423168883601 -0.00021405883145627784 0.007514601715373128
leaf_weight=3433.2031925320625 1716.1849510967731 1547.1339438259602 103.71570119261742 1434.9067324995995 570.37552008032799 398.45004343986511 1717.2049026787281 634.3114922940731 473.76490825414658 153.71883615851402 199.37701246142387 866.65575307607651 265.33751559257507 1406.1011515855789 726.35879248380661 842.3021112382412 1869.1128359138966 421.33099609613419 551.84658768773079 467.86966466903687 179.00342980027199 385.94285491108894 416.78279063105583 2031.5813632011414 412.52488681674004 143.81406834721565 102.86573484539986 1594.2413852512836 167.30045318603516 2329.9534877538681
leaf_count=6653 3593 2873 208 2707 1107 787 3360 1375 1008 357 359 1793 587 2888 1456 1714 3940 815 1135 903 361 819 911 3900 841 289 206 3246 347 4756
internal_value=0.00720938 0.0116538 0.0178489 0.0126023 0.00619243 0.0270402 0.0152967 -0.0017307 0.00398093 -0.0222631 0.00376665 0.00303648 0.00500968 -0.00432289 -0.0034521 0.00676748 0.00864872 0.00528477 0.0170186 0.020033 0.0236688 -0.00397758 -0.0124572 0.014703 0.0114432 -0.0147266 0.0325254 0.0015184 -0.0221766 0.00256533
internal_weight=27563.3 12031.4 5637 3588.55 6394.35 2048.45 3331.12 2548.62 1770.5 257.435 15531.9 14864.7 11601.1 1838.74 1200.12 9762.31 8046.13 5172.24 973.178 667.247 1613.91 3263.62 1283.44 2873.88 3845.73 778.126 1650 1980.18 432.638 4199.07
internal_count=55294 23588 10859 6993 12729 3866 6428 5235 3571 565 31706 30444 23675 3822 2464 19853 16260 10646 1950 1262 3068 6769 2704 5614 7494 1664 3079 4065 934 8696
is_linear=0
shrinkage=0.05


Tree=21
num_leaves=31
num_cat=0
split_feature=16 2 10 10 4 14 1 13 15 14 13 14 2 1 6 4 3 5 17 4 15 14 6 13 13 6 17 1 4 6
split_gain=165.111 113.185 87.1555 80.8296 92.9567 117.945 95.0311 84.8139 71.9086 109.747 70.6471 106.621 93.3339 69.7228 94.0311 69.1116 66.6319 65.5888 64.5318 63.6885 59.0114 71.9393 55.9245 55.5963 53.5711 52.6868 59.1282 51.4647 50.9824 49.8365
threshold=-70.116510714256776 0.0049484645475908621 0.36000596079352004 0.25421044374313917 0.0087267095647917143 16.236372413457108 0.064432755013174289 40.997080674173681 99.382675151166708 4.0123145744979096 51.767291541273316 75.928255196424558 0.0063351551950474308 -0.031935980058508763 0.70757421384680519 0.011915407069375774 0.8692845186250201 -0.0070239853246725761 0.029647739727707127 -0.027965030925618136 81.39530151435963 31.769540769801342 0.69999708334597266 43.005139079869188 43.447548997544637 0.019607804690580339 0.027157143808002434 0.1133286853070032 -0.0096176561388622833 0.84210193907274988
decision_type=2 2 2 2 2 2 2 2 2 2 2 2 2 2 2 2 2 2 2 2 2 2 2 2 2 2 2 2 2 2
left_child=1 2 29 7 5 18 10 15 9 -3 11 12 19 14 24 22 -9 -15 -5 -7 21 -19 -2 -21 -14 -6 -27 -11 -12 -1
right_child=3 8 -4 4 25 6 -8 16 -10 27 28 -13 13 17 -16 -17 -18 20 -20 23 -22 -23 -24 -25 -26 26 -28 -29 -30 -31
leaf_value=0.013857576438155961 0.024690265539802515 0.029064281472469384 -0.0065850756445074848 -0.0089395735346289081 0.051614688246653523 0.034167701072717584 0.016507205643810571 -0.0065212198132126213 -0.014868634620178765 0.014283840595375494 0.03384430746270941 -0.040933417620553317 -0.053215737189892323 0.024095020362721396 0.037030985463796587 -0.012401647947863416 0.0061311045756792908 0.022833711708419066 0.015490309596466781 -0.055149864136279148 -0.023962620109724858 -0.0065833461601625624 0.003475261442626454 -0.021370857854295051 -0.012906223714941715 0.029391354830729344 0.0036558145243532681 -0.015984583168321777 -0.0024399801900558682 -0.011858628184673974
leaf_weight=1697.5816859602928 1266.3424335420132 1494.746884137392 1115.9258250296116 368.60971820354462 73.225446343421936 39.72395271062851 357.83681482076645 1177.6579546034336 177.00313082337379 3837.8746989965439 127.34178006649017 317.26826021075249 174.84570336341858 231.21997329592705 53.854199767112732 189.06491243839264 8940.9009299278259 276.88670167326927 1013.7002847194672 172.11415055394173 308.63884645700455 833.30028411746025 411.6083652973175 416.80023580789566 155.93313473463058 271.07640022039413 1263.3337926268578 145.76717242598534 403.78695264458656 211.91496583819389
leaf_count=3285 2392 2827 2339 778 134 74 702 2430 372 7436 248 720 416 434 102 394 18057 540 2013 400 652 1756 814 912 336 525 2584 299 861 440
internal_value=0.00661626 0.0123219 0.00451603 0.003988 -0.000340525 -0.00356086 -0.0080393 0.00646526 0.0164978 0.0175112 -0.0105405 -0.0135342 -0.0102703 -0.00506757 -0.0242381 0.016257 0.00465855 -0.000598831 0.00897579 -0.0271097 -0.00462308 0.000753429 0.0194861 -0.031243 -0.0342133 0.0101797 0.00820238 0.0131763 0.00625943 0.0110036
internal_weight=27525.9 8680.81 3025.42 18845.1 6859.5 5251.86 3869.55 11985.6 5655.39 5478.39 3511.71 2980.59 2663.32 2034.68 384.633 1867.02 10118.6 1650.05 1382.31 628.638 1418.83 1110.19 1677.95 588.914 330.779 1607.64 1534.41 3983.64 531.129 1909.5
internal_count=55272 16998 6064 38274 14187 10944 8153 24087 10934 10562 7451 6342 5622 4236 854 3600 20487 3382 2791 1386 2948 2296 3206 1312 752 3243 3109 7735 1109 3725
is_linear=0
shrinkage=0.05


Tree=22
num_leaves=31
num_cat=0
split_feature=16 17 13 4 0 1 4 7 10 10 0 4 14 1 13 4 17 4 6 14 1 5 14 1 1 0 6 13 3 14
split_gain=168.905 79.8108 71.5642 68.5607 122.339 75.3806 94.9177 88.3657 69.7794 65.2757 91.5223 96.8716 106.758 86.9166 67.2076 67.9949 64.609 83.2628 77.695 79.6051 74.3551 60.0762 57.6456 62.1384 54.5522 121.2 53.8911 49.3616 48.9117 72.19
threshold=-70.116510714256776 0.034581756974954893 27.208004337114577 -0.0053093043562310585 0.015001268286990175 0.026202372394024103 -0.023434603477680446 0.73802019994627677 -0.19497282561369386 0.45903467825111427 -0.015504186535965142 0.0087267095647917143 16.236372413457108 0.065305098407766757 43.2193104319254 -0.0015349983255308339 0.04197229247736424 -0.013410322513973392 0.71153709319789937 61.066994930725372 0.015772204075030091 0.0017675655241148338 52.51054902181891 -0.006825965070399829 0.034103269684439823 -0.013635383112674484 0.619858098510088 37.699566450672556 0.98694549126033781 90.97362037584962
decision_type=2 2 2 2 2 2 2 2 2 2 2 2 2 2 2 2 2 2 2 2 2 2 2 2 2 2 2 2 2 2
left_child=1 2 -1 5 21 7 8 -4 -7 16 -11 12 -12 14 15 -14 17 18 19 -2 28 -5 23 -17 25 -3 -27 -8 29 -19
right_child=9 24 3 4 -6 6 27 -9 -10 10 11 -13 13 -15 -16 22 -18 20 -20 -21 -22 -23 -24 -25 -26 26 -28 -29 -30 -31
leaf_value=0.022678727375900376 0.020703787908915555 0.033198078447232895 -0.016890992154320196 0.035860578749387077 -0.010779148518566189 0.020412316294906505 0.0059576731107628669 0.013700036364713267 -0.047106224461703067 0.014159386214572434 0.0073106140416909745 0.009179191657029807 -0.036015232029819343 0.018518212867638606 -0.00845699977434251 -0.064561448286209286 0.00096757144080297439 0.0022291261621367976 0.0017624586526894339 0.061031238926557485 0.011314137874741989 -0.0054841219936623701 -0.037639833254683827 0.015774834006583516 0.01109969385514052 0.015176858646629255 -0.014607435292315431 -0.025375944606506381 0.015880554737913343 -0.017795418338770547
leaf_weight=612.1667785346508 963.45471632480621 1199.7697895467281 301.21078541874886 500.57928583025932 292.04636964201927 45.904053926467896 543.23067933320999 1091.5250358879566 230.00073543190956 813.20509070158005 770.86576774716377 1007.8199214041233 652.95174145698547 185.36788567900658 1056.5005141496658 27.371093779802322 4877.3375427126884 3026.4469400346279 481.91836550831795 140.17530915141106 3435.3687219321728 106.56724750995636 112.85955175757408 199.57769939303398 2309.4143043160439 1105.170226842165 176.06935819983482 163.52959349751472 504.98901179432869 528.70973142981529
leaf_count=1171 1843 2243 630 933 606 88 1073 2122 513 1598 1582 2042 1475 363 2297 66 9928 6175 955 246 6800 223 258 396 4512 2148 369 353 1000 1126
internal_value=0.00654116 0.0123107 0.0069871 0.00405364 0.0158127 -0.00039766 -0.0110015 0.00708403 -0.0358727 0.00387609 -0.00113627 -0.00423558 -0.0087339 -0.0142687 -0.0172344 -0.0265754 0.00560926 0.00810225 0.018512 0.0258259 0.00590026 0.0286037 -0.0084366 0.0060859 0.01663 0.0217779 0.0110839 -0.00129227 0.00131947 -0.00074885
internal_weight=27462.1 8677.18 3886.76 3274.59 899.193 2375.4 982.665 1392.74 275.905 18784.9 4826.52 4013.31 3005.49 2234.63 2049.26 992.76 13958.4 9081.06 1585.55 1103.63 7495.51 607.147 339.808 226.949 4790.42 2481.01 1281.24 706.76 4060.15 3555.16
internal_count=55134 16984 7712 6541 1762 4779 2027 2752 601 38150 10077 8479 6437 4855 4492 2195 28073 18145 3044 2089 15101 1156 720 462 9272 4760 2517 1426 8301 7301
is_linear=0
shrinkage=0.05


Tree=23
num_leaves=31
num_cat=0
split_feature=4 1 12 16 6 10 4 0 2 0 1 14 6 14 1 2 7 4 3 15 4 0 5 14 3 5 5 14 15 6
split_gain=131.227 130.855 108.832 94.7702 93.3652 91.0521 101.141 130.018 96.3203 87.7183 85.3975 67.1132 67.0981 84.4464 77.0622 99.8754 123.208 72.5918 72.2999 65.5374 86.5102 79.8219 72.988 65.0169 63.3249 61.9636 58.6415 63.4417 67.8041 55.991
threshold=-0.027119919196577021 0.029117398570727149 40.609580552784259 -118.4481197234677 0.8666651259288366 0.49706561974151203 0.0027973218553899453 -0.004636435193640048 0.010308104683129858 -0.029633054011212492 0.034538486999986344 1.4069927078776365 0.65384363906292831 87.843031415392232 -0.030289894758195605 -0.028473209646538326 1.5427793638070131 0.027452752198171341 0.98541565041803281 83.636287603374953 -0.011144565425405482 -0.014695232614708875 1.0000000180025095e-35 59.850119811835718 0.82927272244026484 -0.0084915675199294643 0.0078740157480315948 16.236372413457108 88.073313694207684 0.24999895833767569
decision_type=2 2 2 2 2 2 2 2 2 2 2 2 2 2 2 2 2 2 2 2 2 2 2 2 2 2 2 2 2 2
left_child=1 2 29 25 9 12 7 -7 -9 -3 26 -11 13 14 -5 -16 17 19 -15 20 -17 -22 -23 -14 -13 -2 27 28 -10 -1
right_child=3 4 -4 5 -6 6 -8 8 10 11 -12 24 23 18 15 16 -18 -19 -20 -21 21 22 -24 -25 -26 -27 -28 -29 -30 -31
leaf_value=0.0070523851334715866 0.048986026498392864 0.020709309963002652 -0.0022215144819455481 0.00038835501307309535 -0.029447659017486451 0.0038871759225766107 0.0080912814787269527 -0.027784618858646672 0.019525595351950809 0.010864242997164748 0.013105934366090092 -0.0011269847090314442 -0.0065258176195024178 -0.007893727704151721 0.0021150804901349666 0.038928305136140262 -0.0022212404532717667 -0.017071791156230143 0.015887153421708277 0.0082553546401334197 -0.0058147400024178798 0.02699152800605711 0.0094426719852402086 0.0066826535718634561 -0.041013300958780724 0.013590990011446728 0.028431141582034161 -0.026393405622588736 -0.026607768910114696 0.025890462338151649
leaf_weight=473.1521267592907 137.64986565709114 589.66423791646957 515.04931658506393 1958.5826386511326 211.97466623783112 1811.5305115282536 1812.1397442817688 818.9218011200428 194.31669747829437 353.96150824427605 406.52787145972252 222.26875987648964 1964.5507492125034 1401.5598540306091 2095.1521426439285 639.99240720272064 893.37460404634476 143.46335858106613 414.0255214869976 1088.5831550657749 299.34366917610168 1854.80408847332 870.62299409508705 1772.0409633219242 180.17422559857368 1215.6989033818245 75.864848881959915 639.87191522121429 134.9661163687706 2371.1942276060581
leaf_count=927 244 1125 1045 4034 461 3682 3690 1871 380 691 796 441 4042 2924 4280 1169 1822 302 814 2115 603 3499 1750 3554 393 2366 151 1429 286 4495
internal_value=0.00596907 0.0133726 0.0189272 0.00436127 0.0013959 0.00354573 -0.00173897 -0.00610295 -0.0140737 0.00625305 -0.00633844 -0.00501651 0.00556889 0.00743749 0.00926494 0.0114697 0.0148547 0.01797 -0.00247074 0.0190276 0.0222274 0.0186938 0.0213856 -0.000261833 -0.0189841 0.017191 -0.0139026 -0.0172164 0.000616497 0.0227568
internal_weight=27561 4917.44 3359.4 22643.6 1558.04 21290.2 5894.14 4082 2270.47 1346.07 1451.55 756.404 15396.1 11659.5 9843.92 7885.34 5790.18 4896.81 1815.59 4753.35 3664.76 3024.77 2725.43 3736.59 402.443 1353.35 1045.02 969.155 329.283 2844.35
internal_count=55381 9578 6467 45803 3111 43193 12285 8595 4913 2650 3042 1525 30908 23312 19574 15540 11260 9438 3738 9136 7021 5852 5249 7596 834 2610 2246 2095 666 5422
is_linear=0
shrinkage=0.05


Tree=24
num_leaves=31
num_cat=0
split_feature=16 2 17 7 15 10 13 0 4 0 1 14 10 4 0 17 14 4 5 13 1 17 0 15 1 15 2 0 15 0
split_gain=120.973 99.1689 115.619 63.4973 61.8736 83.2997 69.2916 61.1978 66.5325 69.4108 60.7302 79.9139 54.7943 91.6476 95.306 85.4243 66.9708 71.0018 70.7736 62.4782 67.8232 56.945 68.4815 73.9389 54.0496 73.3162 54.9047 64.6722 53.1045 49.842
threshold=-70.83132548090893 0.036886490991996326 0.036471569597354682 0.7201185945135814 97.133734761051258 0.10366018603155176 31.488876753379589 -0.10513237206117036 -0.015561409192045348 0.095480421980933414 0.052145192761329805 13.368801395496499 0.16036607196978506 0.0087267095647917143 0.0034592138839262712 0.027401717756120363 75.264393781417326 -0.0013109024003520318 -0.0063002588866718492 51.594701618861045 0.039270971527744211 0.033799759165216686 0.021405727006969646 20.498435714480316 -0.0337660639726328 62.711758115664203 0.031557840407712187 0.0053526163452454071 86.363538223252064 -0.0039940152914597115
decision_type=2 2 2 2 2 2 2 2 2 2 2 2 2 2 2 2 2 2 2 2 2 2 2 2 2 2 2 2 2 2
left_child=1 2 4 -3 6 -6 -1 -2 24 12 11 -5 21 14 16 -15 17 18 -14 20 -18 22 -10 -24 -9 -26 -27 -28 -12 -20
right_child=7 3 -4 10 5 -7 -8 8 9 -11 28 -13 13 15 -16 -17 19 -19 29 -21 -22 -23 23 -25 25 26 27 -29 -30 -31
leaf_value=0.018681183799475334 -0.041820060028535028 0.0042364249524221706 0.014554879075256584 0.031975988274537397 0.0069753635238072381 -0.039375443221718522 -0.0020855752538400433 0.001830558209124019 0.013309899717890681 0.021794901574737988 0.026030203793363807 0.012134348647842847 0.018323782116672922 0.029056854997410508 -0.015879507104474888 0.0021375792090799423 -0.043360133269854939 0.016869920657208486 -0.00064388008522087842 0.0085514184000071991 0.010535340016950836 0.00099943432569635639 0.015212432096439524 -0.017124346195411696 0.032544439746077486 0.0029050403046126144 0.014410420795315541 0.055684574971438805 -0.0049005852312562284 -0.020950244576946803
leaf_weight=513.85169211030006 73.768282234668732 739.31469053030014 2311.2612280547619 1365.9830763041973 173.13239377737045 220.23775041103363 1840.1245609819889 1411.0106200575829 2566.6597523093224 442.95171499252319 220.59431320428848 807.42747128009796 331.11565738916397 366.4741282761097 1528.4540917873383 1504.9741485118866 240.22804528474808 667.34422993659973 899.87615004181862 153.97286999225616 77.110261738300323 5006.0766530036926 297.2981998026371 436.05358785390854 442.17266297340393 1153.4426943361759 770.57401010394096 108.23899182677269 374.1033301949501 454.96270200610161
leaf_count=982 166 1459 4489 2586 343 495 3739 2842 5063 829 415 1568 638 703 3331 3075 552 1329 1857 318 155 10243 593 929 830 2309 1485 191 746 1005
internal_value=0.00586286 0.0107932 0.00631349 0.017254 -0.000619746 -0.0189753 0.00244762 0.00363217 0.00380996 0.00229714 0.0207308 0.0246048 0.00170277 -0.00184407 -0.00582211 0.00740901 -0.000379843 0.00306563 -0.00239846 -0.0175834 -0.030264 0.00436074 0.00945981 -0.00401513 0.00963997 0.0140932 0.0100786 0.019494 0.00657273 -0.00746287
internal_weight=27498.8 8566.03 5058.61 3507.42 2747.35 393.37 2353.98 18932.8 18859 14973.6 2768.11 2173.41 14530.6 6224.51 4353.06 1871.45 2824.61 2353.3 1685.95 471.311 317.338 8306.09 3300.01 733.352 3885.44 2474.43 2032.26 878.813 594.698 1354.84
internal_count=55265 16822 10048 6774 5559 838 4721 38443 38277 30620 5315 4154 29791 12963 9185 3778 5854 4829 3500 1025 707 16828 6585 1522 7657 4815 3985 1676 1161 2862
is_linear=0
shrinkage=0.05


Tree=25
num_leaves=31
num_cat=0
split_feature=12 2 17 14 1 0 15 15 4 14 1 15 4 14 1 0 6 12 14 4 3 0 1 4 16 14 0 5 16 15
split_gain=129.299 121.86 89.4694 81.5957 155.219 113.922 95.4344 78.3255 75.0825 72.65 70.7115 66.5623 65.1643 78.2373 69.45 62.4697 58.945 72.4818 58.0291 64.1381 62.7408 57.2451 59.1347 57.2049 55.5258 79.6729 53.2699 53.107 55.6565 51.7183
threshold=39.109352563929022 0.031557840407712187 0.036471569597354682 10.943969175853615 -0.034726182887653292 -0.011872092488048309 97.826061132872255 81.39530151435963 -0.023743654498609653 2.9386621351057429 0.054742098285489045 96.332640616053496 -0.012207402664911269 49.843545465983915 0.014496509843660592 0.095480421980933414 0.65384363906292831 48.957322051245846 89.001144773670774 0.013701665509661011 0.85806801104393127 0.020112409787095584 0.046354109371550829 -0.0089741194410453123 -98.491371140621908 25.180843394879101 -0.012595506303043088 -1.0000000180025095e-35 -43.761671327732721 82.407331104323006
decision_type=2 2 2 2 2 2 2 2 2 2 2 2 2 2 2 2 2 2 2 2 2 2 2 2 2 2 2 2 2 2
left_child=1 2 9 6 5 -5 8 -6 10 11 -3 23 13 14 26 16 18 21 20 -20 -2 -18 -23 -1 25 -4 -11 28 -14 -22
right_child=15 3 24 4 7 -7 -8 -9 -10 12 -12 -13 27 -15 -16 -17 17 -19 19 -21 29 22 -24 -25 -26 -27 -28 -29 -30 -31
leaf_value=0.021454615301541021 -0.0058211459584652601 0.037973986046916451 0.015175364776993243 0.0088763629521376661 0.022478677999701484 -0.04772493675528558 0.00124606962286998 0.0060817024817581755 0.014482888742324333 0.014206591367142153 -0.00079825124459583874 -0.0078787835820781082 0.020196635813121804 0.069378871230815972 -0.02781986787920343 0.020803922163307498 -0.006434691593878503 0.001934787169141794 -0.018731368187419491 0.0016080307558497446 0.0073085518756765989 -0.043829706007342401 -0.0014470587098067691 -0.020849822372711723 0.004540137760962115 0.065076645585070689 -0.022257555143522921 -0.0095783667607142447 -0.048542210161442313 -0.019978490415675509
leaf_weight=711.65584400296211 1124.0564952194691 1101.5451779663563 1240.6894860267639 164.76777762174606 1286.9293478131294 193.06522396206856 480.62275850772858 1677.8531537353992 844.4276465177536 232.80585363507271 131.64900860190392 419.41424387693405 404.9909088909626 26.494530618190765 645.94720074534416 455.46373045444489 947.41984552145004 2162.0502491295338 547.10038289427757 1329.4634145200253 8382.6028844714165 245.77460032701492 123.7361746430397 90.017919093370438 1591.5870732367039 85.500734627246857 175.78695303201675 428.41840189695358 31.756777167320251 177.32184141874313
leaf_count=1367 2328 2071 2392 322 2446 456 968 3284 1623 447 259 870 776 45 1381 855 1955 4431 1180 2718 16984 555 256 196 3172 147 373 907 70 384
internal_value=0.0055758 0.00948 0.00451962 0.0146126 0.00944472 -0.0216623 0.0213246 0.0131992 0.0259695 -0.0012995 0.0338349 0.00826064 -0.00729773 -0.0154826 -0.0176147 0.0025608 0.00200832 -0.00369779 0.00372549 -0.00432179 0.00528489 -0.012945 -0.0296372 0.0167044 0.0108363 0.0183925 -0.00148121 0.00292933 0.0151985 0.00674329
internal_weight=27460.9 11965.9 6085.07 5880.86 3322.62 357.833 2558.24 2964.78 2077.62 3167.29 1233.19 1221.09 1946.2 1081.03 1054.54 15495 15039.5 3478.98 11560.5 1876.56 9683.98 1316.93 369.511 801.674 2917.78 1326.19 408.593 865.166 436.748 8559.92
internal_count=55218 23572 12143 11429 6508 778 4921 5730 3953 6432 2330 2433 3999 2246 2201 31646 30791 7197 23594 3898 19696 2766 811 1563 5711 2539 820 1753 846 17368
is_linear=0
shrinkage=0.05


Tree=26
num_leaves=31
num_cat=0
split_feature=12 2 10 10 3 1 17 1 6 5 5 14 3 5 2 15 16 6 16 14 8 16 7 10 4 5 6 15 6 14
split_gain=110.801 143.263 82.4319 79.1034 67.6653 68.6186 63.8684 61.6679 93.8444 76.298 56.616 55.4384 82.2518 60.0166 53.4422 52.2017 67.6716 52.0714 114.216 51.8685 50.6527 45.4763 51.1117 44.6337 53.7251 57.9388 46.9375 43.5608 42.2595 41.2917
threshold=40.956209596406175 0.031557840407712187 0.26101162830821545 0.27374609271067413 0.8692845186250201 0.017414807235589264 0.036471569597354682 -0.045653501927964385 0.44443950622771028 -0.0068478496609046804 -0.0021691973969631957 87.843031415392232 0.9840656119663802 0.012325300028212529 -0.10080637246903303 97.674323958992076 -155.1733997623322 0.69230613905681149 -37.99022237019377 15.623490992816555 1.0000000180025095e-35 -95.426108116165025 0.75604605854021523 -0.87802173143247042 -0.015813320832241847 0.0073579005733739331 0.40322515608845905 73.493946387973352 0.84210193907274988 2.9386621351057429
decision_type=2 2 2 2 2 2 2 2 2 2 2 2 2 2 2 2 2 2 2 2 2 2 2 2 2 2 2 2 2 2
left_child=1 2 20 23 -2 11 15 8 19 -9 14 13 -13 17 -7 16 -4 -6 -19 -5 28 -11 -23 -3 25 -25 -26 -12 -1 -18
right_child=4 3 6 7 5 10 -8 9 -10 21 27 12 -14 -15 -16 -17 29 18 -20 -21 -22 22 -24 24 26 -27 -28 -29 -30 -31
leaf_value=0.011754898568753362 -0.0071346277957235167 -0.0026183666151267937 0.029499222090668478 -0.0071949804026220062 0.0037647765536772183 -0.010936419507941379 0.005803793331100867 0.028061698356275956 0.019140654401930076 0.017777131559371731 0.0052337596591048585 -0.016111882928923838 0.006003299181826822 0.021479926608080104 0.016991006443567672 -0.036380465790292103 0.004939345832659179 -0.044211409695106146 -0.00090305273711180204 -0.06557574422551464 -0.019365784630965992 -0.0076141214895836112 0.0094342271462776583 0.024150582449505339 0.022191872423814173 0.057281805960493849 0.00066516784861682041 -0.018893586339060686 -0.0058005598151687687 -0.013970454336383177
leaf_weight=3088.8419863581657 1712.9437141120434 205.25726535916328 123.42627999186516 68.108832061290741 4611.3222213387489 188.634417116642 1312.3842108249664 527.01536566019058 120.04878532886505 732.57164627313614 2618.2203152179718 1053.1666282713413 699.81840839982033 402.05148872733116 1864.3583867251873 155.87195518612862 391.00202277302742 185.27485021948814 853.79317480325699 86.193066120147705 155.456283390522 699.96210232377052 1182.1064077317715 1599.1098406612873 559.30671969056129 143.82620218396187 462.71774300932884 201.47094005346298 385.59218639135361 1103.2470751404762
leaf_count=5994 3568 410 233 140 9439 396 2626 984 235 1415 5353 2258 1404 796 3588 355 797 419 1752 217 320 1440 2335 3054 1055 257 916 440 786 2342
internal_value=0.00522149 0.00854814 0.00344967 0.0139097 0.00219281 0.00345304 -0.00255822 0.00872078 -0.0140127 0.010706 0.00810867 0.00054668 -0.00728316 0.00281446 0.014425 -0.00874591 -0.00608317 0.00148632 -0.00862531 -0.0398065 0.00855724 0.00720776 0.00309376 0.0198775 0.0215475 0.0268846 0.0124457 0.00350983 0.0098066 -0.0090223
internal_weight=27493.1 13102 6715.82 6386.22 14391.1 12678.1 3085.93 3416.01 274.351 3141.66 4872.68 7805.43 1752.99 6052.44 2052.99 1773.55 1617.68 5650.39 1039.07 154.302 3629.89 2614.64 1882.07 2970.22 2764.96 1742.94 1022.02 2819.69 3474.43 1494.25
internal_count=55324 25911 13453 12458 29413 25845 6353 6766 592 6174 9777 16068 3662 12406 3984 3727 3372 11610 2171 357 7100 5190 3775 5692 5282 3311 1971 5793 6780 3139
is_linear=0
shrinkage=0.05


Tree=27
num_leaves=31
num_cat=0
split_feature=0 1 16 1 5 5 10 14 4 0 6 15 6 1 2 0 3 14 6 4 0 0 17 4 4 4 16 14 13 7
split_gain=106.7 113.958 127.078 96.8471 142.326 101.034 101.786 77.0315 85.2195 95.798 75.9942 67.7533 65.0004 66.5325 63.8451 67.7954 61.4948 60.3271 70.498 60.043 59.8811 49.3287 48.7015 50.8096 48.0617 47.6636 76.7908 52.0981 47.5113 46.9207
threshold=-0.015504186535965142 0.028303776162851825 -60.594634091384101 0.031370390922986789 -0.0042906987879008365 0.0088248273713721365 0.43017445377057723 15.924403837231027 -0.0015349983255308339 0.0018966344705453045 0.77611824459963674 89.682486300110909 0.37499906250234477 0.11867086895467661 -0.036489700922775918 0.02824019124750236 0.8174249101298291 70.004245166209245 0.68656613945352418 -0.010476636383713265 -0.10513237206117036 -0.04320217770746191 0.024071096666293101 0.0047777553424706029 -0.017829028997569493 -0.015302051691204242 -41.177687672793645 0.55951730890813256 40.145263556789551 3.4170727403326695
decision_type=2 2 2 2 2 2 2 2 2 2 2 2 2 2 2 2 2 2 2 2 2 2 2 2 2 2 2 2 2 2
left_child=1 2 29 5 25 6 14 -8 9 24 16 12 13 28 -2 22 -3 18 -10 -7 -4 -12 23 -16 -9 27 -27 -5 -6 -1
right_child=3 10 20 4 11 19 7 8 17 -11 21 -13 -14 -15 15 -17 -18 -19 -20 -21 -22 -23 -24 -25 -26 26 -28 -29 -30 -31
leaf_value=0.025783740685041336 -0.0067999099510849441 0.020262196767119114 -0.041048245330796235 0.031819174270824833 0.023156100760904765 0.032751665226204194 0.0022541072262088858 -0.035937844457473868 0.011324219510684738 -0.039363832597531456 0.0094142658438528658 -0.0095762964378485107 -0.00036811462038532005 -0.022946673083575647 0.0075999450426498076 -0.0080057694507305061 0.0012860154862920025 -0.017618652982912215 -0.030222169422690466 0.0076477057130470054 0.0091905467948453137 -0.018173261993980554 0.0048298465829859985 0.035869351495941219 -0.0040090360594869281 0.032453642907852451 0.010687359975276992 -0.010525539316560624 0.0075340627113845773 -0.048046311748553699
leaf_weight=1842.3779710531235 1579.5938789248466 628.27538999915123 60.607500970363617 103.92818894982338 863.45499950647354 311.18621248006821 1252.2535981833935 149.18885323405266 651.42665722966194 495.07569465041161 221.83254358172417 850.11018398404121 2077.4692343771458 127.25937810540199 381.03303724527359 932.00947079062462 1332.2280011177063 489.80892673134804 121.08479899168015 1015.359704554081 2777.493749588728 601.13084542751312 4714.1191958189011 272.70532059669495 561.29598873853683 901.28660660982132 736.19943082332611 241.26107910275459 1115.4326722025871 21.774125337600708
leaf_count=3525 3288 1199 138 193 1652 591 2555 335 1329 1152 435 1744 4259 270 753 1951 2660 1074 268 2058 5466 1277 9441 512 1193 1663 1442 488 2269 47
internal_value=0.0049428 0.0100329 0.0147793 0.00303215 0.00776149 0.000465034 -0.00102986 -0.00784635 -0.0129715 -0.0224791 0.00201453 0.00329222 0.00590711 0.0120969 0.00218841 0.0044421 0.00736724 -0.0038915 0.00481217 0.0135367 0.0081177 -0.010737 0.00660339 0.0193925 -0.0107135 0.0191083 0.0226677 0.00222344 0.0143505 0.0249214
