tree
version=v4
num_class=1
num_tree_per_iteration=1
label_index=0
max_feature_idx=17
objective=binary sigmoid:1
feature_names=Column_0 Column_1 Column_2 Column_3 Column_4 Column_5 Column_6 Column_7 Column_8 Column_9 Column_10 Column_11 Column_12 Column_13 Column_14 Column_15 Column_16 Column_17
feature_infos=[-0.28424564295319976:0.13774192516086611] [-0.51588892572253742:0.83684508370040622] [-1.0157455181179542:0.97192409250488954] [0.28560553633217994:1] [-0.20502628542120793:0.2324074074074074] [-0.18115318416523229:0.11931187569367374] [0:0.99999984984987234] [0.0021302112713921057:153.95362798546211] [0:1] [0:1] [-5.4558511636227793:6.0719177011826932] [0:1] [0:99.911831744204733] [0:99.174377932639644] [-27.694374584543787:128.68571660664261] [0:99.999996542185457] [-568.7353248667448:848.66787463928495] [0.0022031539888682484:0.35553131918218517]
tree_sizes=3471 3534 3542 3534 3547 3537 3556 3566 3524 3564 3548 3570 3553 3554 3554 3527 3540 3568 3556 3559 3528 3547 3550 3547 3543 3530 3537 3571 3572 3555 3550 3538 3550 3560 3532 3543 3533 3544 3538 3565 3546 3554 3538 3560 3546 3538 3545 3518 3541 3547 3507 3547 3544 3541 3556 3521 3545 3531 3535 3535 3538 3569 3532 3559 3526 3553 3521 3554 3529 3512 3502 3552 3534 3556 3530 3532 3478 3555 3535 3529 3533 3528 3522 3505 3544 3542 3548 3528 3522 3506 3520 3515 3498 3535 3509 3540 3529 3477 3513 3532 3529 3499 3554 3555 3492 3514 3503 3527 3509 3517 3524 3545 3482 3480 3517 3548 3477 3521 3499 3503 3542 3541 3473 3523 3450 3524 3510 3485 3463 3531 3485 3493 3489 3536 3488 3532 3534 3538 3508 3486 3482 3478 3514 3496 3536 3550 3474 3512 3486 3431 3545 3538 3492 3442 3465 3454 3492 3506 3445 3515 3505 3522 3494 3483 3489 3463 3471 3503 3439 3479 3467 3482 3452 3529 3527 3493 3512 3506 3519 3493 3466 3515 3516 3489 3512 3533 3538 3487 3429 3497 3461 3468 3468 3491 3485 3474 3501 3523 3510 3481 3485 3512 3523 3478 3455 3449 3522 3488 3472 3472 3515 3485 3513 3503 3525 3526 3472 3507 3502 3487 3497 3413 3491 3474 3465 3471 3461 3487 3478 3452 3519 3526 3500 3444 3486 3514 3463 3521 3482 3427 3479 3465 3420 3433 3545 3511 3471 3524 3461 3458 3520 3523 3503 3541 3490 3468 3472 3447 3467 3436 3476 3485 3509 3477 3438 3530 3495 3529 3450 3504 3457 3430 3407 3417 3474 3527 3445 3433 3517 3511 3523 3432 3516 3499 3462 3498 3517 3452 3516 3484 3423 3460 3511 3462 3485 3498 3441 3464 3502 3496

Tree=0
num_leaves=31
num_cat=0
split_feature=0 16 15 5 5 17 5 14 16 0 16 15 13 5 4 4 17 17 16 2 15 7 17 15 16 0 4 15 15 1
split_gain=1431.59 1075.8 897.003 1262.66 426.626 528.385 387.525 375.783 352.901 334.567 284.881 280.46 425.281 274.415 237.486 208.661 207.498 193.172 191.998 230.189 178.95 162.34 161.418 150.893 148.248 137.925 198.12 146.444 137.353 135.782
threshold=-0.10488881541057656 -155.84920963589539 4.347821361063791 0.074954396444723917 0.0055972760045280854 0.037285775915197862 -0.01279270670404997 99.122406129717376 67.623784103616387 0.094769172903187732 94.904473743140514 93.181712293508738 33.269095684150955 0.0095681733859503976 -0.011714547004095742 -0.0506223137974302 0.033746322764491014 0.032700074140669937 -33.156886181316743 -0.016574226623039957 99.999858149094607 0.61718641116536332 0.04099094203101545 86.170144013189088 82.841916914478574 -0.015304126229032848 -0.012942609017651039 48.717917488514409 97.927423085199948 0.032439341753977585
decision_type=2 2 2 2 2 2 2 2 2 2 2 2 2 2 2 2 2 2 2 2 2 2 2 2 2 2 2 2 2 2
left_child=16 6 13 4 8 7 20 18 11 -5 -7 12 14 -3 22 -13 -1 -15 -6 -20 -2 -19 -4 -14 -9 27 -27 -10 -8 -17
right_child=1 2 3 9 5 10 28 24 25 -11 -12 15 23 17 -16 29 -18 21 19 -21 -22 -23 -24 -25 -26 26 -28 -29 -30 -31
leaf_value=0.063282438934460256 0.11051158664489906 0.041819815649032817 0.054319129038666848 -0.046347334007913119 0.024516936455687456 0.03815701390646159 0.060865160901761334 0.047498864507856856 0.025244892823590038 0.084987078749305237 0.014073448250688073 0.041323297702281679 0.031914828002633511 0.099281640473056959 0.034699236385848826 0.022809068357922367 -0.029578872093308034 0.095438712314948188 0.034813258316248819 0.069449402485721123 -0.03567491076063635 0.052070015733973699 0.092732928112056065 0.019854733349550773 0.11233157632621547 -0.018293039701552889 0.018739376320667023 0.058939523082708667 0.009621500282801513 0.0011658115206840472
leaf_weight=63.744121342897415 538.19843810796738 2057.2106260359287 693.12271797657013 657.16699376702309 598.35038590431213 4651.0461168885231 1116.0690091252327 115.27699682116508 2011.3644585907459 52.354668527841568 1668.34810090065 739.98484846949577 27828.466748744249 396.6658733189106 859.48718529939651 1396.7556830346584 1068.9154465794563 263.47745874524117 759.51521870493889 1302.0379894971848 21.78144246339798 1191.997625887394 451.69437101483345 2860.207946151495 375.02581697702408 380.12535294890404 7240.5842163562775 384.0419454574585 148.12222734093666 1506.0233786702156
leaf_count=156 1375 6355 2445 2409 2053 13795 3398 408 6030 148 5197 2222 84982 1460 2772 4526 2847 790 2297 3910 54 3840 1297 8588 1468 1304 21418 1290 490 4667
internal_value=0.0313548 0.0323682 0.0312264 0.0296246 0.030467 0.0401378 0.070199 0.0568659 0.0284913 -0.0366563 0.0317988 0.0307819 0.0322482 0.0543894 0.0545627 0.0176221 -0.0243528 0.0683506 0.0494517 0.0566888 0.104825 0.0599208 0.0694755 0.0307908 0.0970885 0.0201817 0.0168922 0.030647 0.0548611 0.0115801
internal_weight=63397.2 62264.5 60440.3 56531 55821.5 9469.6 1824.17 3150.21 46351.9 709.522 6319.39 36335.7 32693 3909.35 2004.3 3642.76 1132.66 1852.14 2659.9 2061.55 559.98 1455.48 1144.82 30688.7 490.303 10016.1 7620.71 2395.41 1264.19 2902.78
internal_count=193991 190988 185671 173226 170669 29128 5317 10136 141541 2557 18992 111499 100084 12445 6514 11415 3003 6090 8260 6207 1429 4630 3742 93570 1876 30042 22722 7320 3888 9193
is_linear=0
shrinkage=1


Tree=1
num_leaves=31
num_cat=0
split_feature=0 16 15 5 10 5 0 17 15 13 16 5 14 17 4 17 14 8 2 17 4 15 3 4 1 7 1 2 2 15
split_gain=1257.82 951.84 851.549 1167.85 391.866 444.539 307.691 295.19 291.13 382.61 272.784 256.851 251.825 333.359 240.643 207.228 194.527 187.109 181.741 169.351 160.822 301.871 216.054 215.999 276.41 168.357 160.182 248.092 151.162 149.177
threshold=-0.10488881541057656 -169.42391914652185 4.347821361063791 0.074954396444723917 -1.2063952362604242 0.0070356178429527025 0.094769172903187732 0.038435073767895712 97.927423085199948 31.255260164920887 -23.822213597011679 -0.01279270670404997 107.16194558391682 0.03602827693243147 -0.0506223137974302 0.031233152679194482 101.92110858986473 1.0000000180025095e-35 -0.019741511301107798 0.033875628968326521 -0.027263614386167753 85.064879828000116 0.86250154282893121 0.0048990423407110359 0.11389423971143747 0.67850179197435623 0.061603363631779519 0.037251270631126106 -0.040314048677870994 99.999858149094607
decision_type=2 2 2 2 2 2 2 2 2 2 2 2 2 2 2 2 2 2 2 2 2 2 2 2 2 2 2 2 2 2
left_child=19 11 12 4 15 8 -5 10 9 14 -7 29 -3 17 -6 16 -4 -14 -12 -1 -11 22 23 26 -25 -26 -22 -28 -24 -2
right_child=1 2 3 6 5 7 -8 -9 -10 20 18 -13 13 -15 -16 -17 -18 -19 -20 -21 21 -23 28 24 25 -27 27 -29 -30 -31
leaf_value=0.023930164707679998 0.076615425307457241 0.01051271520981676 -0.0014688842147868877 -0.075885119538847981 0.061758468792999614 -0.0053346791324538016 0.049338662360570391 0.0036428842726526226 -0.027157135673377377 0.0054482872353083002 0.011026273478317694 0.025012027114187527 0.011854583162529981 0.015575533748646396 0.012396969421141719 -0.01687801889724427 0.07032130360160338 0.073726759798649497 0.04607037863122497 -0.058466656001352806 0.0079617029402463766 -0.017785063735183491 -0.0098912593165996904 0.0042361913451789924 -0.077048157585044907 -0.016829908172148446 0.0062643616611310522 0.058367417765926737 -0.0017643732470801208 -0.062866436945708246
leaf_weight=66.245602607727051 457.21533641219139 2268.4551313966513 370.06027512252331 657.7300438284874 286.24411526322365 530.24265526235104 53.008245795965195 4034.9491676837206 1155.3089954704046 5173.1199539154768 528.2969966083765 858.44121670722961 154.05306920409203 888.26350191235542 1796.7627958059311 5529.7867351621389 126.65590380132198 590.82107672095299 1234.453543305397 1063.2459908276796 2088.9007884860039 3566.511050209403 8365.3709492385387 2029.1097623556852 171.52216672897339 359.00815327465534 444.3720708489418 470.23333263397217 18106.321517124772 20.008213087916374
leaf_count=162 1162 6810 1082 2411 856 1809 151 11893 3677 15884 1644 2628 539 2795 6010 17279 500 2307 3853 2828 6650 10935 25149 5902 425 985 1285 1286 55232 49
internal_value=-0.00134172 -0.000393903 -0.00130846 -0.00285325 -0.00205015 -0.000607706 -0.0665457 0.0117838 -0.00238929 -0.00172163 0.0261092 0.0413601 0.0212909 0.0362619 0.0191802 -0.0140992 0.0168366 0.0609305 0.0355676 -0.053634 -0.00278942 -0.00398641 -0.00245018 0.006507 -0.00416537 -0.0362987 0.0156022 0.0330525 -0.00433257 0.0707675
internal_weight=63444.7 62315.2 60979.6 57078 56367.2 50340.7 710.738 6327.94 44012.8 42857.5 2292.99 1335.66 3901.59 1633.14 2083.01 6026.5 496.716 744.874 1762.75 1129.49 40774.5 35601.3 32034.8 5563.15 2559.64 530.53 3003.51 914.605 26471.7 477.224
internal_count=194178 191188 187349 174898 172336 153475 2562 19199 134276 130599 7306 3839 12451 5641 6866 18861 1582 2846 5497 2990 123733 107849 96914 16533 7312 1410 9221 2571 80381 1211
is_linear=0
shrinkage=0.05


Tree=2
num_leaves=31
num_cat=0
split_feature=15 16 15 5 10 5 5 5 17 16 13 5 6 12 17 5 16 2 7 17 15 16 14 17 13 1 13 15 17 3
split_gain=859.374 1018.39 738.965 1026.97 527.984 375.298 366.992 347.373 234.926 245.795 231.31 265.315 245.161 227.816 226.641 214.969 209.082 177.502 172.879 165.902 154.187 199.942 150.754 149.938 134.938 130.215 121.251 129.555 118.63 116.094
threshold=99.017935871713902 -155.84920963589539 5.9999981428577298 0.074954396444723917 -1.2063952362604242 0.0095681733859503976 0.0059400594487094569 -0.01185632934768832 0.038867622719417169 -23.822213597011679 33.582160185969386 -0.0088300220750551755 0.57894432134568075 79.593660764852302 0.032967032967033003 -0.051943555059898498 -41.510148902716928 0.001424502388037416 0.61718641116536332 0.034674686245325846 87.59121423624903 67.623784103616387 105.12128877751783 0.032700074140669937 58.839260040940246 0.010510278993751209 27.471351981901893 86.507867850898606 0.048726648756366238 0.86436674737910379
decision_type=2 2 2 2 2 2 2 2 2 2 2 2 2 2 2 2 2 2 2 2 2 2 2 2 2 2 2 2 2 2
left_child=1 7 5 4 23 19 10 -1 9 -8 11 28 20 -5 -7 -2 -14 25 -16 22 21 -12 -3 -4 -10 -11 -9 -28 -6 -18
right_child=15 2 3 13 6 14 8 26 24 17 12 -13 16 -15 18 -17 29 -19 -20 -21 -22 -23 -24 -25 -26 -27 27 -29 -30 -31
leaf_value=0.069518495266873301 -0.073072429313998252 0.0041337441773038703 0.0080806932453680608 -0.015958176093357403 0.023461359331598604 0.062761377565482279 -0.004532255182972884 0.047755010316183163 0.0081149779852152087 -0.0011758356311963715 -0.0027814576453077441 0.0033323370419167673 -0.0084983714375840153 -0.081336493759605125 0.060896480721648376 -0.028534795976143636 0.018361770227924578 0.042789785060045327 0.016413431399169932 -0.0063023406746877206 -0.018069600298181901 -0.013842051471420719 0.042093199760897905 -0.019027012018906109 -0.010977645776619778 0.038134838085996048 0.039403869745484821 -0.0020914990171742262 0.06968373857946579 0.0035346604444361305
leaf_weight=560.32652240991592 388.1086837798357 645.32297870516777 562.27052204310894 180.89955440163612 386.48132513463497 499.82179014384747 701.7275398671627 322.02139787375927 3108.7973482459784 575.58787925541401 19009.856126457453 2660.0740765631199 3273.480859592557 505.8352914750576 263.44676613807678 897.38099099695683 1630.7395137697458 1149.3736162483692 1277.9744063913822 1457.598296970129 2556.6494738459587 5204.5253068059683 439.82804451882839 5499.1393679380417 1317.6785374879837 332.26288177073002 281.86883799731731 565.44888067245483 216.61554832756519 6932.5877799093723
leaf_count=1445 929 1883 1740 534 1182 1879 2397 1043 8975 1706 57736 9044 10114 1944 791 2699 5173 3532 4145 4322 7502 15265 1604 17102 4092 1123 815 1725 570 21084
internal_value=-0.00151644 -0.000679047 -0.00176253 -0.00334775 -0.00259064 0.0175357 -0.000870459 0.037149 0.00956907 0.0210207 -0.00266197 0.0101209 -0.00374239 -0.0641146 0.0335033 -0.0419814 0.00224962 0.0297369 0.0240161 0.00471737 -0.00639176 -0.00515877 0.0195193 -0.0165124 0.00243146 0.0132114 0.0216381 0.0117124 0.0400631 0.00635823
internal_weight=63403.7 62118.2 60388.6 55804.6 55117.8 4583.99 49056.4 1729.67 7185.43 2758.95 41871 3263.17 38607.8 686.735 2041.24 1285.49 11836.8 2057.22 1541.42 2542.75 26771 24214.4 1085.15 6061.41 4426.48 907.851 1169.34 847.318 603.097 8563.33
internal_count=194095 190467 185439 170815 168337 14624 149495 5028 21825 8758 127670 10796 116874 2478 6815 3628 36371 6361 4936 7809 80503 73001 3487 18842 13067 2829 3583 2540 1752 26257
is_linear=0
shrinkage=0.05


Tree=3
num_leaves=31
num_cat=0
split_feature=15 16 14 10 3 17 5 5 2 8 5 6 16 1 5 12 1 4 15 7 14 17 2 5 13 15 15 13 14 4
split_gain=805.261 940.827 718.65 631.665 490.792 349.333 319.045 313.15 297.724 236.885 194.382 165.746 222.709 147.002 152.323 179.13 153.156 354.197 250.26 147.885 146.468 144.765 135.194 143.314 128.271 149.723 133.867 150.7 137.535 134.274
threshold=99.017935871713902 -155.84920963589539 105.77090741524371 -1.1885229374678283 0.98131012352612834 0.034674686245325846 -0.012137873805399933 0.074954396444723917 0.055038484574765428 1.0000000180025095e-35 -0.061057606958991588 0.72499818750453271 -42.524388014049528 0.19367209636883972 0.0072363660598675503 90.473195183837177 0.072917055107475412 0.003222617019458474 90.804554212379117 0.65245191943796887 6.1717942609293575 0.041824567549591553 -0.12851283917134526 0.060185185185185237 32.959400603317889 93.87749514094746 85.064879828000116 37.304861298488689 -2.298011586023518 -0.021075560958437819
decision_type=2 2 2 2 2 2 2 2 2 2 2 2 2 2 2 2 2 2 2 2 2 2 2 2 2 2 2 2 2 2
left_child=1 6 3 7 22 9 -1 -3 11 -6 -2 24 -13 14 16 21 20 18 -18 -19 -10 -16 -4 -24 25 -5 27 -26 -29 -28
right_child=10 2 4 8 5 -7 -8 -9 13 -11 -12 12 -14 -15 15 -17 17 19 -20 -21 -22 -23 23 -25 26 -27 29 28 -30 -31
leaf_value=0.06756701495644106 -0.074680147877185549 -0.0139440582196141 -0.060930534292194694 0.022357243638213328 0.0062934071627821532 0.016944325881786244 0.021250394684485845 -0.057105070816718201 0.023622307878419516 0.070120206562791859 -0.029445725857531215 -0.01183809420499863 0.0095526703092066803 -0.053537626486104307 0.037768066411413406 -0.080811294556659294 0.057727772521329705 -0.06832165787786916 -0.011609908465251192 0.0010517767088872127 -0.00010448403786143112 0.0094494546937622034 0.0064483997206170153 -0.057486987519224132 0.019157570298960282 -0.015064491976065389 -0.0041111974322524036 0.016203107766472834 -0.0051007237124316629 -0.022367603158963745
leaf_weight=546.24670073390007 314.44902653992176 6819.3168487548828 102.47703216969967 887.73277232050896 178.97115910053253 1118.759500682354 1164.2927515357733 447.85041531920433 708.15072917938232 774.26338450610638 970.48587083816528 1616.1756676584482 4924.3933594822884 102.46048854291439 814.78120106458664 43.301524698734283 576.69391098618507 98.320154413580894 168.05816970765591 351.30515782535076 7980.8004508912563 1011.6114583313465 820.41318073868752 98.132922947406769 694.26926028728485 382.43912327289581 1936.076552271843 781.43128782510757 24839.819152295589 2099.1834983825684
leaf_count=1417 756 21046 405 2910 621 3606 3569 1588 2358 3047 2873 5105 15165 255 2443 171 1562 261 508 1004 24384 2788 2591 361 2339 1239 5648 2483 75213 6291
internal_value=-0.00133682 -0.000525997 -0.00156198 -0.00282953 0.0219137 0.0358951 0.0360412 -0.0166039 -0.000828196 0.0581366 -0.0405155 -0.00297833 0.00426701 0.00609285 0.00661269 0.0196998 0.00413692 0.0209249 0.0420813 -0.0141182 0.00182925 0.0220828 -0.0064592 -0.000382141 -0.00447698 0.0110898 -0.00512844 -0.00382812 -0.00445097 -0.0136084
internal_weight=63372.7 62087.7 60377.2 57284.2 3093.02 2071.99 1710.54 7267.17 50017 953.235 1284.93 38161.5 6540.57 11855.5 11753 1869.69 9883.33 1194.38 744.752 449.625 8688.95 1826.39 1021.02 918.546 31621 1270.17 30350.8 26315.5 25621.3 4035.26
internal_count=194007 190378 185392 174761 10631 7274 4986 22634 152127 3668 3629 116393 20270 35734 35479 5402 30077 3335 2070 1265 26742 5231 3357 2952 96123 4149 91974 80035 77696 11939
is_linear=0
shrinkage=0.05


Tree=4
num_leaves=31
num_cat=0
split_feature=0 16 14 16 17 3 4 9 5 5 5 15 5 15 13 5 13 17 0 0 4 1 17 1 3 5 2 17 12 16
split_gain=1051.22 762.192 646.039 524.151 456.99 439.811 383.189 360.586 296.178 290.79 233.016 229.92 204.312 197.458 361.838 247.471 186.397 160.206 153.534 149.27 137.839 126.02 123.515 139.178 168.404 135.388 121.297 155.059 159.422 148.886
threshold=-0.10488881541057656 -169.42391914652185 104.47128302293196 123.52245471870016 0.031644118321485885 0.95880373413829745 0.035562560900008096 1.0000000180025095e-35 0.074954396444723917 0.0070356178429527025 0.010782436033544231 83.599074555967064 0.0016236402441339728 95.192216161330606 33.269095684150955 -0.0088300220750551755 27.471351981901893 0.033746322764491014 0.095134267536911524 -0.013953714773865375 -0.029064196742254852 -0.16096931591933841 0.077335390000041818 -0.031441525834819059 0.85538518879555048 -0.0077821011673150911 0.0060889609308146771 0.04538065049428687 41.720445853265893 -2.2381964675847636
decision_type=2 2 2 2 2 2 2 2 2 2 2 2 2 2 2 2 2 2 2 2 2 2 2 2 2 2 2 2 2 2
left_child=17 11 3 9 6 8 -4 10 -5 13 -6 -2 -7 14 15 -3 -13 -1 19 22 -17 -21 23 24 25 -16 -11 29 -29 -28
right_child=1 2 4 5 7 12 -8 -9 -10 26 -12 16 -14 -15 18 20 -18 -19 -20 21 -22 -23 -24 -25 -26 -27 27 28 -30 -31
leaf_value=0.027049804026250474 0.069122893809115932 0.046814620812356822 0.0021757935778331425 -0.024190541429107312 -0.0019281632887457952 -0.015876504469410996 0.066749461769915433 -0.061473070841117618 -0.069967008403343411 0.0025303635186932592 0.029655815324740122 0.049310661657845388 0.0081174176869455179 -0.015257935953582222 0.00555663403534426 0.032360303849983167 0.0044821978446505199 -0.053886228045569931 0.026428250513723328 -0.025122927622976979 0.0015566684124203979 -0.0042871270255601121 -0.013807283740095377 -0.00060161390738309409 0.0059307598087761015 0.048034958172580439 0.0097964623091840921 0.033027581521977482 -0.0077017858401145656 0.038915013386530695
leaf_weight=64.880263715982437 390.61948111653328 539.06539490818977 333.69209545850754 2370.755707025528 1250.3076095581055 1868.93623021245 737.50735630095005 175.52810291945934 415.24301499128342 3335.3029344379902 1095.7572734802961 403.44203251600266 1689.0408648997545 2766.8069669306278 298.77161659300327 473.11351934075356 545.30697184801102 1060.9773595184088 448.56572379171848 745.00255972146988 1562.7563562691212 28016.209181338549 1070.7264744788408 5675.692852512002 2520.8318952769041 504.02450734376907 795.88790203630924 324.46187497675419 925.73258054256439 978.94655753672123
leaf_count=158 1033 1531 1103 7241 3887 5340 2933 658 1549 10167 3664 1222 5152 8721 988 1554 1630 2842 1310 2462 5314 84970 3012 17161 7763 1761 2643 917 2583 2899
internal_value=-0.00133883 -0.000472922 -0.00129323 -0.00258227 0.0192744 -0.0161357 0.046634 0.00765172 -0.0310134 -0.000895733 0.0128235 0.0368374 -0.00448612 -0.0023214 -0.00146624 0.0166913 0.0235449 -0.0492221 -0.00265653 -0.0029925 0.00871509 -0.00482684 0.00224656 0.00415663 0.0122822 0.0322261 0.00910621 0.0163565 0.00286867 0.0258574
internal_weight=63383.9 62258 60918.7 57325.9 3592.79 6343.98 1071.2 2521.59 2786 50981.9 2346.06 1339.37 3557.98 44621.6 41854.8 2574.94 948.749 1125.86 39279.8 38831.3 2035.87 28761.2 10070 8999.32 3323.63 802.796 6360.33 3025.03 1250.19 1774.83
internal_count=194168 191168 187283 175038 12245 19282 4036 8209 8790 155756 7551 3885 10492 136547 127826 8399 2852 3000 119427 118117 6868 87432 30685 27673 10512 2749 19209 9042 3500 5542
is_linear=0
shrinkage=0.05


Tree=5
num_leaves=31
num_cat=0
split_feature=0 16 15 5 5 17 16 0 16 6 15 5 2 15 13 5 6 9 16 17 15 7 1 10 4 17 6 17 17 3
split_gain=935.372 629.51 608.157 852.406 297.008 370.88 266.669 239.489 237.597 232.466 218.742 208.538 196.609 184.792 266.315 229.764 186.154 168.651 160.689 151.231 141.356 136.373 136.353 135.792 135.067 128.375 120.437 119.717 116.898 112.349
threshold=-0.10488881541057656 -169.42391914652185 4.347821361063791 0.074954396444723917 0.0059400594487094569 0.038286447336884459 117.37151269072945 0.088526351885409069 90.684471022533486 0.6756738495301372 37.113373365950928 0.0092863738357733556 -0.028079598613294388 97.927423085199948 33.877032345098598 -0.0088300220750551755 0.57894432134568075 1.0000000180025095e-35 -42.524388014049528 0.036730469385831903 1.0000000180025095e-35 0.61718641116536332 0.010510278993751209 0.016558899292096113 -0.0506223137974302 0.043193843193843194 0.87499453128417715 0.034408480044153665 0.040831034769663065 0.92237019435380907
decision_type=2 2 2 2 2 2 2 2 2 2 2 2 2 2 2 2 2 2 2 2 2 2 2 2 2 2 2 2 2 2
left_child=19 9 11 4 6 10 13 -5 -7 24 12 27 22 14 15 25 -16 20 -18 23 21 -13 -6 -1 -2 -4 -8 -3 -22 -10
right_child=1 2 3 7 5 8 26 -9 29 -11 -12 17 -14 -15 16 -17 18 -19 -20 -21 28 -23 -24 -25 -26 -27 -28 -29 -30 -31
leaf_value=0.051952578143023079 0.062396370036606141 0.021508836263259674 0.014962858373282949 -0.066339830776832767 -0.01539400133365767 0.0054007958692166482 -0.017504207686721236 0.043494012999032931 -0.036089588917259392 -0.0024421955940471872 0.0050511047327962549 0.0565974127561285 0.041141218935929251 -0.021875516003222018 -0.0051365031389288343 0.0052955055341231631 -0.0074837524480660042 -0.080943506082469321 0.005740991474624718 -0.052121570399377586 0.070347340554818644 0.016016092790279903 0.040500437275659489 -0.067228084015381495 0.025223245897019516 0.058391673108033462 0.027901149345019461 -0.0031406742543832614 0.014859907955480381 -0.0080578790857023363
leaf_weight=69.080228209495544 552.05837501585484 840.9027698636055 325.26012210547924 633.05021600425243 314.61321751773357 4216.2479137629271 3780.5070082694292 53.853203505277634 524.98697155714035 331.28020648658276 1361.9335088431835 256.99600259959698 1366.5682450830936 1155.6697934120893 26580.390787392855 2776.9343551397324 3087.7439136356115 33.442965388298035 8968.8106598109007 1023.4418156594038 354.46585297584534 1064.6285679042339 167.04349447786808 36.543431490659714 438.41987663507462 356.85479633510113 151.91261170804501 1189.1885513067245 129.63398604094982 1120.0568606853485
leaf_count=171 1471 2767 995 2376 938 12459 11133 154 1749 1034 4419 772 4460 3687 80258 9375 9541 131 27656 2753 1425 3346 569 88 1351 967 501 3533 431 3371
internal_value=-0.00114126 -0.000321692 -0.00106367 -0.00236708 -0.00169109 0.00659464 -0.00328407 -0.0577289 -0.000887305 0.0338154 0.0202556 0.0181181 0.0314596 -0.00215066 -0.00160915 0.0116822 -0.00279909 0.0303135 0.00235407 -0.0462429 0.032374 0.0239073 0.00399076 0.0107187 0.0459423 0.037683 -0.0157502 0.00706963 0.0554887 -0.0170037
internal_weight=63262.5 62133.5 60811.7 56942.4 56255.5 9071.45 47184.1 686.903 5861.29 1321.76 3210.16 3869.26 1848.22 43251.7 42096 3459.05 38636.9 1839.17 12056.6 1129.07 1805.72 1321.62 481.657 105.624 990.478 682.115 3932.42 2030.09 484.1 1645.04
internal_count=193881 190869 187013 174608 172078 27965 144113 2530 17579 3856 10386 12405 5967 132479 128792 11337 117455 6105 37197 3012 5974 4118 1507 259 2822 1962 11634 6300 1856 5120
is_linear=0
shrinkage=0.05


Tree=6
num_leaves=31
num_cat=0
split_feature=0 16 14 10 17 4 5 9 5 4 15 13 5 5 5 6 7 15 16 16 14 13 6 15 0 16 15 4 16 3
split_gain=870.375 601.131 525.056 451.827 417.532 317.961 289.076 281.981 267.946 225.49 310.309 229.013 223.646 223.479 197.782 162.414 141.094 144.442 131.575 125.952 125.054 122.246 125.354 121.324 121.625 120.312 123.441 183.391 176.028 134.065
threshold=-0.10488881541057656 -169.42391914652185 104.47128302293196 -1.0598156083183097 0.031644118321485885 0.035562560900008096 0.074954396444723917 1.0000000180025095e-35 0.0072363660598675503 -0.052443384982121581 93.181712293508738 34.957231124886079 -0.0088300220750551755 -0.0085356371515764567 0.010782436033544231 0.80769075444085769 1.6249476263513982 93.181712293508738 -59.444989287519114 -24.840627777414486 4.6372123764367759 32.313085053617563 0.77777345681412868 49.094621361053456 0.081926919145456398 67.623784103616387 76.40440853437245 -0.017263457473026152 -19.653448352070132 0.87511584840543655
decision_type=2 2 2 2 2 2 2 2 2 2 2 2 2 2 2 2 2 2 2 2 2 2 2 2 2 2 2 2 2 2
left_child=16 13 3 6 5 -4 23 14 9 21 11 12 -11 -2 -6 25 -1 -18 -12 -17 -14 22 -5 24 -3 26 29 -28 -29 -13
right_child=1 2 4 8 7 -7 -8 -9 -10 10 18 15 20 -15 -16 19 17 -19 -20 -21 -22 -23 -24 -25 -26 -27 27 28 -30 -31
leaf_value=-0.053455794940516568 0.056755304291852715 -0.017041947090192616 0.0033244319570988772 0.056406869561544962 -0.0026281548641329043 0.062708864257151789 -0.052163644101926789 -0.056053318992206759 0.0094323188307077373 0.043068800751852071 -0.022520897129543273 0.00742826530654695 0.033542887138770308 0.015176565089430659 0.026488590110319843 -0.0084392960850125064 -0.054961109249600917 0.025910287515085062 0.0043580243765939447 0.014586154391075077 0.00095446072878477598 0.0087788712837863769 -0.011594650495385344 0.00014574952578370737 0.0044871412560709241 -0.0095834029879890061 0.003735189175424257 -0.01814832033114144 0.017577134420565643 -0.0022967684739499204
leaf_weight=904.69202753901482 566.56633287668228 5195.9341054558754 328.43443439900875 293.66466601192951 1247.6046548336744 718.56576447188854 446.34653508663177 168.12492746114731 6058.7196888327599 492.83789891004562 2557.3124747276306 4626.0973588377237 347.32778970897198 752.2757508456707 1095.2323851287365 803.86207158863544 97.559489414095879 127.20356695353985 553.90640762448311 2274.0967630594969 1931.1491053104401 1393.504539385438 88.102332174777985 1915.2832534462214 750.80123506486416 6403.3349460065365 2087.1899788528681 3507.6845646649599 382.38820087909698 15148.180721268058
leaf_count=2438 1521 16072 1086 870 3885 2894 1634 634 18271 1422 8129 13798 1204 2347 3673 2547 274 327 1756 6903 6467 4196 301 6051 2232 18778 6332 10630 1206 46148
internal_value=-0.00114855 -0.000357843 -0.00108207 -0.00224018 0.0175552 0.0440805 -0.0130211 0.00649484 -0.000410298 -0.00180066 -0.00255399 -0.00131115 0.0125282 0.0330385 0.0109834 -0.00239971 -0.0446473 -0.00919233 -0.0177355 0.00857266 0.00592219 0.0156464 0.0407138 -0.0107988 -0.0143238 -0.00345002 -0.0019249 -0.00822136 -0.0146366 -2.16435e-05
internal_weight=63264 62134.5 60815.7 57257.7 3557.96 1047 8308.37 2510.96 48949.4 42890.6 41115.4 38004.1 2771.31 1318.84 2342.84 35232.8 1129.46 224.763 3111.22 3077.96 2278.48 1775.27 381.767 7862.02 5946.74 32154.9 25751.5 5977.26 3890.07 19774.3
internal_count=194026 190987 187119 174947 12172 3980 25989 8192 148958 130687 125320 115435 9093 3868 7558 106342 3039 601 9885 9450 7671 5367 1171 24355 18304 96892 78114 18168 11836 59946
is_linear=0
shrinkage=0.05


Tree=7
num_leaves=31
num_cat=0
split_feature=0 16 14 10 3 0 5 17 2 8 5 6 15 4 15 4 7 3 16 14 2 3 5 16 0 4 16 1 2 5
split_gain=782.82 532.408 484.391 391.011 347.763 263.233 287.118 255.431 244.576 241.851 219.609 185.031 165.925 167.694 157.651 135.363 146.432 131.977 150.611 178.636 141.969 179.849 206.55 175.218 130.963 129.845 223.093 196.756 126.057 123.203
threshold=-0.10488881541057656 -178.25628635482164 107.16194558391682 -1.1885229374678283 0.98131012352612834 0.094769172903187732 0.091815556945612511 0.036862003780718355 0.063873406380760486 1.0000000180025095e-35 0.091815556945612511 0.5853644259404257 97.927423085199948 -0.027263614386167753 90.804554212379117 -0.058658450111387699 0.69606887204003565 0.85959341455169147 11.966567643664023 4.6372123764367759 -0.046041244949337042 0.94073464230520198 0.0034629036706599341 92.079460053071116 -0.009375361658955977 -0.0029152019420347615 -43.560882983079395 0.046753088704354955 -0.11254361635313111 -0.051943555059898498
decision_type=2 2 2 2 2 2 2 2 2 2 2 2 2 2 2 2 2 2 2 2 2 2 2 2 2 2 2 2 2 2
left_child=29 11 3 10 28 6 8 9 12 -6 -3 -2 13 -5 17 -10 25 18 -15 -20 24 23 -23 -22 -19 27 -27 -17 -4 -1
right_child=1 2 4 5 7 -7 -8 -9 15 -11 -12 -13 -14 14 -16 16 -18 20 19 -21 21 22 -24 -25 -26 26 -28 -29 -30 -31
leaf_value=-0.058067299122749175 0.049556483775822446 -0.010816275091303104 -0.053192994927419295 0.0062552286703608587 -0.00078218867424920385 0.023872576349416821 -0.06754995471326522 0.012167256408795082 0.038575171579973519 0.062231748284305957 -0.05121929648980296 0.0059076509374436587 -0.022618373165454186 0.0010780577708514605 -0.017741319479313535 -0.0070123802081721925 0.0083845550590814968 0.0015033546234821651 0.060200345649882185 0.0097659018341336949 -0.004288425176722419 -0.00025055240525385426 0.017765821923929039 -0.031427326035637838 -0.01226371886814887 -0.052140842715765613 0.0010813168281109933 0.03868417496871749 0.0013596257714510831 -0.02494319877772172
leaf_weight=592.97675481438637 705.92600092291832 6826.5527840405703 125.07382413744926 5388.4734446108341 189.42950627207756 1097.7774357199669 160.9609911441803 839.94981744885445 313.12665383517742 776.2328262925148 353.75640548765659 370.07936994731426 993.84298719465733 3422.8412674665451 1777.2527789771557 1071.6260913908482 7805.400601297617 2310.6149868965149 249.19515450298786 594.26051943004131 8154.3568375855684 7231.3728384524584 2039.534691542387 641.54001116752625 6844.4450618624687 351.34642766416073 447.91113609075546 301.92770132422447 690.58821776509285 533.08511266112328
leaf_count=1535 1990 21183 497 16620 667 3158 618 2677 937 3145 1309 1159 3144 10086 5504 3329 23428 6860 952 2035 26043 21232 6192 2080 20727 959 1311 848 2208 1515
internal_value=-0.00107035 -0.000320874 -0.000935876 -0.00188002 0.020091 -0.000347569 -0.000878274 0.0323314 -0.000663381 0.0498706 -0.0128068 0.034544 -0.0024461 -0.00192745 -0.00325291 0.00620461 0.00518879 -0.00243516 0.00574155 0.0246665 -0.00371664 -0.00114625 0.00371292 -0.00626784 -0.00878909 -0.00629138 -0.0223147 0.00303241 -0.00700549 -0.0423861
internal_weight=63201.5 62075.4 60999.4 58378.1 2621.27 51197.8 50100 1805.61 49939.1 965.662 7180.31 1076.01 39647.7 38653.9 33265.4 10291.3 9978.21 31488.2 4266.3 843.456 27221.9 18066.8 9270.91 8795.9 9155.06 2172.81 799.258 1373.55 815.662 1126.06
internal_count=193948 190898 187749 178555 9194 156063 152905 6489 152287 3812 22492 3149 121475 118331 101711 30812 29875 96207 13073 2987 83134 55547 27424 28123 27587 6447 2270 4177 2705 3050
is_linear=0
shrinkage=0.05


Tree=8
num_leaves=31
num_cat=0
split_feature=0 16 15 5 10 5 17 4 15 13 12 5 5 6 14 6 14 16 9 15 7 7 13 16 7 4 1 13 6 17
split_gain=727.97 531.973 434.653 658.073 257.49 278.474 269.941 224.28 251.675 258.291 211.312 203.507 190.549 174.694 166.722 164.351 163.764 153.126 132.296 136.387 121.372 117.642 124.042 116.601 113.195 112.028 144.435 111.868 148.564 108.172
threshold=-0.10488881541057656 -178.25628635482164 4.347821361063791 0.074954396444723917 -1.4597597275507359 0.0087349322473233588 0.035483600050932353 -0.0506223137974302 90.804554212379117 34.957231124886079 82.381987461916154 -0.0085356371515764567 0.0061121820625029697 0.78570867350947982 97.046970322787516 0.5853644259404257 3.1240609588491108 62.12262903248628 1.0000000180025095e-35 1.0000000180025095e-35 0.61282481887981033 1.6249476263513982 33.582160185969386 -24.840627777414486 1.4871951161556549 -0.007320959489913125 0.065362213687940499 32.313085053617563 0.77272551653291788 0.040541013239348216
decision_type=2 2 2 2 2 2 2 2 2 2 2 2 2 2 2 2 2 2 2 2 2 2 2 2 2 2 2 2 2 2
left_child=21 15 12 4 -4 7 14 27 9 11 -5 -9 -3 17 -7 -2 -10 -11 19 20 -14 -1 -23 -15 -17 26 -13 28 -6 -21
right_child=1 2 3 10 5 6 -8 8 16 13 -12 25 18 23 -16 24 -18 -19 -20 29 -22 22 -24 -25 -26 -27 -28 -29 -30 -31
leaf_value=-0.049423044250863551 0.04857091950085704 0.0037951437591938219 -0.013862864908793232 -0.007798537245520743 0.049615487608986736 0.020165149244685935 0.0033913587678608657 0.043725549478288446 -0.0045730792946872224 -0.0015570144981927117 -0.069446871047992131 0.0071298773238975604 0.050768394075958616 -0.0066905039687059969 0.062817789907356578 -0.016084065999209619 -0.02390641140493319 -0.0092085370209096084 -0.073767015853116388 0.062389481415618835 0.01253102585192083 0.028619035125472831 -0.04594517972704195 0.013474966980184798 0.039822537111856487 -0.0074079334736827972 0.048340476099040311 0.0075980742591933523 -0.014892184004857797 0.012158110863924924
leaf_weight=887.31752422451973 706.09167695045471 1873.4476915895939 3945.737811923027 196.6865268945694 379.52087211608887 1163.6226008683443 4020.5530606508255 476.62770779430866 2242.2513480335474 25567.294020950794 473.95924764871597 877.35118953883648 253.39874204993248 982.83017280697823 285.27841301262379 214.80889885127544 2141.3884068280458 8785.6169763356447 32.651113659143448 399.54299257695675 1146.4942271411419 111.12344940006733 111.98459301888943 2648.7669862508774 156.50709131360054 778.83640879392624 280.62036688625813 1779.7118732780218 116.69955012202263 146.4672080129385
leaf_count=2429 2016 5820 12322 609 1142 3595 11948 1374 7071 77691 1929 3160 777 3104 1138 661 6799 26087 128 1612 3589 282 316 8196 497 2542 822 5360 395 488
internal_value=-0.00113587 -0.000418044 -0.00103323 -0.00212908 -0.00154436 -0.000619014 0.0100596 -0.00186018 -0.00263836 -0.00140361 -0.0513667 0.0144574 0.0152235 -0.00241138 0.0285632 0.0344095 -0.0140173 -0.00351386 0.0260447 0.0277195 0.0194525 -0.0412624 -0.00880697 0.00801752 0.00748018 0.0072548 0.0171168 0.0134514 0.0344448 0.0489149
internal_weight=63183.2 62072.8 60995.4 57143.4 56472.7 52527 5469.45 47057.5 44781.6 40397.9 670.646 2413.44 3852 37984.5 1448.9 1077.41 4383.64 34352.9 1978.55 1945.9 1399.89 1110.43 223.108 3631.6 371.316 1936.81 1157.97 2275.93 496.22 546.01
internal_count=193899 190872 187698 175284 172746 160424 16681 143743 136846 122976 2538 7898 12414 115078 4733 3174 13870 103778 6594 6466 4366 3027 598 11300 1158 6524 3982 6897 1537 2100
is_linear=0
shrinkage=0.05


Tree=9
num_leaves=31
num_cat=0
split_feature=0 13 14 4 10 3 0 5 17 8 6 5 5 17 16 0 17 5 17 5 4 16 14 5 0 3 4 10 9 14
split_gain=703.435 462.97 435.48 332.62 312.519 301.906 240.786 273.284 233.247 216.94 212.903 185.178 181.643 177.645 200.195 153.863 112.245 111.547 120.606 110.747 104.922 138.477 173.564 156.526 180.24 151.748 163.965 112.223 103.99 103.686
threshold=-0.10488881541057656 30.868893638702797 107.16194558391682 -0.0506223137974302 -1.2063952362604242 0.98371124353839134 0.094769172903187732 0.091815556945612511 0.037846972717011949 1.0000000180025095e-35 0.6644290842757814 0.074954396444723917 0.0059400594487094569 0.038435073767895712 -33.156886181316743 -0.0035663380423857113 0.032700074140669937 -0.051943555059898498 0.036862003780718355 -0.0086762943373051554 -0.027263614386167753 -51.90089922770148 75.46715488401162 -0.012446288612263766 -0.0077139064618677268 0.87511584840543655 0.032355799778999168 0.29834819117985173 1.0000000180025095e-35 48.334532790756462
decision_type=2 2 2 2 2 2 2 2 2 2 2 2 2 2 2 2 2 2 2 2 2 2 2 2 2 2 2 2 2 2
left_child=17 3 4 10 11 -4 7 12 9 -7 -2 16 20 14 -14 -5 -3 -1 -19 -17 -6 22 23 24 -22 26 -23 -25 -13 -15
right_child=1 2 5 15 6 8 -8 -9 -10 -11 -12 28 13 29 -16 19 -18 18 -20 -21 21 25 -24 27 -26 -27 -28 -29 -30 -31
leaf_value=-0.055439812484139844 0.060059939027838599 0.0094988748459987025 -0.0052790905555958967 -0.0030840592887436871 0.0037513887255494526 0.00090098125266834493 0.02223965869442858 -0.066318029189761069 0.0099594115508156739 0.059195078592206067 0.0099557964201750018 0.0074512170404978182 -0.010159178273709647 0.0081807840841394523 0.023616860959138668 0.060237135053688752 -0.012201724096354644 0.040553355515392547 -0.032570402671504302 0.01537327283415775 -0.017077277282837651 0.009424591246497414 0.054240925637715348 -0.0041421463734081605 0.039566660017943671 -0.003376632774243802 -0.024994134405714401 -0.016769364527550939 -0.055317984820714532 -0.0071954666524850046
leaf_weight=581.7223008275032 626.64594566822052 663.72189299762249 863.61033158004284 1334.9569216519594 6013.7321466505527 201.32301793992519 1112.1169037669897 161.04025921225548 747.42794911563396 770.08618135750294 320.43480272591114 81.054469764232635 554.65292567014694 2104.7703535556793 2098.6875898689032 166.63421584665775 5830.2971716970205 64.099798366427422 468.74332642555237 788.28050714731216 246.36172965168953 4219.3341966420412 106.64948822557926 2860.6361198425293 326.63560162484646 22271.41372615099 376.93190316855907 4571.4989839345217 354.88636450469494 2288.4200923442841
leaf_count=1535 1774 2020 2891 4643 18389 713 3211 637 2364 3174 1083 249 1881 6398 6498 455 18114 158 1360 2654 705 13062 274 9158 890 66819 1052 13940 1367 6632
internal_value=-0.000931287 -0.00022425 -0.00123727 0.0181854 -0.00215911 0.0188393 -0.000761905 -0.00129261 0.0309573 0.0471137 0.0431077 -0.0121015 -0.00107463 0.00634099 0.0165563 0.0078777 -0.00998381 -0.0403012 -0.0237738 0.0232021 -0.00234934 -0.00339819 -0.00912362 -0.00996781 0.0152124 -0.00166959 0.00660197 -0.0119091 -0.0436473 0.00017127
internal_weight=63176.8 62062.2 58825.3 3236.95 56242.8 2582.45 49312.9 48200.8 1718.84 971.409 947.081 6929.96 48039.7 7046.53 2653.34 2289.87 6494.02 1114.57 532.843 954.915 40993.2 34979.5 8111.78 8005.13 572.997 26867.7 4596.27 7432.14 435.941 4393.19
internal_count=194100 191047 180438 10609 171296 9142 149546 146335 6251 3887 2857 21750 145698 21409 8379 7752 20134 3053 1518 3109 124289 105900 24967 24693 1595 80933 14114 23098 1616 13030
is_linear=0
shrinkage=0.05


Tree=10
num_leaves=31
num_cat=0
split_feature=0 16 14 16 17 3 9 4 15 5 5 5 13 5 6 15 13 6 1 0 15 13 5 5 2 17 12 16 7 5
split_gain=605.544 419.989 368.575 340.824 328.683 301.236 245.313 229.116 202.903 199.084 192.552 190.519 165.294 153.813 152.38 133.923 163.07 150.709 151.698 147.044 128.198 192.866 168.756 127.94 121.499 123.375 149.006 119.529 113.014 104.56
threshold=-0.10488881541057656 -169.42391914652185 104.47128302293196 117.37151269072945 0.030430287158266886 0.95880373413829745 1.0000000180025095e-35 0.035562560900008096 83.599074555967064 0.0070356178429527025 0.060185185185185237 0.010782436033544231 27.471351981901893 0.0023201856148492577 0.70212616568900976 97.927423085199948 31.255260164920887 0.58332847226272722 -0.0098905249919619981 0.004018221390765026 87.59121423624903 37.304861298488689 -0.011573465232723677 -0.0056846321165007199 0.015398080111121775 0.04538065049428687 38.014146733137331 -6.6093194817628769 0.79353723332236037 0.091815556945612511
decision_type=2 2 2 2 2 2 2 2 2 2 2 2 2 2 2 2 2 2 2 2 2 2 2 2 2 2 2 2 2 2
left_child=-1 8 3 9 7 10 11 -4 -2 15 14 -6 -10 -7 -5 16 23 20 19 -19 21 22 -18 -3 -11 27 -27 -26 -23 -8
right_child=1 2 4 5 6 13 29 -9 12 24 -12 -13 -14 -15 -16 -17 17 18 -20 -21 -22 28 -24 -25 25 26 -28 -29 -30 -31
leaf_value=-0.037826494578995978 0.059238438416962517 0.030567545270999693 0.0050631163629558289 -0.023494110859432159 -0.0026004549759389879 -0.011759198243827687 0.0083488772913979607 0.060150472320469509 0.040050548101025367 0.0018164617594473159 -0.054828450242121886 0.025225116892153062 -0.0026608490135473107 0.0081740196157146679 0.012468228718201147 -0.018183318116067822 0.057708784589033814 0.01664497889014575 -0.0021054132532827038 0.000470502309878198 -0.013541917604985951 -0.0079295608990910416 0.0078983017223061471 0.0040936564103687019 0.0089979664591310383 0.039098708882264487 -0.005824068204010548 0.036627113339825379 -0.00087363461769937156 -0.07497077490812272
leaf_weight=1088.0784821659327 370.22233121097088 669.7938859462738 281.98240140080452 2266.8418568372726 1321.1166798621416 2198.7012524157763 53.659583479166031 570.89588798582554 393.34735442698002 3434.0663885176182 432.98513725399971 1151.2099824845791 534.09671103954315 1728.6797078698874 338.55108869075775 1171.9106550812721 190.28369788825512 2931.4481223374605 7077.8156178742647 2698.8067025542259 3011.9349091500044 9790.7474236190319 1598.535971596837 1432.1904872208834 681.0896939188242 231.89333046972752 904.92898689210415 920.51347410678864 13499.786576002836 126.23672135174274
leaf_count=3013 1033 2028 937 6897 4151 6291 173 2407 1242 10518 1687 3978 1626 5299 1078 3746 533 9179 21806 8245 8944 29559 5291 4983 2280 666 2498 2731 40765 526
internal_value=-0.00084914 -0.00020035 -0.000801899 -0.00176614 0.0149369 -0.0121309 0.00625431 0.0419372 0.0279456 -0.000329239 -0.0239523 0.0103562 0.0154539 -0.00298537 -0.0188211 -0.00150706 -0.00105153 -0.00175123 0.0027669 0.0088919 -0.00379516 -0.00262461 0.0131968 0.0125295 0.00808075 0.0159364 0.00333945 0.0248777 -0.00383977 -0.0501181
internal_weight=63102.4 62014.3 60716.6 57211.5 3505.1 6965.76 2652.22 852.878 1297.67 50245.7 3038.38 2472.33 927.444 3927.38 2605.39 44073.3 42901.3 40799.4 12708.1 5630.25 28091.3 25079.4 1788.82 2101.98 6172.49 2738.43 1136.82 1601.6 23290.5 179.896
internal_count=194110 191097 187196 175024 12172 21252 8828 3344 3901 153772 9662 8129 2868 11590 7975 135079 131333 124322 39230 17424 85092 76148 5824 7011 18693 8175 3164 5011 70324 699
is_linear=0
shrinkage=0.05


Tree=11
num_leaves=31
num_cat=0
split_feature=0 16 14 10 17 4 4 15 3 4 1 15 16 0 5 13 15 7 5 4 9 13 15 5 2 8 17 16 2 1
split_gain=546.631 391.49 323.548 305.928 273.703 222.691 219.207 272.718 250.147 315.477 218.116 223.586 226.195 203.527 281.094 196.815 280.698 182.787 159.964 162.447 155.91 148.34 171.346 147.513 143.506 133.879 133.831 167.016 137.041 132.643
threshold=-0.10488881541057656 -202.72054809389235 107.16194558391682 -1.314021808786886 0.031644118321485885 0.038175236839144706 -0.0506223137974302 92.506444012671864 0.83971702699611084 -0.0040204678362572568 0.15734501076142204 73.255797221475135 -82.54978139245344 0.094769172903187732 0.091815556945612511 39.903571320563621 83.999832000336042 0.79353723332236037 0.0034629036706599341 -0.010819418754909159 1.0000000180025095e-35 30.476778632404073 96.534605675937811 0.012398524255356593 1.0000000180025095e-35 1.0000000180025095e-35 0.038724373576309819 -21.701768656140622 -0.015796928552116812 0.032439341753977585
decision_type=2 2 2 2 2 2 2 2 2 2 2 2 2 2 2 2 2 2 2 2 2 2 2 2 2 2 2 2 2 2
left_child=-1 -2 3 24 5 -4 21 8 9 15 11 12 -11 14 17 16 -8 25 19 -19 23 22 -5 -6 -3 -10 27 -20 -29 -9
right_child=1 2 4 6 20 -7 7 29 13 10 -12 -13 -14 -15 -16 -17 -18 18 26 -21 -22 -23 -24 -25 -26 -27 -28 28 -30 -31
leaf_value=-0.035945316184896582 0.039742019054655506 -0.0073722071792577133 0.0012626318964631001 0.057500009919997853 -0.0049683304500363068 0.059435864127478789 0.05231223119938281 -0.0040484108518826769 -0.0056349426589669994 0.064585034924436527 -0.03517009692842496 -0.014673008730662391 0.0075282354379887289 0.019845233855039821 -0.063832605465598422 0.0076305626304018978 0.012744616877533336 0.0081583572041540649 -0.0061435830293047004 -0.0037064232471504068 -0.051763969161952084 0.0080229932178237737 -0.0036116143605276867 0.024726495821875007 -0.024885252677198717 -0.038133658698147298 -0.00020426229233627734 0.005370411850412842 0.028930190936474032 -0.022898513031503944
leaf_weight=1087.6174959689379 607.80915454030037 4311.425170570612 237.02871514856815 356.60649538040161 839.51609213650227 537.71841369569302 821.69862626492977 1794.5964251607656 12836.18143838644 196.26477983593941 439.23672394454479 1118.4742212593555 1511.0464038252831 1101.1163304001093 182.67324167490005 1882.6656691431999 986.17752824723721 3553.9908963888884 768.07671855390072 15323.884561091661 109.48137582838535 2017.3579691946507 169.08678194880486 833.40341433882713 1605.2490362524986 324.92069755494595 2893.3685287535191 972.54817801713943 1689.4595308303833 1944.3826570957899
leaf_count=3034 1776 13335 805 1101 2668 2342 2355 5855 39277 510 1144 3328 4237 3201 756 5723 3062 11329 2608 46465 431 6066 566 2887 5264 1076 8630 3017 5202 6037
internal_value=-0.000805414 -0.000188638 -0.000584191 -0.00134136 0.0168266 0.0416382 -0.000135029 -0.000858555 0.000183865 0.00892969 -0.00239144 0.00270364 0.0140872 -0.00135051 -0.00195601 0.0189455 0.0307285 -0.00166137 0.000832795 -0.00147273 0.00604183 0.0141875 0.0378437 0.00982483 -0.0121237 -0.00643727 0.00771566 0.0143963 0.0203228 -0.013851
internal_weight=63053.1 61965.4 61357.6 58800.5 2557.15 774.747 52883.8 50340.8 46601.8 6955.56 3265.02 2825.79 1707.31 39646.2 38545.1 3690.54 1807.88 38362.4 25201.3 18877.9 1782.4 2543.05 525.693 1672.92 5916.67 13161.1 6323.45 3430.08 2662.01 3738.98
internal_count=194087 191053 189277 180144 9133 3147 161545 153812 141920 20359 9219 8075 4747 121561 118360 11140 5417 117604 77251 57794 5986 7733 1667 5555 18599 40353 19457 10827 8219 11892
is_linear=0
shrinkage=0.05


Tree=12
num_leaves=31
num_cat=0
split_feature=0 16 15 5 15 13 6 4 0 1 8 5 16 3 5 15 13 17 5 7 6 3 3 0 4 15 4 4 7 1
split_gain=481.063 358.424 292.126 524.278 181.536 289.256 218.8 173.791 169.884 163.705 238.311 132.294 129.441 266.851 185.097 168.685 170.265 152.06 151.053 119.729 118.343 117.612 115.05 163.548 191.076 110.943 162.345 101.48 101.341 109.662
threshold=-0.10488881541057656 -202.72054809389235 4.347821361063791 0.074954396444723917 97.927423085199948 31.255260164920887 0.58332847226272722 -0.0506223137974302 0.088526351885409069 -0.0098905249919619981 1.0000000180025095e-35 0.0040737807469718454 71.030108925046108 0.95812447654941379 0.0052636907108832851 87.59121423624903 37.304861298488689 0.038724373576309819 -0.01185632934768832 1.4871951161556549 0.5853644259404257 0.86531542067165579 0.89621202843866909 -0.0080000426670762629 0.0057556136248226872 90.454504338861696 -0.0096198586247875899 0.026109294071597015 3.5148688700835744 -0.042029532243648506
decision_type=2 2 2 2 2 2 2 2 2 2 2 2 2 2 2 2 2 2 2 2 2 2 2 2 2 2 2 2 2 2
left_child=19 20 11 4 5 7 12 -4 -5 10 21 -3 15 22 -15 16 18 27 -7 -1 -2 -8 23 -14 -25 26 -9 -16 29 -13
right_child=1 2 3 8 -6 6 9 25 -10 -11 -12 28 13 14 17 -17 -18 -19 -20 -21 -22 -23 -24 24 -26 -27 -28 -29 -30 -31
leaf_value=-0.043647512579102453 0.053231143803650877 0.0023088208125917964 0.043606821331643356 -0.05430566772727613 -0.019371108594789993 0.054722403334344541 0.024805972082485316 0.03595945454960086 0.038775314066731056 -0.0012616869388865303 -0.0086582520917645091 0.0094159141649584593 -0.012215677342093615 -0.0066750667635628791 0.0064813353355733369 -0.012466469719574597 -0.0017176198797194927 -0.0059356723295397873 0.0088989828442243256 -0.0043947585125631728 0.0066409784141813928 0.0090306076236982922 -0.01286151045208099 -0.067301143967903251 0.0027742099140694171 -0.0026106016258745663 -0.0034818156554668788 0.04250339663962515 -0.007912920987587637 0.034588530006674362
leaf_weight=810.50991486012936 408.38328889012337 1711.6258533746004 460.36529624462128 588.76492142677307 1331.4078780263662 199.34847263991833 1639.6365959942341 668.34670203924179 53.471568435430527 8730.2111235558987 1540.5230729430914 691.72424012422562 548.95067171752453 3269.0578438490629 317.41092717647552 3320.9385526031256 22296.056472480297 515.37541410326958 1838.0780320763588 255.50977693498135 204.57796563208103 4228.4863137453794 3484.4103536754847 416.05690789222717 126.96388471126556 976.5558830499649 427.96638788282871 509.12120281159878 264.82530049979687 1155.1848425716162
leaf_count=2296 1177 5329 1464 2380 4253 563 5331 2208 153 27064 4709 2224 1752 9372 938 9831 67377 1539 6031 699 633 12875 10358 1575 426 3389 1370 1849 824 4076
internal_value=-0.000936289 -0.000362979 -0.000743333 -0.0016334 -0.00112587 -0.000688284 -0.00147749 0.0158173 -0.0465559 0.00337729 0.00884377 0.0126396 -0.00360416 -0.00874606 -0.000256704 -0.00189592 -0.000453297 0.0153792 0.0133825 -0.0342392 0.0376815 0.0134385 -0.0172996 -0.0314612 -0.0509168 0.00964551 0.0205628 0.0286699 0.021013 0.0251606
internal_weight=62989.8 61923.8 61310.9 57487.5 56845.3 55513.9 52980.6 2533.23 642.236 16138.9 7408.65 3823.36 36841.8 9187.35 4610.97 27654.4 24333.5 1341.91 2037.43 1066.02 612.961 5868.12 4576.38 1091.97 543.021 2072.87 1096.31 826.532 2111.73 1846.91
internal_count=194065 191070 189260 176807 174274 170021 161590 8431 2533 49979 22915 12453 111611 27809 13698 83802 73971 4326 6594 2995 1810 18206 14111 3753 2001 6967 3578 2787 7124 6300
is_linear=0
shrinkage=0.05


Tree=13
num_leaves=31
num_cat=0
split_feature=0 13 14 17 4 16 3 15 12 4 4 14 6 15 12 4 6 16 2 1 1 3 3 16 17 4 4 15 2 1
split_gain=489.394 315.06 334.181 274.711 273.738 263.761 264.925 256.201 217.873 229.327 194.269 190.622 182.006 177.877 163.788 157.317 156.511 155.613 145.997 187.885 175.631 167.499 144.351 140.741 232.959 138.195 122.88 113.829 124.881 108.284
threshold=-0.10488881541057656 30.868893638702797 104.47128302293196 0.030430287158266886 -0.0506223137974302 121.42325041739001 0.97465113260206404 86.507867850898606 32.036834153806709 -0.016218006595280662 0.037269009250001213 1.6198083877879219 0.79999600001999605 90.804554212379117 91.290080339302605 -0.012942609017651039 0.72499818750453271 -24.840627777414486 -0.034938051361280503 -0.16096931591933841 0.17231423955760414 0.8946864153047972 0.98214716422024684 14.005347979973433 0.062588806136319217 0.0083908441089924918 -0.015869749647246131 46.813714016246585 -0.11254361635313111 -0.034548349063302786
decision_type=2 2 2 2 2 2 2 2 2 2 2 2 2 2 2 2 2 2 2 2 2 2 2 2 2 2 2 2 2 2
left_child=-1 4 5 10 12 7 14 8 9 -3 -4 -9 -2 15 -7 -6 18 -18 21 -20 -21 23 27 -10 26 -22 -25 28 -5 -24
right_child=1 2 3 22 13 6 -8 11 16 -11 -12 -13 -14 -15 -16 -17 17 -19 19 20 25 -23 29 24 -26 -27 -28 -29 -30 -31
leaf_value=-0.034296438723789339 0.04825251914847839 0.032203044721850371 0.0075753999707342118 -0.061463565033417447 0.038236292149858436 -0.016250134493460845 0.0012408773414218997 -0.00032997484950952389 -0.0064512718972429637 -0.0041224087724625663 0.057430419528883538 -0.017196733642288593 -0.011606723861558609 -0.0073585372671906351 -0.050816336686419952 -0.00025225455428099988 -0.0071363433219772069 0.011022078097940065 -0.024912100343302625 0.002466964927141593 0.027904416402471845 -0.0099421437387348689 -0.0021920480915958288 0.00053900411327470769 -0.0028443200897360975 -0.069920591235596893 0.040981608863964014 0.04064212833367882 -0.0071299965925666524 0.024892990762909788
leaf_weight=1074.7574912011623 757.65644457936287 1084.3781626969576 310.88488459587097 122.10360252857208 580.49097214639187 3595.5841789096594 2495.5655264854431 2988.0092281401157 2403.5334557294846 724.95393313467503 526.02186924219131 3812.4673465937376 152.55815160274506 1208.9320484697819 378.80874899029732 489.26297011971474 1528.1487154662609 5176.6884538978338 670.24593934416771 19714.188471123576 48.114500612020493 8235.9373237788677 570.87594990432262 258.94942720234394 1286.6849554032087 144.6054413318634 683.77969440817833 104.69407911598682 789.82107290625572 1043.6193575561047
leaf_count=3043 2320 3360 1043 478 1905 10984 7395 8952 7055 2259 2306 11647 516 4274 1487 1585 4796 15911 2224 59711 125 24615 1873 853 4006 357 2543 357 2476 3631
internal_value=-0.000845716 -0.000264801 -0.00109632 0.0139592 0.0150411 -0.00204168 -0.0115274 -0.00078304 0.000676031 0.0176483 0.0389108 -0.00978578 0.0382197 0.00578247 -0.0195447 0.0206332 -8.87986e-05 0.00688346 -0.00148651 0.00112594 0.00200262 -0.00566378 0.00602257 0.00194183 0.0109904 -0.0454976 0.0298728 -0.00873617 -0.0144051 0.0153159
internal_weight=62962.3 61887.6 58698.7 3468.02 3188.9 55230.6 6469.96 48760.7 41960.2 1809.33 836.907 6800.48 910.215 2278.69 3974.39 1069.75 40150.9 6704.84 33446 20577.2 19906.9 12868.9 2631.11 4632.95 2229.41 192.72 942.729 1016.62 911.925 1614.5
internal_count=194087 191044 180444 12164 10600 168280 19866 148414 127815 5619 3349 20599 2836 7764 12471 3490 122196 20707 101489 62417 60193 39072 8815 14457 7402 482 3396 3311 2954 5504
is_linear=0
shrinkage=0.05


Tree=14
num_leaves=31
num_cat=0
split_feature=0 13 14 17 13 15 4 15 0 9 4 14 4 7 13 4 3 6 1 0 7 10 17 1 12 10 17 6 2 8
split_gain=417.735 296.171 267.035 267.234 235.826 234.882 277.4 227.601 220.699 193.538 187.532 172.94 149.365 146.317 124.261 176.304 185.169 156.669 179.618 174.513 147.003 113.709 137.21 110.22 102.154 99.3235 99.2639 99.6708 97.3614 95.2155
threshold=-0.10488881541057656 31.255260164920887 104.47128302293196 0.030430287158266886 62.777809720671414 97.241364221167643 -0.0506223137974302 87.59121423624903 0.094769172903187732 1.0000000180025095e-35 0.02715190891650077 4.6372123764367759 0.078551780283468223 2.7791486538995813 36.851143560385815 -0.0084660375583672769 0.83444778307768719 0.59210448407304683 -0.040325774724889484 0.00532435373290695 0.88740685455597557 0.30696990528467738 0.037285775915197862 0.015873349156290049 83.629062145579937 0.0080494001023578895 0.039930387295126081 0.048780368828367719 -0.011806512586988975 1.0000000180025095e-35
decision_type=2 2 2 2 2 2 2 2 2 2 2 2 2 2 2 2 2 2 2 2 2 2 2 2 2 2 2 2 2 2
left_child=21 5 4 10 7 6 -2 13 12 24 -4 23 25 14 15 16 -3 20 19 -19 29 22 -1 -9 -5 -6 27 -26 -13 -16
right_child=1 2 3 9 8 -7 -8 11 -10 -11 -12 28 -14 -15 17 -17 -18 18 -20 -21 -22 -23 -24 -25 26 -27 -28 -29 -30 -31
leaf_value=0.039271067897161289 0.046770517333492925 0.050051797147144618 -0.0055615001860794891 -0.0018464229163821387 -0.011344910962158854 -0.013713737958519451 0.010870901755280779 0.0077417458330573015 0.011814893277098556 -0.046966796922820249 0.050372962768318957 -0.0065630157987648062 -0.028711991999561988 -0.021492398324263865 -0.0042724804932086592 -0.0013063227022951408 0.010110848855476674 0.025081871288349017 0.0016894504574071685 0.00010399504003363326 0.0027004233332249116 -0.057102810499236462 -0.028813535805637697 -0.010162772323302417 -0.0085226403912853667 0.0039235417017149847 0.0058530777237709051 0.045760482875826063 -0.026510094523714757 -0.029784377863596806
leaf_weight=83.215473189949989 730.4149529337883 479.44992193579674 196.29190711677074 1248.9523471146822 6878.0809098482132 620.18254774808884 2043.7763510644436 1576.0777647197247 1162.1531903445721 170.28999081254005 633.35640816390514 976.74006091058254 1087.2429325729609 705.78288571536541 12973.599696040154 1171.9809381812811 735.08313904702663 1947.8278713524342 7445.2855214774609 1090.947485640645 11615.420379787683 313.9622427970171 668.15585532784462 1890.7231965661049 105.84302279353142 1260.2950951606035 672.11364562809467 420.59174925088882 1637.0274480730295 376.34058360755444
leaf_count=209 2266 1378 622 3935 21308 2172 6873 4857 3407 679 2746 2873 3767 2133 38920 3752 2600 6183 22584 3234 34955 852 1986 5557 364 3841 2125 1673 5086 1232
internal_value=-0.000788977 -0.000254287 -0.00108802 0.0124111 -0.001934 0.0141041 0.0203229 -0.000354458 -0.00871915 0.00457419 0.0371391 -0.00934477 -0.0113058 0.00106391 0.00148467 0.0125282 0.025878 0.000741199 0.00587054 0.0161146 -0.00141284 -0.0318324 -0.0212731 -0.00202302 0.00816027 -0.00898046 0.0185878 0.0348465 -0.0190561 -0.00499167
internal_weight=62917.2 61851.9 58457.5 3447.44 55010.1 3394.37 2774.19 44622.3 10387.8 2617.79 829.648 6080.57 9225.62 38541.7 37835.9 2386.51 1214.53 35449.4 10484.1 3038.78 24965.4 1065.33 751.371 3466.8 2447.5 8138.38 1198.55 526.435 2613.77 13349.9
internal_count=194169 191122 179811 12144 167667 11311 9139 135344 32323 8776 3368 18373 28916 116971 114838 7730 3978 107108 32001 9417 75107 3047 2195 10414 8097 25149 4162 2037 7959 40152
is_linear=0
shrinkage=0.05


Tree=15
num_leaves=31
num_cat=0
split_feature=15 10 4 15 5 12 5 17 14 6 9 3 7 17 12 2 4 15 3 1 12 12 4 12 0 15 12 1 1 15
split_gain=364.622 245.737 262.278 286.953 344.579 246.929 242.658 242.914 180.208 177.392 161.167 146.713 144.985 137.278 103.804 102.812 102.784 188.764 187.852 243.539 155.789 146.046 139.616 115.667 165.019 150.191 150.531 142.927 122.078 120.511
threshold=99.017935871713902 -1.5707208544782101 -0.0506223137974302 2.6086933837447526 0.091815556945612511 25.862757201291952 0.0072363660598675503 0.035617288282689202 99.122406129717376 0.49256476990064152 1.0000000180025095e-35 0.98214716422024684 1.6249476263513982 0.068246759036097393 45.607528299307511 0.073596419580540515 -0.01761683386346968 76.40440853437245 0.87422263561334446 0.15734501076142204 48.743408084101894 37.303831647027764 0.015802902697839908 50.596653005688928 -0.013308756285637697 93.181712293508738 30.806146507368641 0.08262219657086671 0.030566983892682507 85.064879828000116
decision_type=2 2 2 2 2 2 2 2 2 2 2 2 2 2 2 2 2 2 2 2 2 2 2 2 2 2 2 2 2 2
left_child=1 11 5 -4 6 9 16 8 15 -3 -6 -1 -2 14 -7 -8 23 18 19 21 -19 -18 -23 25 -25 26 27 29 -27 -5
right_child=12 2 3 4 10 13 7 -9 -10 -11 -12 -13 -14 -15 -16 -17 17 20 -20 -21 -22 22 -24 24 -26 28 -28 -29 -30 -31
leaf_value=-0.01640285762521938 -0.034532548633364163 0.050872722691747689 0.017144733744439634 0.03289262243456828 0.035611264453841336 0.0083767463334752136 0.010069231907373754 0.0023023549624694752 0.054477144372027358 0.013824829761257807 -0.062501433870391782 0.0047196383390707098 0.01619165940146201 -0.0098032372521326544 0.051606612180155623 0.043638901851345335 0.034959143764251431 -0.012256328121238147 -0.0031731628896731114 -0.033964341832717057 0.039942317651017481 0.014106084108709963 -0.0053744495458457721 0.0039881549947570778 -0.036372901218020615 0.0054832717236489269 0.0034571097748073761 0.05380520574704805 -0.018371732984666787 0.0048978959017614504
leaf_weight=3425.585936114192 1053.0040943324566 622.18283654749393 2332.5158098489046 589.76012045145035 48.305016964673996 597.51485759019852 1320.1615177541971 4764.8409804701805 372.85885326564312 672.17426605522633 313.55347327888012 1081.6713860481977 162.63208965957165 964.42294628918171 180.90571129322052 275.71497413516045 540.4198050647974 5980.0668114572763 23923.418574646115 329.38723887503147 146.4423280954361 2626.1238856911659 1415.5200692415237 602.59292474389076 436.83715118467808 1042.9008228033781 4528.7301911711693 270.16152693331242 1104.0987205207348 1104.1486798971891
leaf_count=10827 3150 1770 7611 1885 139 1840 4208 14303 1597 2190 1391 3645 448 2752 698 814 1539 18651 72255 847 504 8213 4118 1947 1488 3470 13878 735 3406 3681
internal_value=-0.000629165 -9.41354e-05 0.000792991 -1.01203e-05 -0.000783546 0.0150901 -0.000441082 0.00840676 0.023181 0.0316333 -0.0494042 -0.0113338 -0.0277465 0.00280386 0.0184234 0.015869 -0.00177569 -0.00303808 -0.00134459 0.0075623 -0.0110086 0.0105475 0.00728334 0.00278407 -0.0129742 0.00467991 0.00847079 0.0200313 -0.00678421 0.0146447
internal_weight=62828.7 61613 57105.8 54068.6 51736 3037.2 51374.2 6733.58 1968.74 1294.36 361.858 4507.26 1215.64 1742.84 778.421 1595.88 44640.6 34961.4 28834.9 4911.45 6126.51 4582.06 4041.64 9679.23 1039.43 8639.8 6492.8 1964.07 2147 1693.91
internal_count=194000 190402 175930 166680 159069 9250 157539 20922 6619 3960 1530 14472 3598 5290 2538 5022 136617 106127 86972 14717 19155 13870 12331 30490 3435 27055 20179 6301 6876 5566
is_linear=0
shrinkage=0.05


Tree=16
num_leaves=31
num_cat=0
split_feature=0 16 0 5 5 17 14 10 14 4 15 3 2 7 16 16 9 14 4 14 1 16 16 15 7 6 16 0 6 16
split_gain=356.555 261.477 223.196 482.526 194.672 242.491 299.749 159.026 140.685 136.186 154.198 149.415 135.559 132.806 124.054 118.523 116.646 107.855 106.861 159.854 115.748 117.099 107.337 118.277 106.095 97.7771 135.81 118.687 96.9286 96.0805
threshold=-0.10488881541057656 -202.72054809389235 0.076668764580934828 0.074954396444723917 0.0039534374848045903 0.035617288282689202 99.122406129717376 -1.5707208544782101 38.508726750504287 -0.054335797666599732 94.192127903373787 0.85334543441209865 0.076283304749630729 0.5330464230294889 -30.065021355277871 77.939072560636575 1.0000000180025095e-35 5.0183863573326875 0.021639617145235216 70.277099937328856 0.11863085257872288 -72.06197625409412 -119.56640127607997 75.247493709780358 1.0993466501823594 0.79411531142555603 -25.861669780447471 0.022845450767595893 0.5853644259404257 -93.139764902249638
decision_type=2 2 2 2 2 2 2 2 2 2 2 2 2 2 2 2 2 2 2 2 2 2 2 2 2 2 2 2 2 2
left_child=24 28 3 4 7 6 12 -3 14 -9 11 18 -6 -4 -7 -8 -15 -16 19 22 21 -20 23 -11 -1 27 -27 -13 -2 -10
right_child=1 2 13 -5 5 8 15 9 29 10 -12 25 -14 16 17 -17 -18 -19 20 -21 -22 -23 -24 -25 -26 26 -28 -29 -30 -31
leaf_value=-0.043644775615911048 0.047743702198897203 -0.015556358396256915 0.046200288714092513 -0.048006391291285685 0.0046404124523959003 -0.001649427592011105 0.0089629359235203123 0.011436157247112595 0.069018577585389748 0.07067747828667334 -0.013903877262996521 -0.0026483741531990348 0.03390373605510584 0.01053100184748202 0.040024854759659265 0.057479171105027788 -0.067742457824219629 0.010314786090389286 0.05445981626220138 0.030636338130977971 -0.043139275915597096 -0.010005901048122042 0.0020300334519935798 0.014039958373640891 -0.011398773745764252 -0.01481502944881204 0.011448022007975516 -0.012769933938003457 0.0049439773550836582 -0.0057864509004217461
leaf_weight=588.7149528414011 385.89957500994205 2131.8231507092714 264.92128039896488 544.78828717768192 2759.6615188866854 1511.9115479141474 167.3131101578474 1923.8540453761816 43.298702031373978 108.1138521283865 2623.3211404234171 24700.024143204093 462.00567454099655 2951.1664251387119 423.02339839935303 508.3725521415472 48.377341106534004 1099.2844739854336 82.574109107255936 640.93856404721737 222.54332393407822 479.46856437623501 5520.4798386543989 625.39349767565727 450.11035107076168 627.3847468495369 2285.2191323935986 3281.0693083256483 201.28432084619999 4978.0213913321495
leaf_count=1735 1171 6609 811 2308 8726 4630 604 5872 110 289 8382 75577 1386 9302 1400 2191 200 3414 216 1777 594 1331 17037 1870 1286 2063 7283 9965 632 14956
internal_value=-0.000624007 -0.000134136 -0.000453703 -0.0011727 -0.000726685 0.00494859 0.0151873 -0.00222575 -4.97991e-06 -0.0015667 -0.00217393 -0.00137618 0.00883694 0.0122657 0.00849528 0.0454656 0.00926859 0.0185707 0.00486536 0.00685497 -0.0126193 -0.000534736 0.00441774 0.0223879 -0.029673 -0.0029277 0.00579087 -0.00383523 0.0330721 -0.00514141
internal_weight=62640.4 61601.5 61014.4 57749.9 57205.1 11952.9 3897.35 45252.2 8055.54 43120.4 41196.5 38573.2 3221.67 3264.47 3034.22 675.686 2999.54 1522.31 7679.51 6894.93 784.586 562.043 6253.99 733.507 1038.83 30893.7 2912.6 27981.1 587.184 5021.32
internal_count=193727 190706 188903 178590 176282 37417 12907 138865 24510 132256 126384 118002 10112 10313 9444 2795 9502 4814 23114 20973 2141 1547 19196 2159 3021 94888 9346 85542 1803 15066
is_linear=0
shrinkage=0.05


Tree=17
num_leaves=31
num_cat=0
split_feature=0 13 14 17 4 16 15 13 5 4 9 4 17 0 5 15 4 15 6 5 10 2 17 1 0 5 16 4 1 1
split_gain=317.642 247.854 228.551 229.28 203.581 199.806 186.87 171.325 187.508 170.604 148.362 146.874 141.622 152.846 180.283 137.646 138.556 134.835 132.159 124.229 113.375 109.679 145.121 135.433 148.998 113.313 109.302 105.353 167.628 98.5971
threshold=-0.10488881541057656 30.868893638702797 104.47128302293196 0.030430287158266886 -0.054335797666599732 117.37151269072945 83.599074555967064 37.909611598427794 -0.0092896718857439758 0.036401164920016667 1.0000000180025095e-35 -0.020270270270270337 0.029423963272255056 0.094769172903187732 0.074954396444723917 90.454504338861696 -0.007320959489913125 98.666611851883559 0.72499818750453271 0.010782436033544231 0.16285821039501941 -0.044038014632387004 0.045006957877250911 -0.16096931591933841 1.0000000180025095e-35 0.0098491724800642295 -42.524388014049528 0.00037223185035450973 0.060397427617505557 0.15734501076142204
decision_type=2 2 2 2 2 2 2 2 2 2 2 2 2 2 2 2 2 2 2 2 2 2 2 2 2 2 2 2 2 2
left_child=-1 4 5 9 17 6 7 8 -3 -4 19 -8 -7 14 -14 16 -6 -2 21 -5 -13 22 -9 24 -23 -25 -20 28 -10 -29
right_child=1 2 3 10 15 12 11 18 27 -11 -12 20 13 -15 -16 -17 -18 -19 26 -21 -22 23 -24 25 -26 -27 -28 29 -30 -31
leaf_value=-0.028272107134300485 0.043114411864122681 0.045575752637951383 0.0036694435422100855 -0.002860502293416175 0.031876267877548908 0.008378304715838978 -0.0015660809572215139 -0.012443001081823007 0.0069702855240827439 0.051988223189174149 -0.041291627261423491 -0.001646912710288134 -0.012973246630921448 0.0082916799350105392 -0.047959276054473081 -0.004725008116934654 -0.00757540137522183 -0.020006732034127225 -0.010672046139004633 0.019758515407431395 -0.020677300249397734 0.00428161573011709 -0.00071872458851918956 0.00038979559761904037 -0.042634759590267413 0.013641978679294895 0.0090478384993831363 -0.0013643138703962078 0.050516633017320414 -0.062068666791932695
leaf_weight=1027.2851798683405 693.34196195006371 385.91163840889931 281.86392156779766 1323.3842107504606 717.66839134693146 932.03013768792152 4758.1591090112925 4379.1413209885359 1062.6062720716 519.16296319663525 166.29782028496265 1127.176392108202 4759.2397691607475 763.36289629340172 399.0950658172369 1308.6256188303232 322.58951109647751 96.36331994831562 804.73255404829979 1121.4428957551718 2560.4926571249962 313.15355803072453 6643.4240811318159 17519.642207831144 368.20575879514217 1776.6038435995579 5540.9983484297991 674.30950604379177 279.02584847807884 74.256617560982704
leaf_count=3014 2231 1127 952 4175 2389 2733 14396 13025 3670 2395 690 3499 14415 2244 1746 4633 1033 300 2492 3967 7843 1000 20609 52694 1271 5259 17076 2177 817 185
internal_value=-0.000697683 -0.000238372 -0.000972357 0.0115852 0.0134502 -0.0017497 -0.000615345 0.000817405 0.0135541 0.0349859 0.00440645 -0.00737075 -0.00973845 -0.0125899 -0.0156801 0.00606653 0.0196421 0.0354121 -2.70613e-05 0.00751485 -0.0148605 -0.00137278 -0.00537665 0.000836332 -0.0210719 0.00160992 0.00654707 0.00764192 0.0160268 -0.00738609
internal_weight=62699.6 61672.3 58533.7 3412.15 3138.59 55121.6 48267.8 39822 2476.11 801.027 2611.12 8445.83 6853.73 5921.7 5158.33 2348.88 1040.26 789.705 37345.9 2444.83 3687.67 31000.2 11022.6 19977.6 681.359 19296.2 6345.73 2090.2 1341.63 748.566
internal_count=194057 191043 180457 12179 10586 168278 147140 121402 7976 3347 8832 25738 21138 18405 16161 8055 3422 2531 113426 8142 11342 93858 33634 60224 2271 57953 19568 6849 4487 2362
is_linear=0
shrinkage=0.05


Tree=18
num_leaves=31
num_cat=0
split_feature=15 13 4 0 5 10 5 3 2 10 7 16 1 3 7 16 12 4 0 13 15 16 5 4 6 16 15 4 7 4
split_gain=293.205 303.919 224.052 199.112 425.409 186.165 184.997 212.237 174.431 153.822 134.474 129.889 192.292 118.545 96.2702 95.4961 95.3564 97.1609 103.564 91.9196 101.802 139.086 149.016 111.052 99.4742 129.541 87.9986 148.109 86.9261 85.2809
threshold=99.017935871713902 30.868893638702797 -0.056499451265531679 0.076668764580934828 0.074954396444723917 -1.5707208544782101 0.0038319420452197499 0.96079109951103481 -0.029764725853153907 -0.1820785601016435 0.49773149368122266 117.37151269072945 -1.0000000180025095e-35 0.91304971617491126 3.7932307152704943 -68.443095999064667 50.596653005688928 -0.012942609017651039 0.003358055550990086 65.236811319198566 86.170144013189088 -112.46476434074695 -0.0098918745361694631 -0.020684784481876325 0.72499818750453271 -33.156886181316743 87.59121423624903 -0.0037378036198771887 0.89865045470110905 0.14096601445272186
decision_type=2 2 2 2 2 2 2 2 2 2 2 2 2 2 2 2 2 2 2 2 2 2 2 2 2 2 2 2 2 2
left_child=1 2 -1 4 5 -3 19 11 -9 -2 -5 12 16 -13 29 -11 -8 18 -18 20 21 22 -7 -22 -23 -26 27 -4 -14 -12
right_child=9 3 26 10 -6 6 7 8 -10 15 14 13 28 -15 -16 -17 17 -19 -20 -21 23 24 -24 -25 25 -27 -28 -29 -30 -31
leaf_value=0.041099967241857702 0.0046704748230456134 -0.01251015435077747 0.035183323827244629 0.046274297143605037 -0.045961586016659339 0.052510157229564348 0.019886860935817884 0.00064634237730010332 0.027442958440786154 -0.042032507507214212 0.016469045885952903 -0.052386202851838516 -0.013871747440575439 -0.0051469263930648797 -0.015916963063361985 0.0078122728816616086 0.0037797873389264626 0.0084206164138380234 -0.057144869728996642 -0.009287086347218176 -0.0012829218211501822 -0.0017454747422855493 0.0073643249628351755 -0.01558991742511083 -0.010107422905912607 0.01035765124903771 0.00093185059772778504 -0.01339567708801867 0.0016215943472263886 -0.0050560788436551461
leaf_weight=674.82902784645557 321.40647074580193 3291.9730257242918 566.45824459195137 253.47016540169716 530.78136776387691 243.90695084631443 1758.4845831692219 944.00907325744629 1702.6425125002861 765.40562197566032 2055.0114452689886 198.86399494111538 1511.6263287514448 399.8037201166153 359.75297836959362 109.88739541172981 157.05660389363766 1673.7124909907579 125.48403739929199 3709.6744965165854 3247.4174776822329 25776.899651199579 729.38476391136646 2329.1598356515169 973.77222111821175 3755.1355081498623 1450.5271076261997 217.0090699493885 2257.0914681255817 592.91467319428921
leaf_count=2196 950 10381 1851 789 2331 695 5476 2932 5620 2277 6504 719 4454 1168 1089 359 495 4984 454 11540 9767 78095 2253 7138 3102 11729 5113 677 7136 1956
internal_value=-0.000400177 7.68913e-05 0.0158518 -0.000706446 -0.00141424 -0.000982656 -0.000245714 0.00559604 0.0178851 -0.0249121 0.0112995 0.00157174 0.00336455 -0.0208388 0.00835198 -0.0357748 0.0114375 0.00384233 -0.0232785 -0.00178317 -0.00103195 7.10995e-05 0.0186779 -0.0072585 -0.000522552 0.0061435 0.00822499 0.0217276 -0.00459276 0.0116492
internal_weight=62683.6 61486.9 2908.82 58578 55316.9 54786.1 51494.1 10728.8 2646.65 1196.7 3261.15 8082.12 7483.46 598.668 3007.68 875.293 3714.74 1956.25 282.541 40765.4 37055.7 31479.1 973.292 5576.58 30505.8 4728.91 2233.99 783.467 3768.72 2647.93
internal_count=194230 190644 9837 180807 170469 168138 157757 33438 8552 3586 10338 24886 22999 1887 9549 2636 11409 5933 949 124319 112779 95874 2948 16905 92926 14831 7641 2528 11590 8460
is_linear=0
shrinkage=0.05


Tree=19
num_leaves=31
num_cat=0
split_feature=0 13 14 17 5 7 0 5 4 9 5 5 16 14 17 2 17 7 15 16 1 5 8 1 15 14 3 2 16 5
split_gain=277.416 203.137 218.715 205.058 197.599 186.169 141.168 200.939 135.514 130.748 138.509 129.409 113.363 197.455 266.152 118.61 108.899 104.692 100.664 101.989 100.473 95.8421 92.7459 142.453 99.5933 144.823 133.799 101.23 93.3866 90.8034
threshold=-0.10488881541057656 31.255260164920887 104.47128302293196 0.029280319686013936 -0.0083798882681564418 2.4684876084234486 0.094769172903187732 0.074954396444723917 0.02715190891650077 1.0000000180025095e-35 0.010430875398619312 0.0038319420452197499 -30.065021355277871 18.148342828463928 0.04099094203101545 -0.028880083004192116 0.036166365280289353 1.0676435640846862 93.548085328757026 -41.510148902716928 0.010510278993751209 0.091815556945612511 1.0000000180025095e-35 -0.039455720064675841 87.59121423624903 6.9669608649267909 0.87511584840543655 -0.046041244949337042 -130.9332234215025 0.091815556945612511
decision_type=2 2 2 2 2 2 2 2 2 2 2 2 2 2 2 2 2 2 2 2 2 2 2 2 2 2 2 2 2 2
left_child=17 4 5 8 18 6 7 11 -4 10 -5 22 -13 -14 15 20 21 -1 19 -2 -15 -12 24 -24 26 -26 -3 -28 -25 -11
right_child=1 2 3 9 -6 -7 -8 -9 -10 29 16 12 13 14 -16 -17 -18 -19 -20 -21 -22 -23 23 28 25 -27 27 -29 -30 -31
leaf_value=-0.041512554397192071 0.048817892256195011 0.0049214252355484376 -0.0013899676696003667 -0.0024967339452145491 0.0047607937642359724 -0.015052629952188071 0.015710068644835453 -0.046070668580632662 0.049697883444301885 0.015825922113158888 0.056912729698450321 -0.0051990972951564919 0.028004013321289517 -0.011951318763170907 -0.0053925364206460769 0.021037598915310478 0.010974393403620865 -0.0093537821043397692 0.0062663502787631735 -0.045490288449466364 0.022656876716763367 -0.011076507642594545 -0.018762731224771571 0.045871045450239352 -0.0014674154458061122 -0.018809945529336805 -0.0075880736924196241 -8.4964172802236355e-05 -0.0038157072670030236 -0.063209263744842245
leaf_weight=541.73938047885895 562.09929180145264 8660.5409491360188 176.13776144385338 1391.4971984177828 2492.7609037458897 2459.1523000746965 1237.6004396528006 250.2877452224493 493.4562394618988 53.737506404519081 281.91339530050755 2583.0152518004179 969.34643003344536 620.64252276718616 3597.5855836719275 2162.2981941998005 825.20903447270393 474.95760814845562 251.77268758416176 30.208384677767754 316.74381631612778 63.511799499392509 2073.1084446012974 96.91755411028862 3291.2569232583046 1898.0037243813276 6604.564803570509 14076.625625580549 3900.5975360274315 112.2600182890892
leaf_count=1640 1743 26552 557 4424 8674 7516 3618 1167 2261 177 1287 7975 3073 1836 10935 6667 2727 1378 819 89 1035 225 6341 280 9908 5794 19890 43003 11802 525
internal_value=-0.000584491 -0.000156469 -0.00084438 0.0114654 0.011841 -0.00160764 -0.000975928 -0.00138004 0.0362591 0.00538007 0.00816623 -0.00116007 0.0038601 0.0069123 0.00385954 0.0145978 0.020841 -0.0264893 0.0327504 0.0440081 -0.000257174 0.0444118 -0.00242738 -0.00812684 -0.00142541 -0.00781055 -0.000296156 -0.00248109 -0.00261108 -0.0376236
internal_weight=62549.5 61532.9 58196 3397.72 3336.84 54798.3 52339.1 51101.5 669.594 2728.13 2562.13 50851.2 10249.6 7666.62 6697.27 3099.68 1170.63 1016.7 844.08 592.308 937.386 345.425 40601.6 6070.62 34531 5189.26 29341.7 20681.2 3997.52 165.998
internal_count=193918 190900 179575 12183 11325 167392 159876 156258 2818 9365 8663 155091 31521 23546 20473 9538 4239 3018 2651 1832 2871 1512 123570 18423 105147 15702 89445 62893 12082 702
is_linear=0
shrinkage=0.05


Tree=20
num_leaves=31
num_cat=0
split_feature=15 13 14 17 4 16 4 10 15 12 4 16 1 1 17 0 5 2 14 9 5 5 7 0 4 16 0 5 7 16
split_gain=275.872 271.026 198.107 197.839 193.085 191.363 172.52 134.588 128.089 262.103 176.924 194.859 145.83 125.092 124.969 139.96 137.84 121.358 139.37 113.557 99.743 98.7082 102.15 97.7429 141.197 97.5196 89.3557 87.6323 84.8104 84.3623
threshold=99.017935871713902 30.868893638702797 104.47128302293196 0.030819822575711229 -0.066824712106756098 117.37151269072945 0.038175236839144706 -0.1820785601016435 75.609679258459181 35.313525306316528 -0.020270270270270337 -16.506711490501214 0.17231423955760414 -0.20131047466313212 0.02957329018949633 0.081926919145456398 0.074954396444723917 -0.030621481352132867 -1.8186168139762058 1.0000000180025095e-35 0.010430875398619312 0.012398524255356593 2.6051952094687256 -0.0035663380423857113 -0.02784014369106402 21.132962387489112 0.0086974261879217939 0.091815556945612511 3.3004674051067719 -88.481390405305874
decision_type=2 2 2 2 2 2 2 2 2 2 2 2 2 2 2 2 2 2 2 2 2 2 2 2 2 2 2 2 2 2
left_child=1 4 5 6 -1 8 -4 -2 9 26 -10 -12 13 -11 -7 16 -16 18 25 20 -5 -19 -23 -6 -25 -15 -3 -21 -22 -9
right_child=7 2 3 19 23 14 -8 29 10 12 11 -13 -14 17 15 -17 -18 21 -20 27 28 22 -24 24 -26 -27 -28 -29 -30 -31
leaf_value=0.044095572004682879 0.0033709149451187307 0.017809333460820555 0.0037765942369999829 -0.0029271697360502245 0.0006183381921447661 0.0073416752880433277 0.050034531649058279 -0.043006569825732213 0.0017187170562900874 -0.017561424807565226 -0.012665789127506898 0.01838527924999192 -0.032583052961160507 0.0065966117944271296 -0.012783245908002037 0.0067767799785751082 -0.044007897889948348 0.002570177005785533 -0.003580764186366569 0.017987703352360832 0.023265220480461604 0.020755443638372412 -0.01744504755581695 0.053994667124239962 0.010288763892299602 0.052963043869121852 0.052725820386028736 -0.062557075219470071 -0.016729062334756708 -0.0060503934665495718
leaf_weight=470.92162702977657 319.07782854139805 788.88957431912422 332.57708676159382 1274.89267334342 1409.613486930728 969.0821290910244 511.64920420944691 675.59783239662647 5659.3141893595457 921.03311946988106 6367.816220626235 548.79604423046112 334.04036252200603 308.27233204245567 4831.4501615464687 853.31326994299889 381.33959773182869 18369.625635847449 12800.1480987221 49.172308444976807 942.33823156356812 1336.984205648303 201.35755522549152 245.53787834942341 746.95070742070675 179.39726476371288 238.66594168543816 107.81040045619011 154.25201900303364 200.1795057952404
leaf_count=1547 948 2386 1140 4014 4944 2852 2466 2031 17181 3016 19765 1741 875 961 14732 2540 1751 55721 39052 160 3409 3915 627 787 2506 669 680 519 494 651
internal_value=-0.000635859 -0.000172325 -0.00090913 0.0108542 0.0148207 -0.0016293 0.0318115 -0.0244303 -0.00050175 0.00103515 -0.00483757 -0.0102021 0.000292944 0.000614835 -0.00933112 -0.0119947 -0.0150675 0.00111914 -0.00258126 0.00385672 0.00658296 0.00358903 0.0157553 0.00908144 0.0211014 0.0236533 0.0259192 -0.0373277 0.0176394 -0.0345594
internal_weight=62530.1 61335.2 58462.2 3372.69 2873.02 55089.5 844.226 1194.86 48054.3 35478.4 12575.9 6916.61 34450.9 34116.8 7035.19 6066.1 5212.79 33195.8 13287.8 2528.47 2371.48 19908 1538.34 2402.1 992.489 487.67 1027.56 156.983 1096.59 875.777
internal_count=194080 190450 180666 12202 9784 168464 3606 3630 146589 107902 38687 21506 104836 103961 21875 19023 16483 100945 40682 8596 7917 60263 4542 8237 3293 1630 3066 679 3903 2682
is_linear=0
shrinkage=0.05


Tree=21
num_leaves=31
num_cat=0
split_feature=5 16 14 3 16 3 1 5 15 13 17 2 6 5 17 9 6 1 15 5 15 10 13 5 1 4 16 14 15 14
split_gain=250.845 182.095 149.33 160.656 147.926 226.181 140.457 126.042 121.159 137.8 132.082 111.256 110.157 108.518 107.514 105.074 101.616 133.951 99.7341 92.0628 87.836 84.2881 81.821 98.2772 80.1174 87.07 79.0011 77.3534 94.749 77.3243
threshold=-0.061057606958991588 -202.72054809389235 107.16194558391682 0.98371124353839134 121.42325041739001 0.95880373413829745 -0.034548349063302786 -0.0054794520547944417 97.927423085199948 32.634746131138293 0.052437098916376011 -0.12851283917134526 0.5853644259404257 0.060185185185185237 0.037562340236079149 1.0000000180025095e-35 0.61904467121585316 -0.022858138076050059 87.59121423624903 0.0010628875444266275 44.927514527770775 0.20573623799156066 37.304861298488689 -0.0091367566249414538 0.14664281363273871 0.016179611206948667 -20.647769972703184 4.2730441852701775 91.508565366797484 7.7643680601281604
decision_type=2 2 2 2 2 2 2 2 2 2 2 2 2 2 2 2 2 2 2 2 2 2 2 2 2 2 2 2 2 2
left_child=-1 12 4 11 8 13 21 -7 9 10 27 -4 -2 -6 -8 -14 18 19 22 -18 -13 -5 23 -11 -24 -26 -19 -3 -29 -21
right_child=1 2 3 6 5 7 14 -9 -10 16 -12 20 15 -15 -16 -17 17 26 -20 29 -22 -23 24 -25 25 -27 -28 28 -30 -31
leaf_value=-0.030311683373110271 0.045648040477712232 0.018515948055150385 -0.058569741425225919 -0.013878631154936564 -0.014739944387031452 -0.016924735638233334 0.041097790035712449 0.0044006775280710257 -0.01427091085131215 0.03796140385099353 0.032876512426423858 -0.0050794993514735251 -0.018868940071367309 -0.043175759286734165 0.0099814651381623341 0.043483320341664598 0.0050917665012510903 -0.0058946250121607504 -0.010101974498108825 0.043519702394748623 0.05483475169681401 0.048399644556996038 -0.0011532227114484507 0.0046793706591987585 0.0018615220385099704 -0.038594884278032454 0.0039987847380282011 0.0074389547282003188 -0.017198993397595633 0.014677412834839821
leaf_weight=698.0220113992691 343.55704160034657 832.9305391907692 89.966812506318092 349.10333603620529 2463.6705456525087 885.91544811427593 753.34141612052917 3179.9999169707298 1452.3613565415144 259.19878816604614 541.29005025327206 686.96425639092922 185.31674894690514 388.40922918915749 439.59645584225655 106.33746030926704 3284.9363558739424 3705.1424640417099 3235.1791427880526 279.76781760156155 67.151557356119156 64.34247237443924 28434.14029699564 1537.5032678544521 239.34791693091393 299.30381074547768 4430.8449868112803 1331.1970602124929 552.03608173131943 1371.8857540637255
leaf_count=2039 1114 2988 360 1216 7707 2575 3378 9764 4630 767 1557 2327 543 1775 1435 332 10245 11479 9578 982 219 215 86228 5080 636 799 13510 4533 1928 4173
internal_value=-0.000506027 -0.000169326 -0.000445956 0.0116472 -0.000950748 -0.00781787 0.0209275 -0.000245881 -3.3401e-05 0.000377409 0.0103229 -0.00601426 0.0264634 -0.0186125 0.0296315 0.00386477 -0.000310759 0.00343581 -0.00175107 0.00993343 0.00025567 -0.00418658 -0.000873035 0.00948076 -0.00151511 -0.0206182 -0.000506691 0.00582835 0.000216781 0.0195629
internal_weight=62488.8 61790.7 61155.5 2450.47 58705.1 6918 1606.38 4065.92 51787.1 50334.7 3257.45 844.083 635.211 2852.08 1192.94 291.654 47077.3 13072.6 34004.7 4936.59 754.116 413.446 30769.5 1796.7 28972.8 538.652 8135.99 2716.16 1883.23 1651.65
internal_count=194112 192073 190084 9150 180934 21821 6244 12339 159113 154483 11006 2906 1989 9482 4813 875 143477 40389 103088 15400 2546 1431 93510 5847 87663 1435 24989 9449 6461 5155
is_linear=0
shrinkage=0.05


Tree=22
num_leaves=31
num_cat=0
split_feature=0 16 14 7 3 4 0 5 5 17 7 14 16 5 5 16 10 17 3 16 17 1 6 5 17 7 6 0 4 16
split_gain=252.161 171.812 137.681 150.643 136.911 141.99 124.939 174.848 112.035 119.405 111.613 102.914 111.28 101.741 94.3759 92.695 91.0794 89.8837 88.688 125.493 81.9695 79.983 75.1454 74.2812 72.027 74.6677 94.9605 87.7232 108.347 95.5559
threshold=-0.10488881541057656 -202.72054809389235 108.59740713220513 2.4059090579357041 0.98451923623143145 0.13164554437044865 0.094769172903187732 0.074954396444723917 0.0098491724800642295 0.041824567549591553 0.97875764974122237 1.6198083877879219 24.131167708354713 0.0023959747776820532 -0.051943555059898498 -23.822213597011679 -0.37499242311094089 0.036862003780718355 0.68959371316306495 -90.084543124952901 0.055975472312497665 -0.031441525834819059 0.5853644259404257 -0.0039859199102044154 0.077335390000041818 0.79353723332236037 0.35999856000576097 0.026864462431759915 -0.012942609017651039 -58.2905797516867
decision_type=2 2 2 2 2 2 2 2 2 2 2 2 2 2 2 2 2 2 2 2 2 2 2 2 2 2 2 2 2 2
left_child=14 22 3 6 -4 13 7 8 11 15 -7 12 -3 -6 -1 -10 -11 -16 19 -13 -9 -12 -2 -14 25 26 -20 29 -29 -27
right_child=1 2 4 -5 5 10 -8 20 9 16 21 18 23 -15 17 -17 -18 -19 24 -21 -22 -23 -24 -25 -26 27 -28 28 -30 -31
leaf_value=-0.040778646278339672 0.041638999334804055 0.0038670334947974541 -0.0059086970999594366 -0.011886676779881956 0.01262544601293269 0.041163296582765498 0.014219970498863791 -0.054853634901245986 -0.0050842011495310585 -0.0080545258413648024 -0.036648097756153269 0.055939141326342347 -0.0086500672803985733 0.050362332364548013 0.048197947864132604 0.023096928345081993 0.0096004813298801381 -0.017866042904895695 -0.0087371798792670787 0.0030779330674781274 0.016120790711803633 0.0077187483485837323 0.0030406608687054918 0.055057836441765422 -0.012126478457936993 -0.0050874086929672086 -0.0007291926573929126 0.042870200745398677 -0.008141912478821416 0.0027176284546937884
leaf_weight=503.88847820460796 350.06206332147121 5019.191132992506 669.62548449635506 2935.7312662005424 288.44203738868237 142.5454316586256 1449.7240917235613 213.01318742334843 368.94022119045258 1467.8266195058823 169.0361076593399 155.98255434632301 61.533767998218536 469.06009805202484 58.620616987347603 1395.5105756670237 1454.2656740099192 423.0440583974123 7222.6465629637241 400.68707393109798 50.283765271306038 254.56425952911377 197.09273539483547 178.42463655769825 1752.0707323253155 5025.4639407247305 7594.6959026157856 106.79839989542961 4105.7148878276348 17850.544523671269
leaf_count=1515 1160 15541 2324 9164 1099 463 4294 1092 1250 4621 583 442 204 2234 147 4471 4112 1334 22131 1068 189 866 628 675 4961 16191 23498 317 12810 54419
internal_value=-0.000560757 -0.00015769 -0.000408697 -0.000846732 0.012515 0.0218354 -0.000266664 -0.000652556 -0.000454955 0.00693373 0.00289273 -0.00115487 0.00545731 0.0359929 -0.0256512 0.0172044 0.000732011 -0.00982578 -0.00194136 0.01789 -0.0412991 -0.00998567 0.0277353 0.0387209 -0.00219423 -0.00177896 -0.00463265 -0.000218002 -0.00684862 0.001003
internal_weight=62335 61349.5 60802.3 58809 1993.27 1323.65 55873.3 54423.6 54160.3 4686.54 566.146 49473.8 5259.15 757.502 985.553 1764.45 2922.09 481.665 44214.6 556.67 263.297 423.6 547.155 239.958 43657.9 41905.9 14817.3 27088.5 4212.51 22876
internal_count=193803 190807 189019 181450 7569 5245 172286 167992 166711 14454 1912 152257 16420 3333 2996 5721 8733 1481 135837 1510 1281 1449 1788 879 134327 129366 45629 83737 13127 70610
is_linear=0
shrinkage=0.05


Tree=23
num_leaves=31
num_cat=0
split_feature=5 7 0 5 16 9 5 3 2 16 6 7 1 14 10 5 5 0 4 16 6 0 2 3 5 14 6 15 16 5
split_gain=236.594 150.481 160.761 297.241 149.993 123.001 109.95 168.405 162.128 135.288 105.748 109.151 104.811 123.729 97.3737 124.191 95.6747 95.6183 91.7619 88.0707 139.562 118.853 87.8044 91.1133 86.9263 86.0673 82.9577 81.9034 149.068 171.66
threshold=-0.061057606958991588 3.7932307152704943 0.072087738317543545 0.091815556945612511 -202.72054809389235 1.0000000180025095e-35 0.0038319420452197499 0.96079109951103481 -0.029764725853153907 130.21758157440809 0.5853644259404257 1.5426054311212412 0.014791238724347703 9.3509333616640848 -0.56256206944723164 0.021776024343301951 0.018797428707531098 0.088526351885409069 0.0066203959144847122 62.12262903248628 0.78124755860137995 0.026317308317373469 -0.056598069570171813 0.87166911159842708 -0.0088300220750551755 106.43624025466573 0.78124755860137995 92.506444012671864 -119.56640127607997 -0.01131365878102175
decision_type=2 2 2 2 2 2 2 2 2 2 2 2 2 2 2 2 2 2 2 2 2 2 2 2 2 2 2 2 2 2
left_child=-1 2 3 4 10 16 19 9 -9 12 -2 -12 13 -8 -15 -16 -4 -18 -11 27 21 -21 -22 -24 -25 -10 -5 28 29 -6
right_child=1 -3 5 26 6 -7 7 8 25 18 11 -13 -14 14 15 -17 17 -19 -20 20 22 -23 23 24 -26 -27 -28 -29 -30 -31
leaf_value=-0.02946220650608837 0.043748846314286757 -0.0193682662306803 0.0045450028476520582 -0.057952784516493855 0.046997736073914394 -0.061749724628070296 0.02303536731709813 -0.00052462677072694531 0.019279581408749975 -0.052925340709717356 -0.024491739497157869 0.037538395695349884 -0.0041043266393368692 -0.0089425584464621049 0.0047478124289504512 0.039327861619846576 0.053199909609029553 0.016948524833857181 -0.010401741141590334 -0.0048523290364745767 -0.011267963053665113 -0.019720415329078641 0.05516528511218774 -0.016885758702201336 0.020740483859537601 0.048982432649334592 0.013849841217206364 -0.0064970444203032388 -1.1218774094908711e-05 0.0072040691052653871
leaf_weight=685.81300440430641 332.09152705967426 980.0324070006609 1571.5115397870541 280.99498745799065 341.88510683178902 56.063812404870987 999.14263658225536 1055.4209002256393 1416.6347931325436 160.68682865798473 163.70879250764847 125.12296304106712 3387.2262593358755 1144.0450780242682 2429.4322820007801 290.71549442410469 215.01932090520859 1180.9264227151871 602.73666015267372 7778.8850226104259 356.67517524957657 1624.8986658453941 139.33101588487625 203.80120450258255 621.93008500337601 294.60086071491241 46.947835922241211 4355.8210885971785 28259.811965063214 1307.2141704112291
leaf_count=2036 1119 3016 4687 1506 1024 257 3294 3312 4353 585 490 378 10514 3726 7282 806 968 3925 1907 23333 1186 4917 556 658 2055 1404 175 13795 86936 4052
internal_value=-0.000256403 6.81054e-05 0.000381692 -0.000207024 6.42055e-05 0.0116204 -0.000203117 0.00409699 0.0148875 0.000785051 0.0245055 0.00237994 0.00264835 0.00735146 0.00329617 0.00844355 0.0130066 0.0225324 -0.0193522 -0.00132909 -0.00528313 -0.00742142 0.00993013 0.0177647 0.0114538 0.0243931 -0.0476736 -9.14035e-05 0.00084149 0.0154539
internal_weight=62409.1 61723.3 60743.3 57719.8 57391.8 3023.52 56770.9 11780.6 2766.66 9013.99 620.923 288.832 8250.56 4863.34 3864.19 2720.15 2967.46 1395.95 763.423 44990.3 10725.5 9403.78 1321.74 965.062 825.731 1711.24 327.943 34264.7 29908.9 1649.1
internal_count=194252 192216 189200 179363 177682 9837 175695 37183 9069 28114 1987 868 25622 15108 11814 8088 9580 4893 2492 138512 32705 28250 4455 3269 2713 5757 1681 105807 92012 5076
is_linear=0
shrinkage=0.05


Tree=24
num_leaves=31
num_cat=0
split_feature=15 13 10 15 5 4 5 14 10 16 14 15 13 5 16 2 1 10 16 14 16 2 0 17 1 3 16 4 17 5
split_gain=222.06 213 157.892 144.128 228.808 142.884 129.52 167.443 115.437 113.037 112.41 134.11 140.828 171.735 111.496 106.445 103.664 94.4476 86.86 80.875 79.2059 75.9828 75.1696 108.306 99.3878 95.8035 95.1519 250.383 84.95 77.4475
threshold=99.017935871713902 27.471351981901893 -1.7416876613082379 2.6086933837447526 0.091815556945612511 -0.056499451265531679 0.010782436033544231 104.47128302293196 -0.50746634110467526 194.9542959958998 -1.3426274634035804 90.804554212379117 34.160256194017052 -0.0085356371515764567 23.092431548595165 -0.038509854761875587 0.033699918445842018 -0.78629530842368023 71.030108925046108 44.481088469855685 -91.635324155157548 0.018485882604059662 -0.013953714773865375 0.076245687144329458 -0.084398704046877882 0.8574453143676789 62.12262903248628 -0.012310470508115843 0.060938830258411562 -0.01351351351351354
decision_type=2 2 2 2 2 2 2 2 2 2 2 2 2 2 2 2 2 2 2 2 2 2 2 2 2 2 2 2 2 2
left_child=1 5 -3 -4 6 19 10 17 -2 -6 14 12 13 -12 -5 -13 -17 -8 -9 -1 -10 -19 23 24 25 28 29 -28 -14 -24
right_child=8 2 3 4 9 -7 7 18 20 -11 11 15 22 -15 -16 16 -18 21 -20 -21 -22 -23 26 -25 -26 -27 27 -29 -30 -31
leaf_value=0.045762092856496614 0.015091915004864443 -0.011166039515727776 0.012024737161457646 0.0057750621143220762 0.0020227751170107592 0.0086020678345556587 -0.0059898769250163872 -0.01162776680858661 -0.037148564053105564 -0.059652627004606051 0.04051110676663186 0.0046319535616959817 0.057620046248852724 0.0043082099567729008 0.046830947718609017 -0.0072705788640507352 -0.029168875048196999 0.0024334644771953672 0.054131791827858378 -0.11940142995264552 -0.0047826803813493298 0.018445020357762947 0.012031772968776085 -0.014337016801409395 0.0017051121374290412 0.0076986997961710352 -0.043117903191787522 -0.0050826360526323271 0.0135577246177205 -0.0015881995477876284
leaf_weight=427.2681291103363 176.8618955463171 3281.6065642535686 2431.2038328796625 3196.8144545555115 107.13163685798645 1007.3353219330311 1309.8654891848564 61.596030458807945 730.81779278814793 242.34914970397949 425.51788447797298 723.39379835128784 218.89172792434692 1423.2041219472885 174.38849587738514 1155.3139944076538 1015.4541015774012 1541.6896317899227 271.80158045887947 7.5426840484142295 254.97610840201378 1426.5693713575602 1096.6970938444138 870.93453992903233 7048.8646929264069 1036.2488894611597 456.43574051558971 8315.2906802296638 218.65957380831242 21617.435051962733
leaf_count=1516 524 10659 8168 9755 397 3545 4195 198 2249 1329 1320 2125 844 4829 661 3775 3102 4650 1321 24 833 4159 3150 2496 21521 3235 1593 24827 740 66220
internal_value=-0.000457332 -4.54914e-05 -0.000504417 0.000116082 -0.000420525 0.0189421 -0.000157619 0.00785331 -0.0221038 -0.0407463 -0.000911648 -0.00156269 -0.000857156 0.012641 0.00789884 -0.0119788 -0.0175143 0.00519359 0.0419826 0.042897 -0.0287771 0.0101287 -0.00146759 0.00245777 0.00417404 0.0159824 -0.0026387 -0.0070618 0.0356006 -0.000930592
internal_weight=62272.2 61109.5 59667.4 56385.8 53954.5 1442.15 53605.1 4611.52 1162.66 349.481 48993.5 45622.3 42728.2 1848.72 3371.2 2894.16 2170.77 4278.12 333.398 434.811 985.794 2968.26 40879.5 9393.6 8522.66 1473.8 31485.9 8771.73 437.551 22714.1
internal_count=193960 190354 185269 174610 166442 5085 164716 14523 3606 1726 150193 139777 130775 6149 10416 9002 6877 13004 1519 1540 3082 8809 124626 28836 26340 4819 95790 26420 1584 69370
is_linear=0
shrinkage=0.05


Tree=25
num_leaves=31
num_cat=0
split_feature=5 16 14 17 16 3 0 3 0 2 9 2 0 5 15 16 15 14 16 4 17 15 16 3 5 15 14 5 1 4
split_gain=197.713 132.573 115.148 142.661 137.469 124.096 136.216 122.798 108.487 98.8073 92.5113 88.3237 88.9622 86.5595 78.4964 120.297 76.2529 87.6631 134.158 106.81 111.19 85.661 116.529 130.749 74.9488 74.0921 71.4758 69.8263 69.5115 95.606
threshold=-0.051943555059898498 -202.72054809389235 104.47128302293196 0.029423963272255056 117.37151269072945 0.94601108205986983 -0.017133060510359222 0.89545578942130677 0.014904228243800647 0.069769570555123603 1.0000000180025095e-35 -0.1347414768276726 0.088526351885409069 -0.012446288612263766 99.999858149094607 -112.46476434074695 96.534605675937811 2.7367190198095703 23.092431548595165 -0.019886363636363587 0.038867622719417169 87.59121423624903 -119.56640127607997 0.83582668354195944 0.0020018906807162122 82.088322172714399 3.8901299905744922 0.091815556945612511 0.17231423955760414 0.0083908441089924918
decision_type=2 2 2 2 2 2 2 2 2 2 2 2 2 2 2 2 2 2 2 2 2 2 2 2 2 2 2 2 2 2
left_child=14 25 4 8 9 6 -6 -8 -4 16 11 12 -5 -13 15 -1 17 18 19 20 -3 22 23 -19 -7 -2 -11 -12 -28 -30
right_child=1 2 3 10 5 24 7 -9 -10 26 27 13 -14 -15 -16 -17 -18 21 -20 -21 -22 -23 -24 -25 -26 -27 28 -29 29 -31
leaf_value=0.04628519991532383 0.054289301127372729 0.027679770648524806 -0.0029263139244074363 -0.054754901596590112 -0.0033155062787512605 -0.0087454627269456433 -0.063846869906214646 -0.021415472154379084 0.042524797084422229 0.021710529028174604 0.012144211725717401 -0.030453252617493733 0.011763250404047429 0.011064371703692831 -0.04497190974536025 -0.021820855408296053 -0.010884167678075823 0.041375071422248222 0.036793867920967741 -0.0068767356074762864 0.0037998503066575076 -0.010237123913821854 -0.0012955695817881178 0.0025612706751204362 0.004039614194474214 0.013191189151556549 0.0040281889867312395 -0.058967061518864154 0.026401284823347915 -0.063767895001269517
leaf_weight=73.860660180449486 146.77511882781982 645.74927264451981 182.92955128848553 114.9623189419508 952.89079101383686 2548.7631241679192 204.95940569043159 1014.542279869318 465.07102335989475 572.86783295869827 52.851585581898689 133.31584922969341 89.317061319947243 2153.0201582461596 294.715128287673 530.70649193227291 1899.5370835065842 339.40715496242046 326.58849874138832 1553.5113956928253 1988.6028296351433 2583.4356878995895 31361.974068343639 601.48274713754654 2083.2230894565582 433.73898151516914 8614.3028775751591 99.53158338367939 44.800696074962616 85.502757981419563
leaf_count=223 499 2155 606 451 3080 7337 797 3532 2272 1906 177 381 312 7416 896 1575 6028 989 1189 4729 5952 8038 96762 1929 6590 1411 25776 519 123 216
internal_value=-0.000539911 -0.000198437 -0.000425819 0.0086698 -0.00094711 -0.00761964 -0.0174795 -0.0285468 0.029694 -5.0144e-05 0.00351517 0.00582901 -0.0256712 0.00864349 -0.0238142 -0.0135003 -0.00109941 -0.00062768 0.00592851 0.00352148 0.00965345 -0.00147608 -0.000775413 0.0165626 -0.00299541 0.0235823 0.00460079 -0.0343033 0.00347992 -0.0327661
internal_weight=62192.9 61293.7 60713.1 3291 57422.1 6804.38 2172.39 1219.5 648.001 50617.8 2643 2490.62 204.279 2286.34 899.282 604.567 41300.3 39400.8 4514.45 4187.86 2634.35 34886.3 32302.9 940.89 4631.99 580.514 9317.47 152.383 8744.61 130.303
internal_count=193866 191172 189262 12134 177128 21336 7409 4329 2878 155792 9256 8560 763 7797 2694 1798 127771 121743 14025 12836 8107 107718 99680 2918 13927 1910 28021 696 26115 339
is_linear=0
shrinkage=0.05


Tree=26
num_leaves=31
num_cat=0
split_feature=15 16 10 5 9 5 17 5 14 7 6 16 16 3 15 5 14 7 2 7 7 3 17 16 15 14 16 2 14 15
split_gain=174.036 175.358 127.375 138.044 192.304 216.872 151.039 120.277 120.221 119.518 94.6439 130.246 123.904 116.768 107.174 105.742 98.0755 92.9717 86.444 83.301 83.0992 78.1038 150.866 81.9427 77.9319 91.7645 89.7467 109.163 76.8902 151.292
threshold=99.999858149094607 -178.25628635482164 -1.5707208544782101 0.0087349322473233588 1.0000000180025095e-35 0.074954396444723917 0.038435073767895712 -0.01279270670404997 101.92110858986473 1.6249476263513982 0.57894432134568075 -42.524388014049528 -122.2640823872912 0.75209176211918061 77.149250121957593 -0.012446288612263766 4.2730441852701775 1.4259185435009261 0.074923474946800864 0.36885066225320623 0.76045735958761884 0.86531542067165579 0.066462719288552588 7.7718993150098195 92.506444012671864 12.602155224449108 27.006675767023655 0.0099057835259970858 78.215000899809795 41.048307036625168
decision_type=2 2 2 2 2 2 2 2 2 2 2 2 2 2 2 2 2 2 2 2 2 2 2 2 2 2 2 2 2 2
left_child=1 7 -3 10 6 -6 8 -1 18 -2 12 15 13 -4 -15 -12 -17 21 -5 -8 28 22 23 -13 25 26 27 -22 -14 -30
right_child=9 2 3 4 5 -7 19 -9 -10 -11 11 17 20 14 -16 16 -18 -19 -20 -21 24 -23 -24 -25 -26 -27 -28 -29 29 -31
leaf_value=0.046492028425072246 -0.034367739806142286 -0.008513994161078833 0.042751552607207047 0.0080630786814450735 0.0014615765255042953 -0.04832332048522206 0.039500148504559074 0.0085231164752612582 0.04208143241466733 0.020321492510186379 0.019708322272645126 0.016350922443922288 -0.0079379277846565541 0.040475386221952792 0.00019199493339366747 0.004248843011770388 -0.011861266868219346 -0.0027512670311686353 0.038628747460900954 0.0032827710428296438 -0.0016346682984201275 0.0054098931575064148 -0.0015371900201099783 0.043393467322439011 -0.015781005240698 -0.0015333195691125707 0.044716232461752756 0.023679998389742149 -0.0042937795206454783 0.033847149492540578
leaf_weight=318.09858921170235 584.10788859426975 4431.1756441444159 247.15948076546192 1155.5579902678728 771.68872994184494 305.29119744896889 165.53206825256348 605.79465521872044 526.94002249836922 120.51253600418568 412.46973323822021 640.76803983747959 9849.0970343500376 190.38831250369549 1243.6085958480835 1380.6159221827984 2992.2252358645201 2732.9809898585081 289.21025757491589 3883.9452399164438 1324.1874466836452 7044.9058717787266 683.98852175474167 497.71522879600525 848.08853271603584 16638.76869854331 166.81210568547249 627.75479644536972 1165.8248095810413 334.6277075111866
leaf_count=1092 1833 14501 713 3696 2440 1597 543 2024 2484 333 1199 1984 30006 576 3887 4511 9581 8347 884 11655 4053 21857 2064 1922 2673 50345 598 2157 3420 1010
internal_value=-0.000306193 -2.29943e-05 -0.000352856 0.000291537 0.00680844 -0.0126509 0.010289 0.0215959 0.0216379 -0.0250141 -0.000652081 0.00244847 -0.00220877 0.011011 0.00554032 -0.00449218 -0.0067749 0.00531159 0.0141816 0.00476324 -0.00292673 0.00779661 0.0170227 0.0281732 -0.000955665 -0.000285364 0.00951495 0.00650666 -0.00633162 0.00421233
internal_weight=62179.8 61475.2 60551.3 56120.2 7098.17 1076.98 6021.19 923.893 1971.71 704.62 49022 16385.7 32636.3 1681.16 1434 4785.31 4372.84 11600.4 1444.77 4049.48 30955.2 8867.38 1822.47 1138.48 19605.6 18757.5 2118.75 1951.94 11349.5 1500.45
internal_count=193985 191819 188703 174202 23299 4037 19262 3116 7064 2166 150903 51465 99438 5176 4463 15291 14092 36174 4580 12198 94262 27827 5970 3906 59826 57153 6808 6210 34436 4430
is_linear=0
shrinkage=0.05


Tree=27
num_leaves=31
num_cat=0
split_feature=0 7 0 5 13 17 5 17 4 4 7 4 17 16 2 14 1 0 16 6 15 14 13 5 6 16 7 1 17 3
split_gain=179.681 134.873 134.204 253.045 131.658 108.807 104.758 171.317 254.576 100.681 88.5179 79.5184 87.2982 77.8281 115.432 77.5541 123.609 76.6747 106.093 90.8232 78.5923 134.658 115.803 188.289 85.5064 80.1675 76.5476 75.3882 79.4625 127.349
threshold=-0.10488881541057656 3.7932307152704943 0.076668764580934828 0.074954396444723917 27.471351981901893 0.050501685815315694 0.0039534374848045903 0.035617288282689202 0.025089151574935301 -0.056499451265531679 0.49773149368122266 0.14096601445272186 0.042857142857142906 -20.647769972703184 -0.016574226623039957 8.546689826836376 -0.0025775582932424722 0.026317308317373469 -134.20688105937822 0.82666556444591188 90.454504338861696 4.6372123764367759 35.699111238965848 -0.0088300220750551755 0.49256476990064152 -69.629500340577707 1.0523666664617415 -0.050430853626891967 0.068246759036097393 0.84899553070955602
decision_type=2 2 2 2 2 2 2 2 2 2 2 2 2 2 2 2 2 2 2 2 2 2 2 2 2 2 2 2 2 2
left_child=26 2 3 4 9 -5 17 8 13 -2 -4 12 -12 -8 -15 16 -9 20 -19 -20 22 -22 23 -6 -24 -23 -1 28 29 -26
right_child=1 -3 10 5 6 -7 7 15 -10 -11 11 -13 -14 14 -16 -17 -18 18 19 -21 21 25 24 -25 27 -27 -28 -29 -30 -31
