tree
version=v4
num_class=1
num_tree_per_iteration=1
label_index=0
max_feature_idx=17
objective=lambdarank
feature_names=Column_0 Column_1 Column_2 Column_3 Column_4 Column_5 Column_6 Column_7 Column_8 Column_9 Column_10 Column_11 Column_12 Column_13 Column_14 Column_15 Column_16 Column_17
feature_infos=[-0.15235631365407951:0.12677590201694736] [-0.49443534958312713:0.55374292341953435] [-0.95447838708432264:0.70623673283175337] [0.3747234921103082:1] [-0.22543678376855159:0.21047459958730474] [-0.11078842637409925:0.11422533085090314] [0:0.99999987341773755] [0.001649894776702452:90.280384416256794] [0:1] [0:1] [-5.6119412709906209:6.4883561795075249] [0:1] [0:99.766626137453031] [0:99.804990487494408] [-27.293928464790383:128.06479119985227] [0:99.999996200608038] [-510.940316918115:537.41211039983125] [0.0090084187768205305:0.19281618432376943]
tree_sizes=3519 3475 3480 3478 3489 3506 3505 3498 3497 3468 3496 3487 3468

Tree=0
num_leaves=31
num_cat=0
split_feature=17 0 10 4 17 16 0 2 13 13 1 16 15 12 1 12 12 12 17 0 12 12 0 12 13 4 10 17 0 16
split_gain=57.8325 36.8032 18.8976 15.8918 8.01124 7.60623 7.16981 6.22433 5.38578 5.20955 5.7975 4.94629 4.34177 5.18209 4.84033 5.89233 4.22176 3.88372 3.67037 3.64098 3.63115 6.77678 3.84182 3.50557 3.4729 3.4597 3.44492 3.28928 3.12851 2.78944
threshold=0.031348471864903728 0.079978294689434334 -0.84733554437597147 0.0079317143472833491 0.064218832428156195 -130.18989939599871 0.041870211610894652 0.070010854813464488 60.131574161521094 65.023486812121533 0.021087561620096364 -39.555542443430276 59.999973030315125 74.767965697026639 0.072570692834835526 14.11315782041323 72.034819876527777 59.713793752075269 0.090371648150008616 -0.056273737260138255 46.235212535835736 47.046374127331767 0.022752415867655865 75.2625853805243 54.276960986286234 0.014136261975206456 -0.48591455435607372 0.024903780846728563 0.095141078243732732 154.69508600921571
decision_type=2 2 2 2 2 2 2 2 2 2 2 2 2 2 2 2 2 2 2 2 2 2 2 2 2 2 2 2 2 2
left_child=3 2 19 27 6 -6 7 12 18 10 -5 -12 13 -4 20 -16 28 -13 -7 24 -14 -22 -23 -15 -2 -11 -8 -1 -3 -21
right_child=1 16 4 9 5 8 26 -9 -10 25 11 17 14 23 15 -17 -18 -19 -20 29 21 22 -24 -25 -26 -27 -28 -29 -30 -31
leaf_value=-0.028107737272039725 0.028011914635289521 -0.0034636201430179522 -0.0072373350398047074 -0.019638422497525742 -0.031504171404243553 0.014084306867168729 -0.0087463804578808389 -0.01358560238512861 0.069932685985916745 -0.012103210278935034 -0.030000493718588147 0.03401620783543758 0.0087186248324625359 0.07873919638944292 0.070376681090986881 -0.01742532500829613 0.080373896326185135 -0.0043522582822007839 0.049772351542508149 0.018912441285058559 0.074348804495254453 -0.012181911984365653 0.052084203947388531 0.01318808586759934 0.0755628379694335 0.029469457113415365 0.040618201103926478 -0.016473825666281663 0.055835316844707078 0.043126609837061763
leaf_weight=123.20002495923472 8.6655619473458483 2.8766210330686617 128.95875911281655 36.434457107072376 6.5189652197150272 42.125809131150163 4.560167463328983 78.184045878399047 6.0936327896197318 6.5342157350096413 6.5303929907895499 16.238628452254492 115.36657887296315 2.4770399329354396 2.0623584456625421 26.003682621558255 17.276598136508255 11.106170472434313 8.6908545247424609 73.401186142633378 6.3491621459834304 7.0706974790446093 3.4651238906080835 11.548376945804192 6.895243801875039 21.377308807899681 15.708147775716496 119.8694721539141 9.8077685961980006 14.193644040060461
leaf_count=52200 2005 676 36786 14273 1576 9067 1150 22711 765 2146 2680 3394 30873 229 301 7238 1931 4115 1203 18064 585 2345 535 3737 626 5569 2603 42336 1314 2306
internal_value=0.000912252 0.0102812 0.00743391 -0.0155119 0.00314048 0.0196541 0.000533289 -0.00100633 0.0255142 0.00146101 -0.00579424 0.00909588 0.00223631 -0.00409819 0.00788593 -0.0109734 0.0642917 0.0184327 0.0201878 0.0267953 0.0118882 0.0335444 0.00895456 0.0247651 0.0490825 0.0197371 0.0295117 -0.0223705 0.0423872 0.022836
internal_weight=939.591 598.3 568.339 341.291 465.183 63.4293 401.754 381.486 56.9103 98.2212 70.3096 33.8752 303.302 142.984 160.318 28.066 29.961 27.3448 50.8167 103.156 132.252 16.885 10.5358 14.0254 15.5608 27.9115 20.2683 243.069 12.6844 87.5948
internal_count=275339 148626 144705 126713 121704 12611 109093 105340 11035 32177 24462 10189 82629 40752 41877 7539 3921 7509 10270 23001 34338 3465 2880 3966 2631 7715 3753 94536 1990 20370
is_linear=0
shrinkage=0.05


Tree=1
num_leaves=31
num_cat=0
split_feature=0 17 17 9 7 17 16 13 0 13 15 9 7 3 7 17 15 13 2 15 3 5 5 16 1 11 2 2 5 17
split_gain=1283.42 128.286 41.8748 32.0757 29.8957 25.6663 22.1449 13.308 9.35166 8.12392 6.70492 6.39942 5.95907 5.82537 5.19718 5.07408 5.00806 4.80545 4.75626 4.68114 9.81328 6.52698 4.86961 4.50417 4.2344 3.99082 4.71207 7.3693 7.93229 7.43127
threshold=0.079978294689434334 0.040580573127304696 0.079484826845455436 1.0000000180025095e-35 0.8358183155979636 0.028938101046929721 154.69508600921571 70.862233408379211 -0.079944833646627564 54.276960986286234 1.6666652777789375 1.0000000180025095e-35 1.1841884766287307 0.97043690835895402 0.90141126225447532 0.090371648150008616 28.571353741694171 57.145433408963569 0.047374052755148617 7.6923002958651052 0.98906020295490837 -0.0013549523536062755 0.0060087384264333474 -28.292946536114314 0.11933222799718091 1.0000000180025095e-35 0.079821175581696352 0.1037962512602202 0.0041313503958252404 0.049658590856498049
decision_type=2 2 2 2 2 2 2 2 2 2 2 2 2 2 2 2 2 2 2 2 2 2 2 2 2 2 2 2 2 2
left_child=1 5 3 7 16 -1 12 18 -4 -5 24 15 -7 -9 -12 17 -2 -10 -3 20 21 -16 -23 -21 25 26 -6 28 -28 -29
right_child=4 2 8 9 10 6 -8 13 11 -11 14 -13 -14 -15 19 -17 -18 -19 -20 23 -22 22 -24 -25 -26 -27 27 29 -30 -31
leaf_value=-0.064061647814089545 0.083330459818473784 -0.027777612498684531 -0.019372232026480793 -0.023203745863561765 0.057224827440392104 -0.049893769921669433 0.01064781150328379 0.03062195976805402 -0.022878665667351927 0.02023859228637187 -0.033155642956721611 0.067710398137270575 -0.03376175830013832 -0.039875942093266614 -0.078929505220636159 0.030201213380363492 0.04978859826114946 0.027551003187715663 -0.042206371141938294 0.026893482496316484 0.049294819723554054 0.049586605735620466 -0.021344697487221634 0.055402535850723959 0.01617222631183559 0.075303559547421767 -0.081360358978568664 0.075712829438239967 0.029286700711586389 0.028365572320210308
leaf_weight=234.56757920084056 110.06212973303627 183.39219912048429 14.054444826615507 13.935192018630913 278.66724145272747 211.03694080398418 18.681938469118904 12.5540257220855 10.978101245476866 47.25521342799766 2.2624942536931476 7.9190515927039078 78.553946293104673 3.8225246210931791 2.5613966733799343 38.863011430716142 12.380225342116317 8.2919897141400707 82.947395077440888 17.471421324997209 19.168530265626032 4.4185078518348728 5.3488254325930029 66.922513394209091 6.6607021356467149 25.886081114644185 2.3715305777732274 14.728831376181914 5.1099786353297532 18.949289698619395
leaf_count=105504 362 39831 1148 3311 1486 65962 1913 1028 2808 2308 63 322 20856 689 45 2166 228 432 22808 815 124 30 64 734 28 105 31 52 32 123
internal_value=1.70932e-05 -0.0355013 -0.0148937 -0.0224773 0.0579308 -0.0515979 -0.0421141 -0.0295813 0.0176631 0.0103453 0.0522037 0.0255435 -0.0455178 0.0141667 0.0418963 0.0197994 0.079939 -0.0011786 -0.0322712 0.0433615 0.0269125 -0.00788727 0.0107429 0.0495005 0.0556599 0.0564207 0.0548924 0.0391008 -0.00578682 0.0490725
internal_weight=1559.82 966.854 424.013 343.907 592.97 542.84 308.273 282.716 80.1066 61.1904 470.527 66.0522 289.591 16.3766 118.154 58.1331 122.442 19.2701 266.34 115.891 31.4973 12.3287 9.76733 84.3939 352.374 345.713 319.827 41.1596 7.48151 33.6781
internal_count=275408 271086 76851 69975 4322 194235 88731 64356 6876 5619 3732 5728 86818 1717 1875 5406 590 3240 62639 1812 263 139 94 1549 1857 1829 1724 238 63 175
is_linear=0
shrinkage=0.05


Tree=2
num_leaves=31
num_cat=0
split_feature=4 17 15 10 13 17 6 6 17 6 7 6 13 17 14 16 13 17 7 13 4 3 17 7 10 17 14 10 6 13
split_gain=1089.32 220.815 59.693 45.422 34.7279 34.649 20.5099 18.4832 15.8786 12.7039 12.3497 10.108 10.9352 9.29229 7.89717 7.82943 7.22596 6.9951 6.17588 9.2947 5.78527 5.61503 5.50661 5.41691 5.38264 6.32659 5.29806 4.87525 6.85617 9.21816
threshold=0.042655550772037649 0.052717602717602736 1.0000000180025095e-35 -1.1109215176452565 55.44411975923888 0.090371648150008616 0.91803128191593097 0.48717907078711969 0.032119277447012907 0.99999830795064137 1.2606742751787232 0.058403526072074413 57.304246129398145 0.077737286641828732 95.596201328636909 190.28534454970531 58.13904110050202 0.031856182488990477 0.93294395705657884 52.030278174184836 0.056323947994476382 0.89267337160181859 0.033477131245867389 0.82713484716795216 -0.50752599870412762 0.081563234178785457 79.478732048132201 -1.9613211535741615 0.81034343044236135 71.58901329290066
decision_type=2 2 2 2 2 2 2 2 2 2 2 2 2 2 2 2 2 2 2 2 2 2 2 2 2 2 2 2 2 2
left_child=1 3 7 16 5 10 11 -2 -5 15 -3 -4 14 27 20 -10 -1 -14 19 -8 -13 -15 -18 -9 25 -20 -19 -6 29 -29
right_child=2 4 6 8 13 -7 18 23 9 -11 -12 12 17 21 -16 -17 22 26 24 -21 -22 -23 -24 -25 -26 -27 -28 28 -30 -31
leaf_value=-0.03415487306519456 0.075292712628827529 -0.040822306251895493 0.055275859379545746 -0.0644128657355552 0.036349136743546673 0.018980493660097842 -0.021350124887545952 0.071949256993747587 -0.049618789772902488 0.054704560763916527 0.0011368828916213417 -0.035603318411786773 -0.03556225092419564 0.054274618467419294 -0.052806485328369138 0.034699406497025874 -0.037758345014619943 0.043195238435989464 0.02828508514301678 0.076026849254917886 0.018118877544639516 0.011207809572398635 0.01887095069361229 0.050475453568449562 0.057636090732832962 -0.088394962053255102 0.017718844370695139 -0.024556516455609044 0.037245981724392134 0.042613798955909589
leaf_weight=13.568219488195608 155.25891331466846 69.962306902220007 17.037552229245193 282.14565440133447 16.290298429667018 57.699302186723799 2.6761327601270777 33.933677334338427 281.69167579204077 2.9960718350484958 23.402471019886434 6.8797216276871067 4.9022747055860227 32.663535390980542 8.2455295799300057 2.7803074832772827 5.138657117320693 29.694494484690949 21.287143533583734 29.070786820608191 18.453030481352471 9.8510223663179186 26.079629271989688 218.26973330846522 19.84184680483304 1.2288231388665725 65.247182814287953 22.079337380477231 11.104223970789461 6.6449719888623795
leaf_count=3897 457 19152 413 128558 589 2380 129 84 89889 137 4002 1583 1303 669 1757 183 1845 1255 536 109 1827 354 2409 1740 374 38 4689 4331 462 184
internal_value=0.000426871 -0.0360611 0.0503126 -0.0521744 0.00358696 -0.0114803 0.0296142 0.0617201 -0.0559864 -0.047716 -0.030305 0.0190096 0.0143786 0.0266635 -0.0103046 -0.0487947 -0.00369086 0.0226797 0.0511454 0.0678184 0.00352932 0.0442956 0.00954954 0.0533647 0.0386491 0.0219172 0.025687 0.0133057 0.00388073 -0.00901759
internal_weight=1496.12 864.098 632.027 614.4 249.697 151.064 224.565 407.462 569.614 287.468 93.3648 150.46 133.422 98.6334 33.5783 284.472 44.7865 99.844 74.1047 31.7469 25.3328 42.5146 31.2183 252.203 42.3578 22.516 94.9417 56.1188 39.8285 28.7243
internal_count=275335 259041 16294 226918 32123 25534 14013 2281 218767 90209 23154 12827 12414 6589 5167 90072 8151 7247 1186 238 3410 1023 4254 1824 948 574 5944 5566 4977 4515
is_linear=0
shrinkage=0.05


Tree=3
num_leaves=31
num_cat=0
split_feature=15 17 13 7 17 6 5 17 13 5 6 17 3 13 12 6 7 13 10 10 5 13 10 5 13 7 14 16 7 15
split_gain=755.003 273.383 80.0478 62.022 31.824 35.9911 16.7742 15.9869 16.3971 15.796 13.3939 13.0653 10.9067 9.89983 9.44127 8.46298 8.28 6.8176 6.68235 6.30032 6.13815 6.06825 5.9868 5.96325 5.80033 5.3842 5.22516 5.15576 5.05794 4.54839
threshold=1.6666652777789375 0.044214242509168965 55.894754996282295 1.9780256818994335 0.079484826845455436 0.92307550296076568 0.051909230852208672 0.031856182488990477 61.63932847863029 0.042781702950380425 0.84905500178301563 0.031856182488990477 0.91414793640458702 61.395960432463703 40.94912886424261 0.99999550507071222 1.39433355946735 53.410509465450502 2.1122764920084713 -1.9613211535741615 0.021036621681580495 51.025949966203882 -1.0541031638160041 -0.028146651856630841 71.58901329290066 2.5881308393882958 2.2442531093018698 154.69508600921571 0.86156868798435415 1.0000000180025095e-35
decision_type=2 2 2 2 2 2 2 2 2 2 2 2 2 2 2 2 2 2 2 2 2 2 2 2 2 2 2 2 2 2
left_child=6 3 4 7 5 9 29 -2 -9 16 12 -5 26 18 -7 22 -3 -13 19 -14 24 23 -10 -6 27 -8 -4 -15 -12 -1
right_child=1 2 10 11 21 14 25 8 15 -11 28 17 13 20 -16 -17 -18 -19 -20 -21 -22 -23 -24 -25 -26 -27 -28 -29 -30 -31
leaf_value=0.048823005122220438 -0.061465504140315243 -0.04821276112853505 0.075029043491048525 -0.044082878692841242 -0.048074747896378028 -0.041645915922029958 0.070990491945984613 -0.050176005840071716 0.0072751174010366295 0.045691449238173504 0.06311420812017865 -0.038835719142990902 0.038514497831071595 -0.0186750986895961 0.037922812107905546 0.070577402213901311 -0.013519038037313708 0.020491050765695247 0.087730172929557038 -0.036341958674120829 0.045078747880081704 0.037336746795261062 -0.033699480853030268 0.0075828509131259537 0.02646189835935174 0.048529251097815078 0.028670130496189522 0.028096609093834331 0.033709047180681927 0.01471017934724414
leaf_weight=211.3696408997057 262.53976494068047 106.97623943479266 6.6655991786974473 12.525069989787879 5.2306792723247773 4.4817292230436605 163.85085860895924 179.28379407949978 12.457121478568295 5.2710771397105409 25.114836947876029 5.4928928599110796 3.2626128047704759 21.566618053300775 22.169898538151756 2.6131964887026689 20.491924485424533 40.897469384828582 1.3670304222032417 20.30201191623928 15.176307012618052 16.173258424154483 31.348764493479393 60.201105657790322 25.967749200877734 31.870004208642058 68.969175971229561 8.1068629784276691 35.009568010864314 10.245145341905298
leaf_count=2268 124329 34456 140 5381 726 1305 408 62456 1407 272 302 1609 129 3643 989 22 4500 2894 3 4748 468 821 10226 4757 1108 169 3343 450 896 1082
internal_value=1.61203e-05 -0.0231701 0.00468983 -0.0472289 -0.0154808 -0.0284816 0.0566664 -0.0530766 -0.0433186 -0.0391279 0.0256871 0.00123177 0.0185638 0.00735332 0.0245426 -0.0168331 -0.0426354 0.0134664 -0.0197431 -0.0259778 0.0168927 0.00991225 -0.0220475 0.00313353 0.00920491 0.067333 0.0327557 -0.00589696 0.045992 0.047246
internal_weight=1437 1019.66 472.504 547.158 240.996 159.391 417.336 488.243 225.703 132.739 231.508 58.9154 171.384 95.7492 26.6516 46.4191 127.468 46.3904 24.9317 23.5646 70.8175 81.605 43.8059 65.4318 55.6412 195.721 75.6348 29.6735 60.1244 221.615
internal_count=275307 271380 63056 208324 47826 41522 3927 198440 74111 39228 15230 9884 14032 10549 2294 11655 38956 4503 4880 4877 5669 6304 11633 5483 5201 577 3483 4093 1198 3350
is_linear=0
shrinkage=0.05


Tree=4
num_leaves=31
num_cat=0
split_feature=0 17 13 17 16 7 3 13 9 17 0 5 7 17 17 13 12 12 7 16 7 3 13 0 5 2 2 15 16 13
split_gain=901.635 151.702 60.2729 42.2957 35.5475 18.5257 13.6954 14.8595 8.5751 6.63445 6.00742 5.92126 5.63552 4.68908 3.8917 4.5104 6.69525 3.85911 4.32426 3.83851 3.64438 3.64267 3.47083 3.39445 3.34804 3.15619 3.12444 3.38501 3.12373 2.81949
threshold=0.079978294689434334 0.044214242509168965 55.894754996282295 0.090371648150008616 154.69508600921571 0.98159573846112458 0.91222457682681046 65.390896901993486 1.0000000180025095e-35 0.028469750889679714 -0.095543573790718567 -0.032282652622851508 1.3714478805786858 0.031856182488990477 0.10542349577256686 60.528968988058473 61.783824891082936 19.593374614155362 1.1490419388582376 -41.224481757411446 1.3603192696773765 0.9818559145522775 56.827644373050525 0.011243298131507993 0.024083203712003346 -0.018717123952937707 -0.068291182831749606 39.999933333444467 212.44893969561113 87.569067741219897
decision_type=2 2 2 2 2 2 2 2 2 2 2 2 2 2 2 2 2 2 2 2 2 2 2 2 2 2 2 2 2 2
left_child=1 4 3 12 9 22 10 8 28 -1 26 -5 -3 -6 15 16 -12 18 -13 -14 -11 23 -2 24 -9 -25 -4 -28 -8 -7
right_child=5 2 6 11 13 29 7 21 -10 20 14 17 19 -15 -16 -17 -18 -19 -20 -21 -22 -23 -24 25 -26 -27 27 -29 -30 -31
leaf_value=-0.059569000310242405 0.040759191230866458 -0.045550802656677172 0.019905059677240124 -0.060895577807902536 -0.04163585495886752 0.043158695328645434 -0.04026305258054072 0.0091954167834496642 0.015929554015206633 -0.050309072375220448 0.02120340820095698 -0.077298145123646314 -0.0021272560465989488 0.01201746606833724 0.067898795286263788 0.039785439687718964 -0.065893331182157289 0.021893265724005968 0.024918656947485792 -0.042488188324426024 -0.03568221925624971 -0.038024212427518224 0.066122389145916546 0.041448562441862374 -0.089634918302722147 0.0056213947557536871 -0.0045421023721746003 -0.092503587040141472 0.063679227066013047 0.059801648087403986
leaf_weight=195.87634951397195 14.628937016648704 114.08076804463053 4.1785468122689053 2.5510680912993839 4.8506646066671264 308.23487114149611 27.52513556426857 20.239052740857009 10.208903086837379 227.66542582414695 27.899654711247425 2.1742212359094983 14.096737372979989 25.376237721648067 7.040958556579425 40.776063765748404 2.3959859090973614 42.054803463455755 1.9741542692645451 10.11985704343533 52.384064057987416 2.81837718252791 173.03189287148416 21.416746113332923 0.89482838934054498 8.6219645521487092 2.7139544147066754 1.8320852598408235 0.74231095414142956 27.737822069786489
leaf_count=99651 312 38544 88 423 1870 3297 7390 1356 651 89616 1631 190 3121 1914 47 1255 426 1711 218 2471 16537 547 499 895 73 515 61 78 20 157
internal_value=-0.000305568 -0.0314334 -0.00692759 -0.0267837 -0.0491709 0.0515615 0.0137864 0.000395166 -0.0233482 -0.0525102 0.0280459 0.0132603 -0.0409005 0.00340745 0.032441 0.0289283 0.0143152 0.0173548 -0.0286546 -0.0189937 -0.0475731 0.0173157 0.0641452 0.0203636 0.00501085 0.0311651 -0.0113045 -0.0399912 -0.0375335 0.0445327
internal_weight=1396.14 872.509 366.356 187.052 506.153 523.634 179.305 92.4673 38.4763 475.926 86.8372 48.7542 138.297 30.2269 78.1127 71.0717 30.2956 46.2032 4.14838 24.2166 280.049 53.991 187.661 51.1726 21.1339 30.0387 8.72459 4.54604 28.2674 335.973
internal_count=275564 271299 61711 46678 209588 4265 15033 11447 8061 205804 3586 2542 44136 3784 3359 3312 2057 2119 408 5592 106153 3386 811 2839 1429 1410 227 139 7410 3454
is_linear=0
shrinkage=0.05


Tree=5
num_leaves=31
num_cat=0
split_feature=0 10 17 6 10 17 17 16 17 17 7 2 7 16 3 5 15 0 2 1 10 17 1 17 17 10 0 2 1 17
split_gain=788.474 144.607 71.1906 19.8062 16.5946 12.1211 9.33175 7.60748 5.10369 4.58565 4.42219 4.32436 3.84985 3.74453 3.571 3.38079 2.95635 3.12675 2.8953 2.83788 2.69109 2.65581 2.58621 2.57648 2.50313 2.83489 2.5206 4.81277 3.77131 3.77344
threshold=0.079978294689434334 -0.97662380001281057 0.077737286641828732 0.48275695601049923 -2.1176518543818186 0.032255398064221598 0.073015873015873034 146.77833059007969 0.04502684772048015 0.052717602717602736 1.39433355946735 0.25326771774953044 0.98860859349084751 -17.663558420914594 0.60847161933110094 0.051909230852208672 99.999834699726819 -0.031275756697747285 0.07113416686372516 -0.097146680062848698 -1.081150422827162 0.095946552319267298 0.01931047486347354 0.053185763714071348 0.045599426299791135 -0.92944734181652044 0.097200236816105776 -0.25705018080209113 0.078498325094497778 0.081563234178785457
decision_type=2 2 2 2 2 2 2 2 2 2 2 2 2 2 2 2 2 2 2 2 2 2 2 2 2 2 2 2 2 2
left_child=1 4 5 20 14 -3 7 8 -6 15 18 13 -5 21 -1 -7 17 -8 19 -11 -2 -4 -16 -12 -14 26 27 -26 -28 -30
right_child=3 2 11 12 6 9 16 -9 -10 10 23 -13 24 -15 22 -17 -18 -19 -20 -21 -22 -23 -24 -25 25 -27 28 -29 29 -31
leaf_value=-0.091703212296652112 0.049952341572232828 -0.054655060080273279 -0.017113393306603226 0.050866997123149328 -0.04216319567081208 -0.044139937751166376 0.034114482026058247 0.0077755083895481945 -0.010743885443968848 -0.00067641733699454242 0.055776676500427572 -0.044542848388594555 0.042694036370298415 0.024904875149494812 0.024135972046640117 0.024650798177417353 -0.069054994969814709 0.0047943585782853661 -0.049448480086300671 -0.033535058162147129 0.064674896088744771 0.014834354174829657 0.048375942336982024 -0.011910892755552406 -0.048727602733219952 0.041377457411443649 0.018632324783946927 0.034309426868165842 -0.093830645922991784 0.049766010386088036
leaf_weight=0.61723539355443691 39.91066480288282 260.29662399998051 12.657747990044301 75.826528506586328 21.554040088725742 248.23061656791833 19.263825090718456 30.983732250751927 32.28479140723357 7.9251446442794977 1.5937623840291042 3.4169044031877993 141.16514241707046 31.642454285232816 53.615247891866602 1.7990117811714288 0.95031858026049931 17.222023104957771 23.547514661011519 38.458600832906086 139.62656992103439 13.383040762215385 13.845257119799497 11.926038213598074 1.8049011528491963 56.519760601804592 14.259447669028306 52.564729601144791 1.556910844636149 0.64787619118578721
leaf_count=38 188 128478 2210 586 8713 90533 931 2407 6211 1440 86 740 1308 1389 2212 299 127 1697 7848 11656 337 761 495 2390 34 876 155 673 49 48
internal_value=-0.000258094 -0.0301312 -0.0412809 0.0479381 0.00823076 -0.0465691 -0.00278604 -0.0119631 -0.0233224 -0.0402577 -0.0301089 0.0101107 0.0409182 0.0133481 0.0280155 -0.043645 0.0180072 0.0202748 -0.0351697 -0.0279208 0.0614021 -0.000694612 0.0291109 -0.00393164 0.0381087 0.0330262 0.0263625 0.0315529 0.00922259 -0.0516348
internal_weight=1369.1 845.214 654.877 523.883 190.336 593.777 122.259 84.8226 53.8388 333.481 83.4511 61.1001 344.345 57.6832 68.0777 250.03 37.4362 36.4858 69.9313 46.3837 179.537 26.0408 67.4605 13.5198 268.519 127.354 70.8339 54.3696 16.4642 2.20479
internal_count=274915 270661 247830 4254 22831 242730 20086 17331 14924 114252 23420 5100 3729 4360 2745 90832 2755 2628 20944 13096 525 2971 2707 2476 3143 1835 959 707 252 97
is_linear=0
shrinkage=0.05


Tree=6
num_leaves=31
num_cat=0
split_feature=0 10 17 6 17 13 13 17 17 2 10 17 5 16 17 10 10 0 2 0 17 7 2 14 13 15 14 5 13 13
split_gain=697.885 127.973 65.6813 15.7514 13.9141 13.1701 7.47457 7.89801 7.04763 5.80717 5.472 5.21645 4.8412 4.09574 6.96779 4.00606 3.8664 3.35643 3.3076 3.17312 3.2193 3.52685 2.96311 2.91924 2.8483 2.81023 2.50428 2.46752 2.46496 2.69537
threshold=0.079978294689434334 -1.291246933372215 0.073015873015873034 0.53661323441507636 0.031730102654641802 60.944274631520528 52.57689154575332 0.090371648150008616 0.032787855554520913 -0.311821431100407 -1.9613211535741615 0.049279072466158598 0.042781702950380425 154.69508600921571 0.073015873015873034 -0.60169120345200833 -0.84733554437597147 0.036244331398447488 0.087068774279482383 -0.027446111133087921 0.055825492038325181 1.9780256818994335 -0.061888038242395395 20.87777558454988 87.569067741219897 18.867888928511483 102.15806945709932 -0.028146651856630841 47.626253735990481 37.872007791057605
decision_type=2 2 2 2 2 2 2 2 2 2 2 2 2 2 2 2 2 2 2 2 2 2 2 2 2 2 2 2 2 2
left_child=1 8 4 16 -3 12 7 -4 -1 -10 -11 17 19 14 -12 24 18 -7 -2 20 -6 -22 -13 -17 28 -24 -8 -9 29 -5
right_child=3 2 6 15 5 11 26 27 9 10 13 22 -14 -15 -16 23 -18 -19 -20 -21 21 -23 25 -25 -26 -27 -28 -29 -30 -31
leaf_value=-0.041084575792389201 0.050130261846070889 -0.051698148166398353 -0.034800725454570511 0.036736918781031601 -0.038399397320843784 -0.03283628991232862 0.024745524174485785 -0.063360079385564996 0.045091288843490625 0.021623309021573889 -0.029762844645590349 0.023018275265442679 0.026207923766191056 0.020580214912702649 0.0151097806408489 -0.00058932041263821272 0.062212442709377175 -0.00020948993463985874 0.0065750478791841054 -0.044248128838124103 -0.019708531868278145 0.059487243081668778 -0.05248546705643925 0.047813960228138525 0.054877312031674168 0.0036891051848645245 -0.069166621487456947 0.010558238684404926 0.03462096297279918 -0.025565964392414049
leaf_weight=5.5237808053207109 48.134027671010699 251.78656389686512 17.263292563817231 3.3360952246002844 41.600624468672322 35.912258678523358 33.715186376182828 1.175100357329941 15.765156618843319 74.080354793637525 19.02177037569345 10.598308198095767 2.6572627567802547 16.991321955283638 15.867797730723394 3.1980272890068582 130.24163522897288 10.099352761666522 4.7928815074264994 227.29195271039498 14.281900465663055 1.5592794384574507 3.3241197078023088 120.00396456476301 17.009219390805811 6.7419359768391587 0.72513910767156531 28.784094993025064 190.5310386432102 3.6193129168823361
leaf_count=2322 220 127601 5201 257 14326 13271 1452 281 326 3081 4871 1263 662 809 1226 191 313 1504 40 85462 4111 122 797 1046 93 757 173 1509 1894 199
internal_value=0.000359395 -0.0279787 -0.0370389 0.0457755 -0.0427127 -0.0363229 0.00505523 -0.00786321 0.0143232 0.0164827 0.0129021 -0.0163025 -0.0409677 0.000449144 -0.00935475 0.0393719 0.0575816 -0.0256748 0.046186 -0.0415946 -0.0310951 -0.0119131 0.00456624 0.0465575 0.0352446 -0.0148615 0.0227682 0.00765891 0.0335537 0.00431702
internal_weight=1355.63 834.767 687.516 520.866 605.854 354.067 81.6628 47.2225 147.25 141.726 125.961 66.676 287.391 51.8809 34.8896 337.698 183.169 46.0116 52.9269 284.734 57.4418 15.8412 20.6644 123.202 214.496 10.0661 34.4403 29.9592 197.486 6.95541
internal_count=275380 271127 258492 4253 249876 122275 8616 6991 12635 10313 9987 17592 104683 6906 6097 3680 573 14775 260 104021 18559 4233 2817 1237 2443 1554 1625 1790 2350 456
is_linear=0
shrinkage=0.05


Tree=7
num_leaves=31
num_cat=0
split_feature=0 10 2 5 1 10 3 2 16 5 5 0 0 15 6 3 10 3 2 0 1 16 4 16 6 6 1 5 3 5
split_gain=606.896 111.494 20.7112 15.5002 11.5158 9.85549 8.76781 6.34279 6.02296 5.35941 5.4681 4.6784 4.30035 9.46494 4.09289 4.23081 4.03114 3.36622 3.13393 3.97783 3.3794 2.59862 2.52495 3.32933 4.64209 3.89187 3.25625 2.46363 2.38619 2.34984
threshold=0.079978294689434334 -0.97662380001281057 -0.13367222723559732 0.051909230852208672 -0.17028533751514643 -1.7310599233927 0.91008963114324259 -0.15460661208028539 190.28534454970531 0.024083203712003346 -0.013371005632221487 -0.017699577099400801 0.095141078243732732 17.56755767592497 0.75609571683971288 0.96005960693521619 -0.84733554437597147 0.78004182582624593 0.082589441163438596 -0.056273737260138255 -0.083595371034247454 -62.177438376255182 0.098616457075600308 72.886307452538787 0.95999712000959747 0.8823477508955806 0.015424470325631703 -0.032282652622851508 0.69382872766331427 0.002506344186175125
decision_type=2 2 2 2 2 2 2 2 2 2 2 2 2 2 2 2 2 2 2 2 2 2 2 2 2 2 2 2 2 2
left_child=1 5 6 12 11 14 -3 -7 18 10 21 27 13 22 15 -1 -5 -12 20 -20 -9 -6 23 -2 25 26 29 -4 -15 -25
right_child=3 2 4 16 9 7 -8 8 -10 -11 17 -13 -14 28 -16 -17 -18 -19 19 -21 -22 -23 -24 24 -26 -27 -28 -29 -30 -31
leaf_value=0.023884652664866151 0.040578702524192101 0.0089051076575917282 -0.084246181751550075 0.042233120416923432 -0.042462573502276092 0.021554064115918842 -0.034651403082617764 -0.0011349618086275747 0.023861500733673619 -0.0023680762726692784 -0.027089880740769092 -0.023180150481277653 0.037544135469779132 0.026862209872720401 -0.013453844810066241 -0.010162169373027226 0.057459932982653367 -0.043779234960855722 0.03627401456988863 -0.019421230452282535 -0.032942915190637384 -0.0097397715652252012 0.045609002553445216 0.0098702347213447776 0.043223567422511038 -0.080089787657584899 0.057926015755763949 0.046694922920201706 -0.044340213786376363 -0.084126702318590818
leaf_weight=83.662337987974752 9.4645486867520976 32.58684554224601 0.38291745202150185 62.358061330392957 8.8762535748537648 16.733910057751928 17.900487713923212 11.064422561845275 9.6227354365983029 8.8418202631873992 32.188192219124176 6.0737407921114919 268.02821369818412 1.4612573123304162 10.014993282791691 10.241502523131201 143.47026492515579 492.5408452154079 5.2627722547040312 8.2027182867459469 34.042784201650647 19.170670350315049 16.566943582554813 1.4906485194805994 3.8274863748811185 2.2100155926309526 1.6051428669597951 5.8049816482234746 6.0418439948698506 1.2002576680388299
leaf_count=3752 129 3805 58 325 2795 1131 5309 1678 686 2498 9443 1296 2587 103 813 1107 390 217709 493 2066 11050 4901 138 31 31 46 16 408 463 39
internal_value=-0.000118676 -0.0270585 -0.0372404 0.042197 -0.0399415 0.00660475 -0.00653803 -0.00603013 -0.0127988 -0.040988 -0.0416058 0.00799352 0.0351689 0.0206568 0.0169308 0.0201714 0.0528468 -0.0427555 -0.0188216 0.00234637 -0.0251407 -0.0200958 0.0312063 0.0191542 -0.000468687 -0.0261726 0.00156396 0.0385921 -0.0304733 -0.0320564
internal_weight=1330.94 813.215 624.367 517.725 573.879 188.848 50.4873 84.9293 68.1954 561.618 552.776 12.2616 311.896 43.8681 103.919 93.9038 205.828 524.729 58.5727 13.4655 45.1072 28.0469 36.365 19.7981 10.3336 6.50606 4.29605 6.1879 7.5031 2.69091
internal_count=275296 270998 248222 4298 239108 22776 9114 17104 15973 237346 234848 1762 3583 996 5672 4859 715 227152 15287 2559 12728 7696 430 292 163 132 86 466 566 70
is_linear=0
shrinkage=0.05


Tree=8
num_leaves=31
num_cat=0
split_feature=0 13 3 3 6 3 16 13 4 1 16 0 14 12 13 9 13 13 7 16 13 1 12 14 5 4 7 0 5 7
split_gain=533.311 59.298 27.0558 21.2673 15.0447 10.9682 15.664 10.5813 8.44511 8.01314 6.47942 5.76542 5.14354 4.51992 3.43983 4.34662 3.68774 3.25734 3.49357 3.47267 3.23553 2.99344 2.92965 2.78683 2.7411 2.65144 2.61399 2.57953 2.55847 2.37426
threshold=0.079978294689434334 58.6541905209587 0.97207696082250605 0.83074331667028911 0.043478071834469369 0.91222457682681046 163.41641802843932 49.107052792968027 -0.060174719398937808 -0.097146680062848698 190.28534454970531 -0.060256559669138711 15.060442108586612 49.289245338196061 32.67218076076896 1.0000000180025095e-35 46.671821037643049 87.569067741219897 1.0830034993955326 -47.136676818437536 70.214266976987403 -0.23894048802382364 8.8401295030497895 50.284617186598929 0.051909230852208672 0.022659338211543759 3.8495861012334016 0.036244331398447488 -0.0075679936952198759 1.4841361522140173
decision_type=2 2 2 2 2 2 2 2 2 2 2 2 2 2 2 2 2 2 2 2 2 2 2 2 2 2 2 2 2 2
left_child=1 3 5 7 26 -3 9 8 14 20 -4 13 -9 -5 15 -1 -16 18 19 23 29 -14 -17 -6 28 -11 -2 -12 -13 -7
right_child=4 2 10 11 17 6 -8 12 -10 25 27 24 21 -15 16 22 -18 -19 -20 -21 -22 -23 -24 -25 -26 -27 -28 -29 -30 -31
leaf_value=-0.04060296802033387 0.054826207587764547 0.022436451176435994 -0.038905300467069109 -0.039563326101597983 0.016542874796116401 -0.021155311429850981 0.02320233926439165 0.031350147861068996 -0.034100762560270052 -0.032426845580254549 -0.026337440387184857 -0.030751453608539092 0.023734500255876333 0.025599135363846295 0.018572740129675209 0.038540409948618209 -0.074793943208562294 0.050138479093365641 0.02979856215075596 0.044124484093022193 0.034954465055545308 -0.031986322201622321 -0.02124163306454387 -0.089889810607458889 0.022109668487011742 -0.011581698325378868 0.025828384891991601 0.029601504743895241 -0.042924425136218754 0.038884530132736392
leaf_weight=10.329238613659982 139.67771574109793 59.294832958083134 56.644296632002806 4.8874548718449642 4.4804802023572838 7.135663819266485 36.870628804783337 14.419530170853252 71.246373499219771 39.173054824466817 3.3979305016109702 49.018045511853416 3.5582162452628836 5.8422570453258231 15.604105918842835 4.0319006612990052 1.1344778506318096 29.656298803631216 244.41185033955844 80.051591729628853 8.8547328554559481 7.4715030567022023 4.1677135976497084 0.71289497520774592 1.7022129297838535 24.984593731060158 8.2295550331473333 5.2374093108810484 361.46992785669863 2.1405474946368486
leaf_count=3286 356 2575 24323 1520 225 1862 1732 843 22753 17496 722 17668 140 349 1518 542 152 158 2914 516 519 1459 1067 25 472 4849 45 381 164285 154
internal_value=-0.000303545 -0.0257686 -0.00521144 -0.0347984 0.0397911 0.00486409 -0.00388009 -0.0172746 -0.0241953 -0.0160148 -0.0327548 -0.0402663 0.0116908 -0.0040828 -0.0041845 -0.0190263 0.0122447 0.0342663 0.0328384 0.041554 0.0133357 -0.0140106 0.00815429 0.00193285 -0.0412082 -0.0243092 0.0532128 0.00759002 -0.0414708 -0.00730072
internal_weight=1305.84 798.617 243.734 554.883 507.22 178.454 119.159 131.963 106.514 82.2886 65.2796 422.92 25.4492 10.7297 35.2674 18.5289 16.7386 359.313 329.657 85.245 18.1309 11.0297 8.19961 5.19338 412.19 64.1576 147.907 8.63534 410.488 9.27621
internal_count=274906 270667 54613 216054 4239 29187 26612 31760 29318 24880 25426 184294 2442 1869 6565 4895 1670 3838 3680 766 2535 1599 1609 250 182425 22345 401 1103 181953 2016
is_linear=0
shrinkage=0.05


Tree=9
num_leaves=31
num_cat=0
split_feature=0 10 17 7 17 10 17 5 12 17 13 6 16 14 13 13 6 10 13 12 17 12 0 13 14 5 16 5 7 17
split_gain=476.326 99.1369 40.8815 18.2777 8.05455 7.48406 6.92622 6.33417 4.91305 4.73828 4.95552 4.67087 4.01672 3.69658 3.60462 3.52889 3.36927 3.20833 3.07238 2.91732 2.74756 2.81667 2.64768 2.61999 4.33822 2.19954 2.167 2.31393 2.16673 2.78412
threshold=0.079978294689434334 -0.97662380001281057 0.079484826845455436 0.98860859349084751 0.031603403102733622 -2.6602706117956836 0.041712053395823755 0.042781702950380425 63.253828407757304 0.10542349577256686 55.894754996282295 0.96927691840269559 154.69508600921571 63.81647026572621 48.565512476289364 63.439990724530496 0.79999733334222645 -0.41554834505320937 78.861509524195 57.973432279611679 0.050460437213924819 65.571835010709478 -0.095543573790718567 20.262340643895111 1.3014584886650449 -0.019172309803711037 -33.4743289147358 0.0099242449412253481 0.61389469008636632 0.04502684772048015
decision_type=2 2 2 2 2 2 2 2 2 2 2 2 2 2 2 2 2 2 2 2 2 2 2 2 2 2 2 2 2 2
left_child=1 5 4 8 -3 22 12 15 11 10 23 13 -7 -2 -4 -6 -5 18 -18 26 -17 -22 -1 24 -8 -26 27 -13 -10 -30
right_child=3 2 14 16 7 6 9 -9 28 -11 -12 19 -14 -15 -16 20 17 -19 -20 -21 21 -23 -24 -25 25 -27 -28 -29 29 -31
leaf_value=-0.023988777775641169 0.054780123115979532 -0.04496188246379141 -0.0052669782418742171 0.037756247747252614 -0.035509680409290409 -0.034093451672087924 -0.049260210167172545 0.02440096690116168 0.059196517322205766 0.037890566614569743 0.011057512771061487 -0.10886496921119071 0.0010028898607112222 -0.0086337573471050207 0.022670698148420879 -0.027475081405038678 0.019612492006690754 0.036963452993090957 0.037477040970607736 -0.051642376188132194 0.032409741545472624 -0.020689785082790759 0.032092050066339431 -0.018785391773057904 -0.069720091553617497 0.067170766948102367 0.045779579655068771 0.016925468363741883 0.059713300722001074 0.039365473937148718
leaf_weight=2.2534799959976217 13.06547866552137 232.73745558681549 20.273711061337963 118.32831917965086 276.98734503862215 17.657715012610424 1.489276723528749 4.7803090075030914 87.708802791312337 11.925436493416781 83.720033472520299 0.56876143463887263 15.144617302517871 2.7886040839366606 26.818610227433965 26.059871378849493 118.19900468032574 59.849556610337459 30.221069552004337 2.3180764326825738 4.5491892613354121 5.5373922876897268 31.8631452023983 25.748466715449467 0.32571529212873418 2.9615524257533257 2.6527386489324263 1.0234384608920661 27.814282312989235 42.494741385569796
leaf_count=91 171 124080 3184 951 107248 8074 195 754 187 404 5548 32 1567 28 1206 10421 1687 627 243 33 334 1029 787 5824 92 183 25 40 76 206
internal_value=0.000245266 -0.0240087 -0.0340703 0.0380749 -0.0378943 0.00713883 0.00257866 -0.0327202 0.0508469 0.00790011 0.00476956 0.0289416 -0.0178897 0.0436261 0.0106433 -0.0335922 0.0310187 0.0271908 0.02325 -0.00653141 -0.0188989 0.00325884 0.0283878 -0.0124762 0.0215341 0.0536071 0.0181028 -0.0280091 0.0539544 0.0474151
internal_weight=1297.87 790.833 597.744 507.033 550.652 193.089 158.973 317.914 180.435 126.17 114.245 22.4171 32.8023 15.8541 47.0923 313.134 326.598 208.27 148.42 6.56301 36.1465 10.0866 34.1166 30.525 4.77654 3.28727 4.24494 1.5922 158.018 70.309
internal_count=275327 271021 248256 4306 243866 22765 21887 119786 798 12246 11842 329 9641 199 4390 119032 3508 2557 1930 130 11784 1363 878 6294 470 275 97 72 469 282
is_linear=0
shrinkage=0.05


Tree=10
num_leaves=31
num_cat=0
split_feature=0 17 13 17 7 7 3 13 16 7 16 17 5 14 5 5 3 2 7 5 14 3 3 6 7 0 6 17 5 0
split_gain=375.851 71.6202 30.5776 20.7405 17.3521 13.2196 9.13132 7.05384 5.37107 5.17807 4.46215 3.77604 3.47974 3.41705 2.96711 2.84829 2.78217 2.62598 2.74525 2.5865 2.56316 2.44733 3.27082 3.07781 2.43695 2.42817 2.40829 2.35727 2.17557 2.17125
threshold=0.079978294689434334 0.041948847134030021 55.894754996282295 0.083916994462438513 1.9287544722457206 0.69254671512477528 0.89746774403920904 71.58901329290066 110.51268899330698 1.7483856322820275 154.69508600921571 0.028469750889679714 0.042781702950380425 67.718741987884954 -0.032282652622851508 0.051909230852208672 0.91352792625980273 0.1016664855127949 1.7790668536505223 -0.0050444754600532651 1.3014584886650449 0.87508969148189641 0.87189557172833554 0.40908904959522979 0.72069311088909571 0.043776431630643445 0.099999000009998576 0.054208906147315321 0.042781702950380425 0.095141078243732732
decision_type=2 2 2 2 2 2 2 2 2 2 2 2 2 2 2 2 2 2 2 2 2 2 2 2 2 2 2 2 2 2
left_child=1 4 3 9 11 -2 20 8 16 -3 28 -1 -13 14 -5 24 -8 18 -10 27 -4 22 23 -22 -7 -16 -21 -11 -6 -26
right_child=5 2 6 13 10 15 7 -9 17 19 -12 12 -14 -15 25 -17 -18 -19 -20 26 21 -23 -24 -25 29 -27 -28 -29 -30 -31
leaf_value=-0.044475857493518907 0.049436590656023717 -0.032392198552199929 0.053872407319647687 -0.039550040417788937 -0.022833965667650072 -0.041109857680189654 0.0037162532081810064 0.019530198773836435 -0.0031241361899699213 -0.031684282877744017 0.017256331385079177 -0.03502833312581316 0.045533574422213036 -0.04740693781588054 0.018141560987901234 0.036803833641565892 -0.027181085521430028 -0.068436862218650182 0.026553925573844513 0.057537041734100673 0.029715837509440068 0.032152331586959036 -0.063961118934710195 -0.00053388162409122991 0.016365119140706569 -0.049868870130591429 -0.03988838815244173 0.037218489135972026 0.025706191240648081 0.029179739078080132
leaf_weight=171.16602065827465 109.72925617411966 125.63961410519551 6.4333140255184835 2.5641830427921368 20.941937068739211 1.3059209436178196 9.439962742791975 33.39508391515119 18.216575674712661 1.6092395548475904 15.221084577729924 213.63938511707238 1.3488421745132644 2.506441580830141 39.658324953779811 102.60213563439902 31.929234785813605 1.1166949049802486 13.616342620953217 0.74442505510523727 17.402046950883232 26.557381153805181 1.3611111456993956 16.271474867942743 38.537232487695292 1.3573205940192554 4.2883626596885733 5.4289750758325681 2.5943704264354883 232.36628932959866
leaf_count=96551 366 46904 119 555 8515 22 1042 1621 2128 498 1175 92958 441 602 2791 511 9401 200 585 63 576 1122 104 674 959 294 1262 463 367 2414
internal_value=-0.000450213 -0.0218363 -0.00541217 -0.0196704 -0.0357336 0.0341729 0.0094998 0.00044243 -0.00813464 -0.029387 -0.0038402 -0.0389346 -0.0345229 0.00936373 0.0126288 0.0297043 -0.0201307 0.00692673 0.00957048 0.0018927 0.0238416 0.0207048 0.0120273 0.0150988 0.0270283 0.0158909 -0.0254777 0.0214643 -0.0174835 0.0273568
internal_weight=1268.99 784.448 359.536 183.797 424.912 484.541 175.739 107.714 74.3188 137.711 38.7574 386.154 214.988 46.0863 43.5798 374.812 41.3692 32.9496 31.8329 12.071 68.0253 61.592 35.0346 33.6735 272.209 41.0156 5.03279 7.03821 23.5363 270.904
internal_count=275283 271011 71004 53432 200007 4272 17572 14977 13356 49190 10057 189950 93399 4242 3640 3906 10443 2913 2713 2286 2595 2476 1354 1250 3395 3085 1325 961 8882 3373
is_linear=0
shrinkage=0.05


Tree=11
num_leaves=31
num_cat=0
split_feature=0 10 17 5 17 10 17 5 17 17 10 0 0 0 15 17 16 2 10 4 16 10 14 17 17 5 2 1 15 16
split_gain=346.86 84.1189 27.338 14.2607 7.49744 7.13753 6.58582 5.94652 3.51303 4.98583 3.51222 4.349 3.48619 3.33152 6.61614 3.42391 3.15967 3.50713 3.14549 2.95838 2.6704 3.10896 2.7184 2.67752 2.91028 3.63232 2.643 2.62156 2.53325 2.49431
threshold=0.079978294689434334 -0.97662380001281057 0.077737286641828732 0.051909230852208672 0.029871372428116504 -0.90684630782041287 0.037180554932453876 0.042781702950380425 0.037359385127725943 0.031603403102733622 -2.1176518543818186 -0.032853815916168295 -0.10567370248071391 0.095141078243732732 1.0000000180025095e-35 0.032926181625066393 146.77833059007969 -0.15460661208028539 1.0533885840337094 0.063564290113439129 110.51268899330698 0.02419183289223301 112.25829543891085 0.037009825639358042 0.026006170931009813 -0.0077120822622108167 0.25326771774953044 0.0025316469217796151 70.870823967094609 190.28534454970531
decision_type=2 2 2 2 2 2 2 2 2 2 2 2 2 2 2 2 2 2 2 2 2 2 2 2 2 2 2 2 2 2
left_child=1 6 4 13 -3 8 29 -6 9 -5 12 -12 -8 14 -2 -16 17 -13 -7 -17 -15 22 23 24 -22 -26 -4 -14 -29 -1
right_child=3 2 26 5 7 18 10 -9 -10 -11 11 16 27 20 15 19 -18 -19 -20 -21 21 -23 -24 -25 25 -27 -28 28 -30 -31
leaf_value=-0.029154012584672609 0.03233118172009402 -0.041464648706870173 0.0088043011216353516 0.025925580135213094 -0.029968194108856386 0.045611152698553654 -0.068031262128226619 0.022221933650441464 0.03427799385578395 -0.051074016734115192 0.018491472250037284 0.0091521060090842994 0.01447063166978255 0.032711752913545916 -0.092892788611107335 -0.032756177090554027 0.012489606497928497 -0.021441679612410385 0.063315881393315052 0.011176813191201711 0.04584455289907477 -0.022745391371003624 0.042008167902203353 0.025024056188599864 0.044864085253579801 -0.016805800179688388 -0.042938958592648485 0.039865558715906919 -0.032132477616041925 0.0070920396269166077
leaf_weight=15.368472274421949 20.249170782626607 193.42152198078111 44.921753398055444 6.4167056735604984 330.04181301197968 104.33419390115887 1.122506962972692 5.5496797623345619 42.356027110130526 3.1267596674151719 37.202540047990624 14.174257639679125 49.487726817140356 149.56021704652812 1.1438542306423212 5.7651302031008553 21.587160401220899 27.623452884930884 33.028747490607202 11.427074399951378 3.3888746574521091 3.6834873445332041 17.445316448807716 68.081018064171076 2.9381443932652482 12.744714224711057 2.6113777096616095 19.968143179605253 1.3013574237702403 6.8674220082466482
leaf_count=6857 173 109819 4445 54 132390 340 83 828 217 38 3156 1105 1568 1608 57 460 1093 7742 62 301 39 34 109 568 18 185 761 417 115 688
internal_value=7.90615e-05 -0.0207645 -0.0303605 0.0331775 -0.0336241 0.0438998 0.00765066 -0.0291051 0.0281032 0.000697927 0.0109525 0.00492085 0.0193932 0.0263316 0.0126291 -0.00912852 -0.00304416 -0.0110668 0.0498682 -0.00355541 0.0283821 0.022402 0.0239919 0.0203855 0.00382731 -0.0052521 0.00596163 0.0207801 0.0354604 -0.0179596
internal_weight=1256.94 771.249 576.546 485.689 529.013 189.262 194.703 335.591 51.8995 9.54347 172.467 100.587 71.8797 296.427 38.5852 18.3361 63.3849 41.7977 137.363 17.1922 257.842 108.282 104.598 87.1528 19.0717 15.6829 47.5331 70.7572 21.2695 22.2359
internal_count=275330 271067 248243 4263 243037 711 22824 133218 309 92 15279 13096 2183 3552 991 818 9940 8847 402 761 2561 953 919 810 242 203 5206 2100 532 7545
is_linear=0
shrinkage=0.05


Tree=12
num_leaves=31
num_cat=0
split_feature=0 10 17 6 17 17 10 0 16 15 13 7 3 13 16 15 6 7 16 17 17 13 12 16 13 16 0 3 1 13
split_gain=307.128 71.9894 29.3454 13.9212 6.48894 5.53105 4.45136 4.70897 4.20365 6.23943 3.79223 3.03786 3.01723 2.9066 3.26909 3.58528 2.89446 2.53995 2.41618 2.93975 2.36786 2.29437 2.23121 2.40966 2.13347 2.03259 2.01309 2.04878 2.0014 1.98078
threshold=0.079978294689434334 -1.0007105252880912 0.074480504782394763 0.27272479341097455 0.028131573371794717 0.033765540885374722 -2.6602706117956836 -0.023474306303504146 64.62274261518921 41.8749738281414 61.63932847863029 1.0033062153350016 0.90361594026009717 87.569067741219897 140.22669162808131 51.997861640655678 0.4482750891808811 0.89219391031443118 146.77833059007969 0.086662506071131129 0.057599881255903908 55.599129331439741 8.8401295030497895 -114.11080667880383 70.214266976987403 49.975544309580947 0.095141078243732732 0.78825747172745586 0.044082882917946119 52.710925861000113
decision_type=2 2 2 2 2 2 2 2 2 2 2 2 2 2 2 2 2 2 2 2 2 2 2 2 2 2 2 2 2 2
left_child=1 5 4 11 -3 -1 -7 22 9 -4 -6 -2 -12 14 15 -5 -16 20 19 24 -18 -11 -8 -24 -9 29 27 -17 -13 -21
right_child=3 2 8 13 10 6 7 18 -10 21 12 28 -14 -15 16 26 17 -19 -20 25 -22 -23 23 -25 -26 -27 -28 -29 -30 -31
leaf_value=-0.026338876969571046 0.049673806578441344 -0.040761602071566719 -0.048538459916358426 0.030308952800992585 -0.03075640932489564 0.025275897023778776 0.050862148840118221 -0.022016657094624022 0.038733398910813198 0.00045772873947674396 0.024796453962656978 0.038121642810523937 -0.019633032960870017 0.042563664154899372 -0.035124232058678227 -0.0028566759120980442 0.051287230149434176 0.014454706203716517 0.007720215099139437 -0.009662665792212484 0.0091442957579262601 0.028474585404190435 -0.027712548722037746 0.015780653804679839 0.0095908952490924796 -0.050012436400399297 0.015398721165353461 -0.09238118195954291 0.007305939069724667 0.035119489053077622
leaf_weight=11.775186736980684 96.503096021711826 160.68445484593394 5.8006622411776325 186.78368425311055 305.56533624487929 34.134858122793958 4.2191646335122632 30.791383096162463 8.2406975991325435 32.236969093966763 4.1641647269716477 39.494111891835928 46.40309441491263 24.220104524865746 2.6170905772596589 2.3581868723849797 9.8754859957844001 74.545669112820178 33.927278745977674 3.8688938819686864 5.0311645213514558 9.44942803471349 3.388353154907235 52.95562926470302 6.4586642943904726 1.1882672074716527 19.980209480389021 0.87664956907974545 6.0802008053287855 6.825558916083537
leaf_count=5362 225 94998 1179 1909 129661 790 273 7983 318 4939 345 183 17421 135 24 241 38 808 1608 459 31 253 727 3762 597 55 495 122 37 137
internal_value=-0.000278324 -0.0198619 -0.0287037 0.0315861 -0.0324208 0.00684766 0.00904603 0.00518868 0.00576839 4.7784e-05 -0.0286575 0.0446494 -0.0159743 0.0258979 0.0245616 0.0280057 0.0167059 0.0182223 -0.0025422 -0.00962862 0.0370635 0.00680856 0.0157913 0.0131651 -0.0165363 0.0120257 0.00947434 -0.0271181 0.0340104 0.0189188
internal_weight=1230.44 762.078 572.545 468.366 516.817 189.533 177.758 143.623 55.7278 47.4871 356.133 142.077 50.5673 326.288 302.068 209.999 92.0694 89.4523 83.06 49.1328 14.9067 41.6864 60.5631 56.344 37.25 11.8827 23.215 3.23484 45.5743 10.6945
internal_count=275115 270867 249114 4248 242425 21753 16391 15601 6689 6371 147427 445 17766 3803 3668 2767 901 877 10839 9231 69 5192 4762 4489 8580 651 858 363 220 596
is_linear=0
shrinkage=0.05


end of trees

feature_importances:
Column_17=64
Column_13=45
Column_0=35
Column_16=31
Column_5=30
Column_7=29
Column_10=29
Column_3=20
Column_6=20
Column_2=18
Column_12=16
Column_15=15
Column_1=13
Column_14=12
Column_4=8
Column_9=4
Column_11=1

parameters:
[boosting: gbdt]
[objective: lambdarank]
[metric: ndcg]
[tree_learner: serial]
[device_type: cpu]
[data_sample_strategy: bagging]
[data: ]
[valid: ]
[num_iterations: 300]
[learning_rate: 0.05]
[num_leaves: 31]
[num_threads: 8]
[seed: 7]
[deterministic: 0]
[force_col_wise: 0]
[force_row_wise: 0]
[histogram_pool_size: -1]
[max_depth: -1]
[min_data_in_leaf: 20]
[min_sum_hessian_in_leaf: 0.001]
[bagging_fraction: 0.8]
[pos_bagging_fraction: 1]
[neg_bagging_fraction: 1]
[bagging_freq: 1]
[bagging_seed: 17422]
[bagging_by_query: 0]
[feature_fraction: 0.8]
[feature_fraction_bynode: 1]
[feature_fraction_seed: 7040]
[extra_trees: 0]
[extra_seed: 6516]
[early_stopping_round: 0]
[early_stopping_min_delta: 0]
[first_metric_only: 0]
[max_delta_step: 0]
[lambda_l1: 0]
[lambda_l2: 0]
[linear_lambda: 0]
[min_gain_to_split: 0]
[drop_rate: 0.1]
[max_drop: 50]
[skip_drop: 0.5]
[xgboost_dart_mode: 0]
[uniform_drop: 0]
[drop_seed: 15215]
[top_rate: 0.2]
[other_rate: 0.1]
[min_data_per_group: 100]
[max_cat_threshold: 32]
[cat_l2: 10]
[cat_smooth: 10]
[max_cat_to_onehot: 4]
[top_k: 20]
[monotone_constraints: ]
[monotone_constraints_method: basic]
[monotone_penalty: 0]
[feature_contri: ]
[forcedsplits_filename: ]
[refit_decay_rate: 0.9]
[cegb_tradeoff: 1]
[cegb_penalty_split: 0]
[cegb_penalty_feature_lazy: ]
[cegb_penalty_feature_coupled: ]
[path_smooth: 0]
[interaction_constraints: ]
[verbosity: 1]
[saved_feature_importance_type: 0]
[use_quantized_grad: 0]
[num_grad_quant_bins: 4]
[quant_train_renew_leaf: 0]
[stochastic_rounding: 1]
[linear_tree: 0]
[max_bin: 255]
[max_bin_by_feature: ]
[min_data_in_bin: 3]
[bin_construct_sample_cnt: 200000]
[data_random_seed: 61]
[is_enable_sparse: 1]
[enable_bundle: 1]
[use_missing: 1]
[zero_as_missing: 0]
[feature_pre_filter: 1]
[pre_partition: 0]
[two_round: 0]
[header: 0]
[label_column: ]
[weight_column: ]
[group_column: ]
[ignore_column: ]
[categorical_feature: ]
[forcedbins_filename: ]
[precise_float_parser: 0]
[parser_config_file: ]
[objective_seed: 15521]
[num_class: 1]
[is_unbalance: 0]
[scale_pos_weight: 1]
[sigmoid: 1]
[boost_from_average: 1]
[reg_sqrt: 0]
[alpha: 0.9]
[fair_c: 1]
[poisson_max_delta_step: 0.7]
[tweedie_variance_power: 1.5]
[lambdarank_truncation_level: 30]
[lambdarank_norm: 1]
[label_gain: ]
[lambdarank_position_bias_regularization: 0]
[eval_at: 1,2,3,4,5]
[multi_error_top_k: 1]
[auc_mu_weights: ]
[num_machines: 1]
[local_listen_port: 12400]
[time_out: 120]
[machine_list_filename: ]
[machines: ]
[gpu_platform_id: -1]
[gpu_device_id: -1]
[gpu_use_dp: 0]
[num_gpu: 1]

end of parameters

pandas_categorical:null
