tree
version=v4
num_class=1
num_tree_per_iteration=1
label_index=0
max_feature_idx=17
objective=binary sigmoid:1
feature_names=Column_0 Column_1 Column_2 Column_3 Column_4 Column_5 Column_6 Column_7 Column_8 Column_9 Column_10 Column_11 Column_12 Column_13 Column_14 Column_15 Column_16 Column_17
feature_infos=[-0.28424564295319976:0.13774192516086611] [-0.51927199538490831:0.83684508370040622] [-1.0157455181179542:0.97192409250488954] [0.35432016075016742:1] [-0.21169057514412126:0.21687729311047699] [-0.18115318416523229:0.12256267409470767] [0:0.99999984984987234] [0.001649894776702452:153.95362798546211] [0:1] [0:1] [-5.4558511636227793:6.4883561795075249] [0:1] [0:99.911831744204733] [0:99.174377932639644] [-27.694374584543787:128.68571660664261] [0:99.999996994289248] [-401.57128407781232:848.66787463928495] [0.0022031539888682484:0.1977225672877847]
tree_sizes=3544 3526 3531 3522 3532 3533 3524 3551 3551 3560 3537 3566 3529 3536 3558 3566 3538 3548 3545 3543 3547 3549 3542 3550 3547 3554 3549 3541 3573 3534 3559 3560 3551 3543 3562 3563 3553 3552 3564 3557 3565 3541 3552 3560 3545 3524 3573 3544 3542 3543 3562 3552 3545 3555 3574 3527 3552 3546 3555 3546 3532 3549 3542 3557 3552 3518 3544 3543 3514 3527 3536 3544 3557 3521 3552 3548 3549 3551 3514 3539 3533 3540 3520 3535 3519 3509 3520 3533 3519 3497 3534 3521 3514 3526 3543 3531 3532 3502 3535 3540 3565 3534 3538 3521 3485 3542 3516 3503 3530 3480 3522 3526 3514 3533 3470 3538 3540 3523 3507 3512 3485 3508 3504 3491 3503 3523 3502 3524 3555 3533 3516 3507 3532 3489 3484 3542 3475 3481 3504 3543 3473 3494 3490 3521 3489 3511 3437 3483 3542 3480 3518 3492 3526 3506 3506 3523 3487 3516 3468 3480 3526 3474 3482 3522 3481 3524 3490 3481 3494 3516 3550 3511 3501 3526 3509 3515 3473 3478 3469 3470 3530 3497 3530 3523 3463 3441 3457 3464 3485 3490 3488 3443 3521 3509 3500 3469 3487 3459 3517 3453 3520 3504 3543 3478 3516 3494 3508 3499 3519 3536 3468 3442 3498 3517 3529 3519 3531 3453 3513 3505 3518 3518 3492 3489 3526 3475 3520 3520 3508 3428 3416 3432 3467 3496 3518 3481 3467 3485 3452 3474 3527 3499 3473 3514 3557 3495 3437 3503 3529 3523 3469 3481 3519 3524 3525 3509 3526 3463 3529 3451 3517 3500 3458 3499 3471 3531 3517 3487 3529 3450 3475 3523 3502 3440 3500 3504 3483 3456 3470 3520 3487 3495 3494 3543 3496 3459 3554 3515 3503 3448 3506 3462 3458 3516 3487 3506 3466 3455 3449 3562

Tree=0
num_leaves=31
num_cat=0
split_feature=5 9 14 17 4 10 14 16 1 7 7 8 2 16 16 2 4 0 4 16 5 5 1 2 0 0 0 15 13 4
split_gain=936.948 2129.53 977.291 631.605 645.648 486.6 412.445 436.077 325.417 349.351 315.691 275.505 248.669 252.795 237.032 236.279 212.075 209.043 317.467 287.506 197.587 192.695 176.234 158.02 157.115 199.136 137.075 135.769 132.42 130.103
threshold=0.088789075088624006 1.0000000180025095e-35 104.68605311284311 0.034711540641925019 0.041055718475073395 -1.5231567809427462 2.6430964166766935 18.645402641481063 0.064398680008337275 0.84642178515923794 0.72940665119640868 1.0000000180025095e-35 0.04319837706797381 15.2507147714377 -56.462886136104238 -0.091988012562086038 -0.023895857779842374 -0.10472989848838628 -0.045979404249444737 51.197307336186626 -0.022272570210640493 -0.0095455039630563659 0.031468686173434533 -0.12953405219190237 0.016241981215027054 0.094918664098229313 0.077905190731009072 97.878158262018147 60.586319445086922 0.00064903471487964836
decision_type=2 2 2 2 2 2 2 2 2 2 2 2 2 2 2 2 2 2 2 2 2 2 2 2 2 2 2 2 2 2
left_child=2 10 5 4 15 26 7 16 9 11 -2 17 13 -10 27 -4 22 -8 19 -19 -16 -14 -7 -5 -22 -26 -1 -11 -15 -13
right_child=1 -3 3 23 -6 6 8 -9 12 14 -12 29 21 28 20 -17 -18 18 -20 -21 24 -23 -24 -25 25 -27 -28 -29 -30 -31
leaf_value=-0.023944848718355661 0.063552422511720483 -0.091108914091793336 -0.089218133269912681 -0.032446994289723988 0.075622444069132488 0.018286359191077791 -0.06192302483073258 0.05118894453298091 -0.0086504752647642048 -0.011053456831555765 -0.0046873492960326875 -0.063061899180953229 0.055089323924770485 0.025251342223823272 -0.022415425022006635 0.01776915751650051 -0.0073602953483475628 -0.00080032190493253049 -0.011171986046657641 0.053297000508259668 0.0041188146780421729 0.013905089029382877 -0.0028820793964189377 0.010448880630361042 -0.0071549563455211938 0.020231443100279037 0.003593262560697242 -0.047534555676353424 -0.0072633790108722575 -0.019582207838934964
leaf_weight=3641.5887475609779 301.71157629787922 918.05623093247414 57.632723659276962 248.72000442445278 878.21889489889145 2954.5202774703503 191.50125703215599 547.71777114272118 2869.3971692621708 3571.9310614168644 386.71823531389236 358.28872340917587 361.3531588613987 1138.0634499490261 959.97436489164829 493.50217624008656 2342.7951914221048 788.13011428713799 16444.701476916671 356.78998692333698 13301.424395650625 1327.1275132745504 1473.6289353072643 1569.3742748647928 7408.8777830004692 729.0951025635004 515.90759916603565 274.64761354029179 432.0005825906992 330.99245297908783
leaf_count=10008 766 2206 136 605 3329 9028 506 1363 8385 11853 1026 937 998 3631 2628 1663 7091 2105 47738 851 38790 4270 4479 4921 21292 1970 1421 860 1116 891
internal_value=-0.00353323 -0.0412586 -0.00260891 0.0241323 0.0490014 -0.00400237 -0.00282114 0.00827661 -0.00441858 -0.00589937 0.0252194 -0.0111676 0.00638693 0.000175291 -0.00219192 0.00658139 0.00480533 -0.00996524 -0.00939957 0.016058 -0.000222849 0.022719 0.0112418 0.00458061 0.00077085 -0.00470136 -0.0205276 -0.0136582 0.016305 -0.042183
internal_weight=67174.4 1606.49 65567.9 3247.45 1429.35 62320.5 58163 7318.66 50844.3 44716.4 688.43 18470.4 6127.94 4439.46 26246 551.135 6770.94 17781.1 17589.6 1144.92 22399.4 1688.48 4428.15 1818.09 21439.4 8137.97 4157.5 3846.58 1570.06 689.281
internal_count=196863 3998 192865 10654 5128 182211 170782 21961 148821 130421 1792 53028 18400 13132 77393 1799 20598 51200 50694 2956 64680 5268 13507 5526 62052 23262 11429 12713 4747 1828
is_linear=0
shrinkage=1


Tree=1
num_leaves=31
num_cat=0
split_feature=3 5 10 14 0 3 16 15 7 17 5 17 0 4 13 17 14 15 4 9 5 0 0 7 0 10 10 0 0 0
split_gain=900.961 2072.91 531.251 440.505 438.727 385.589 617.113 572.685 390.074 347.383 268.327 231.29 224.056 266.137 214.006 208.569 181.595 163.71 226.559 159.375 158.309 150.396 149.653 143.15 140.33 137.63 185.394 161.8 135.923 135.199
threshold=0.98778452193271493 0.069804989236418882 -1.2123673087012126 104.68605311284311 0.090410490932077522 0.86265201073141207 12.336443326186105 56.020274020450991 0.77189703570162826 0.031618358135337872 0.005739197633503502 0.069158720370201085 0.0026528733361782411 -0.012800310318076045 31.249645992092223 0.038362599999356664 66.475374191061817 87.796784819713679 -0.0037492258881979819 1.0000000180025095e-35 -0.0077702399878131203 -0.10472989848838628 -0.10472989848838628 0.56934642773863264 -0.037085811062412564 -0.092141856951587012 -0.094186954500952103 0.016927364493182221 -0.10472989848838628 0.014880575715418178
decision_type=2 2 2 2 2 2 2 2 2 2 2 2 2 2 2 2 2 2 2 2 2 2 2 2 2 2 2 2 2 2
left_child=1 2 21 23 -3 6 14 12 25 29 28 24 22 -14 20 16 -12 18 -16 -11 -4 -1 -8 -2 -9 26 -7 -27 -10 -5
right_child=3 4 5 9 -6 8 7 11 10 19 15 -13 13 -15 17 -17 -18 -19 -20 -21 -22 -23 -24 -25 -26 27 -28 -29 -30 -31
leaf_value=-0.050042296390600628 0.06264817239613725 -0.078287929395245578 0.044375536388617298 0.0062506359364601473 0.043279012393898891 -0.01266788291807777 -0.036576855433892434 0.07844998369978512 -0.055546346465788154 0.026487000693295543 0.0089848509614178246 0.015387438676153876 -0.063072086478746542 0.00477228931759656 0.013376470371183048 0.0029141079969945824 0.037870567669956945 -0.0090504869294546261 -0.0055930183573247019 -0.07574439967899621 0.010068690857517212 -0.012173953996718292 0.025473681031242063 0.0053711337259718444 0.0432635740793142 -0.0069231423323072479 -0.048531181044640229 0.019967961736486718 2.999129598894061e-05 0.074770377817070327
leaf_weight=273.69931381940842 113.55896191298962 1021.9240433573723 415.25684784352779 81.621005922555923 80.029154524207115 3817.4577733278275 111.54540801048279 361.83253926038742 110.57500952482224 1446.3345277309418 1030.4132171869278 632.50458443164825 240.0227322280407 363.40502795577049 3257.4892881214619 2415.4891267418861 1152.8502999544144 3689.8150013834238 3045.6961676925421 39.15537017583847 1767.7688485383987 6238.1028188318014 754.03233394026756 2769.7385298460722 1306.5697361975908 7405.1804023683071 397.92104288935661 605.07741270959377 21720.439971938729 610.21572825312614
leaf_count=713 283 2499 1323 259 219 10443 274 1163 312 4294 3220 1927 575 1019 9107 6763 3637 10517 8773 96 6023 17202 1947 7769 3846 22022 1556 1656 65345 2310
internal_value=0.00015816 -0.00149208 -0.000266544 0.0204462 -0.0694592 0.00134337 0.00788537 0.0255626 -0.00135531 0.0374218 0.00206077 0.0411339 0.00117327 -0.0222139 0.00241218 0.0130375 0.0242377 -0.000686035 0.00421042 0.0237923 0.0165946 -0.0137656 0.0174773 0.007627 0.0508946 -0.00874029 -0.0160533 -0.00489185 -0.000251505 0.0666866
internal_weight=67275.7 62215.1 61113.1 5060.62 1101.95 54601.3 15945.9 3769.91 38655.4 2177.33 26429.8 2300.91 1469.01 603.428 12176 4598.75 2183.26 9993 6303.19 1485.49 2183.03 6511.8 865.578 2883.3 1668.4 12225.6 4215.38 8010.26 21831 691.837
internal_count=197092 182081 179363 15011 2718 161448 46494 10751 114954 6959 79277 6936 3815 1594 35743 13620 6857 28397 17880 4390 7346 17915 2221 8052 5009 35677 11999 23678 65657 2569
is_linear=0
shrinkage=0.05


Tree=2
num_leaves=31
num_cat=0
split_feature=3 5 14 10 16 12 14 1 7 6 5 1 17 12 4 2 16 3 16 14 17 1 7 15 3 3 5 7 5 6
split_gain=818.441 1872.38 466.37 394.033 370.875 358.187 326.582 322.439 316.766 300.657 276.403 268.008 228.574 212.656 240.996 202.145 214.901 200.691 197.933 187.887 162.671 158.631 160.529 154.76 152.436 152.369 180.381 150.206 147.768 145.155
threshold=0.99038557827111817 0.069804989236418882 2.6430964166766935 -1.2123673087012126 21.449400042050954 83.330457164148825 108.09020605114655 0.064398680008337275 0.79478819456814198 0.57692085799670345 0.0083757490200141466 -0.028303776162851842 0.037655424029821076 46.455697531852458 -0.045979404249444737 0.04319837706797381 15.2507147714377 0.98055049280330209 67.861818362463438 104.68605311284311 0.037522798003865009 0.016388401688159932 0.6307260984507207 85.714248028773525 0.91095384830468651 0.89552505807278471 -0.0010772960652145611 0.61423663966064324 -0.0095455039630563659 0.12499960937622366
decision_type=2 2 2 2 2 2 2 2 2 2 2 2 2 2 2 2 2 2 2 2 2 2 2 2 2 2 2 2 2 2
left_child=1 2 4 17 21 29 27 8 9 18 23 -8 -12 -11 -15 16 -9 -4 -5 -19 -13 22 -1 -10 -18 26 -20 -2 -17 -3
right_child=6 5 3 7 -6 -7 11 15 10 13 12 20 -14 14 -16 28 24 19 25 -21 -22 -23 -24 -25 -26 -27 -28 -29 -30 -31
leaf_value=-0.00029336648703943004 0.055216486452448449 0.053115117377364754 -0.016178424257718992 -0.008398876751276832 0.051543440655007981 -0.082692629221346819 0.0080824993858677127 -0.0031914958562705418 0.00094708478252004372 -0.0091572135339423443 0.030606139817575151 0.06949554343912169 0.0040115111562897491 0.062442003270550411 0.0085190081460202582 0.053207290928374618 0.035640063821677559 -0.0024606012174587639 -0.013712414646453151 0.065855708121239406 0.02839615158582208 -0.00010688021317861732 0.021731252653433106 -0.012010548601219913 0.0031071016645834622 -0.016389212391613311 -0.064738632523386519 0.00823506821715673 0.017407393620946184 -0.035615334982955521
leaf_weight=1186.9621320366859 181.62591092288494 57.737376913428307 5808.3896192163229 8621.0328634828329 535.83815887570381 818.94449402391911 453.75484064221382 2856.007706746459 20857.659049004316 1769.2947051674128 1366.6184197664261 646.93864271044731 1976.3516412228346 229.77380375564098 2109.6362513154745 366.69908533990383 771.75051701068878 352.72536712884903 292.35560816526413 140.82587260007858 383.46150717139244 3080.3495036512613 2730.5770091563463 2590.5504333674908 674.98204363882542 1670.0751855522394 424.94793905317783 2687.2389154881239 1347.1852846443653 228.52579875290394
leaf_count=3339 454 154 15845 25634 1329 1968 1277 8336 61476 5276 4309 2424 5557 547 5809 1017 2381 1057 706 527 1124 9447 8458 8464 2076 4431 1006 7605 4339 617
internal_value=9.31561e-05 -0.00135864 -0.000204324 -0.00182381 0.0114525 -0.0658636 0.0210599 -0.000278252 -0.00183221 -0.00761917 0.00143313 0.0401007 0.0148835 0.00392283 0.0138153 0.0105457 0.00476151 -0.0135775 -0.011927 0.0170322 0.0542005 0.00838273 0.0150581 -0.00048447 0.0204616 -0.0246675 -0.0439416 0.0112094 0.0250671 -0.017719
internal_weight=67218.8 62865.8 61760.6 54226.9 7533.73 1105.21 4353.02 47924.9 41908.3 15117.1 26791.2 1484.15 3342.97 4108.7 2339.41 6016.62 4302.74 6301.94 11008.4 493.551 1030.4 6997.89 3917.54 23448.2 1446.73 2387.38 717.304 2868.86 1713.88 286.263
internal_count=196989 184105 181366 158793 22573 2739 12884 141364 123215 43409 79806 4825 9866 11632 6356 18149 12793 17429 31777 1584 3548 21244 11797 69940 4457 6143 1712 8059 5356 771
is_linear=0
shrinkage=0.05


Tree=3
num_leaves=31
num_cat=0
split_feature=3 5 10 14 3 16 1 7 17 12 14 5 17 17 16 2 13 8 15 4 13 1 16 3 1 15 4 17 6 4
split_gain=734.598 1719.92 422.448 371.916 365.612 566.827 401.004 351.384 324.844 298.204 245.144 216.319 176.067 173.868 166.081 169.492 158.702 149.052 145.98 193.5 135.147 154.127 131.65 231.231 129.07 126.242 150.841 133.518 124.423 177.266
threshold=0.98778452193271493 0.069804989236418882 -1.1944676055385692 104.68605311284311 0.85461768488492296 12.336443326186105 -0.15910841571501902 0.79478819456814198 0.031618358135337872 82.065630203769572 0.81047835288355696 0.0062511493196028009 0.037794343563764883 0.077957602229271339 -17.99840753094524 -0.0054917174322629816 31.249645992092223 1.0000000180025095e-35 89.13039925962363 -0.0067749038245281659 36.137319395656569 0.064398680008337275 129.18497053271088 0.92984241458518735 0.0016915368350806997 49.300447452370953 -0.011307114752420798 0.029992027905191471 0.33332777787036888 -0.011891537792345806
decision_type=2 2 2 2 2 2 2 2 2 2 2 2 2 2 2 2 2 2 2 2 2 2 2 2 2 2 2 2 2 2
left_child=1 2 25 -2 5 16 -7 22 -5 -3 -8 -9 14 17 -13 24 -4 28 19 20 21 -18 -6 -24 -16 27 -27 -1 29 -12
right_child=3 9 4 8 7 6 10 11 -10 -11 13 12 -14 -15 15 -17 18 -19 -20 -21 -22 -23 23 -25 -26 26 -28 -29 -30 -31
leaf_value=0.017694988613923192 0.0065591968227831522 -0.017613176005976065 0.015383985577561769 0.062189121385786521 -0.0066897743356626365 -0.0098739069289936754 0.064527336708266145 0.00018295931711136821 0.020810865976108563 -0.078561484781054278 -0.026852993327101546 -0.0046759271341111812 0.0033048307206249954 -0.0062219381003105105 -0.0098616915749270492 0.046033496238682463 0.014193414212712741 -0.020871388952627756 -0.0090872460102659185 -0.0042835448226527439 0.008767110212864174 0.070231010761558146 -0.070673126811276007 -0.0012494519623220161 0.035034142414931337 -0.012839004660782742 0.017452907613009421 -0.018144650371621086 0.047486470196548759 0.037959270968826689
leaf_weight=275.03611792623997 2882.9841518849134 265.38695754110813 2013.3533948212862 693.0752065628767 13703.025088697672 602.37068851292133 565.48733125627041 21849.679899051785 1502.7643640935421 823.26153418421745 156.71905606985092 402.70441760122776 2320.3632080703974 325.22845757007599 328.16941657662392 857.25666551291943 297.58114752173424 116.02791592478752 3022.8560936152935 3045.6538842320442 2299.9760847091675 208.80136168003082 222.55129420757294 260.14340403676033 312.55298285186291 999.2864688783884 698.04020954668522 4712.0647120028734 1056.6423560082912 322.80090452730656
leaf_count=857 8051 720 6741 2597 40218 1477 1696 65805 4449 1993 450 1385 6545 950 919 2690 991 337 8571 8709 6222 580 531 699 978 2831 1912 12830 3160 1039
internal_value=8.51748e-05 -0.00141093 -0.000298746 0.0183676 0.0011616 0.00811113 0.0268077 -0.00126102 0.0338711 -0.0637037 0.0354969 0.0021848 0.012547 0.027195 0.02383 0.0314933 0.00271026 0.033773 -0.0001649 0.00444394 0.0139156 0.0372999 -0.0075938 -0.0332579 0.0120391 -0.0121595 -0.000381195 -0.0161681 0.0379004 0.016777
internal_weight=67141.8 62063 60974.4 5078.82 54289.9 14033.5 3145.28 40256.4 2195.84 1088.65 2542.91 26070.7 4221.05 1977.42 1900.68 1497.98 10888.2 1652.19 8874.87 5852.01 2806.36 506.383 14185.7 482.695 640.722 6684.43 1697.33 4987.1 1536.16 479.52
internal_count=196933 181836 179123 15097 160693 40923 9109 119770 7046 2713 7632 78322 12517 5936 5972 4587 31814 4986 25073 16502 7793 1571 41448 1230 1897 18430 4743 13687 4649 1489
is_linear=0
shrinkage=0.05


Tree=4
num_leaves=31
num_cat=0
split_feature=3 5 13 0 17 15 5 14 16 14 17 1 3 16 7 14 16 5 13 13 14 5 2 8 3 0 3 17 3 12
split_gain=678.776 1535.18 382.272 372.731 284.044 317.23 284.931 274.599 279.99 273.067 256.686 248.089 221.729 214.566 229.222 210.701 190.864 297.51 262.225 183.866 175 171.571 157.01 155.187 218.248 147.703 145.192 158.369 138.34 227.732
threshold=0.98951275086212009 0.069804989236418882 61.605648718415246 0.090410490932077522 0.032912314053324662 49.717496568682833 0.0052546881727666426 -1.6550669593207077 21.449400042050954 107.39458334054008 0.031618358135337872 0.068424100852367456 0.91390102552785324 -40.697477451220571 0.90623770892435707 70.09287369444958 15.777363706440562 -0.0086306542856648943 40.756492328320228 30.836370394993363 100.37325957178885 -0.037023329769443718 -0.038286079331537791 1.0000000180025095e-35 0.90514963304139484 0.094918664098229313 0.90140991235916978 0.063983042486685418 0.89009448910054345 29.093288847849141
decision_type=2 2 2 2 2 2 2 2 2 2 2 2 2 2 2 2 2 2 2 2 2 2 2 2 2 2 2 2 2 2
left_child=1 2 7 -3 6 12 -4 8 -1 -2 -11 13 22 19 23 -7 17 18 -13 -9 -8 -16 -6 24 -15 -14 27 -18 -23 -30
right_child=9 3 4 -5 5 15 20 11 -10 10 -12 16 25 14 21 -17 26 -19 -20 -21 -22 28 -24 -25 -26 -27 -28 -29 29 -31
leaf_value=0.0097156612158152082 0.0094313104172737399 -0.06857080179497857 -0.0032485116788729521 0.041151442666064221 -0.014258134680492611 -0.0067369129569843289 0.016137686580032725 0.0093424713955516728 0.056898750194504126 0.064661397832834561 0.021734951766925702 0.054226767220725516 -0.010279346219702135 0.0046462343944480644 -0.032500957971666009 0.067907889633384108 0.054398228296514806 -0.0020416183031001303 0.0026651537174498751 -0.0096754735176410797 0.071839276817800488 0.015918020400390524 -0.039424518087712003 -0.033283518576481874 -0.0079167980174628064 0.028265198012469503 0.0045345923897961247 0.012829453450900506 -0.055647316479726344 0.0048552394154241958
leaf_weight=4343.6571846455336 2937.9184110313654 1008.7180679291487 1378.3831989765167 83.833697095513344 1307.3619025349617 176.30471980571747 354.21677395701408 1472.8108776956797 338.95563687384129 502.56624658405781 1134.1634504050016 504.52490803599358 7235.9611929506063 6304.3359795063734 284.05362039804459 203.84211440384388 554.93306836485863 3516.1997639089823 482.30122935771942 9270.9909090399742 234.26396402716637 3147.5838928669691 1178.3766857236624 414.6143776923418 7654.2889579087496 257.38529570400715 529.67987650632858 390.2626473903656 158.02613589167595 9850.3366694450378
leaf_count=13064 8265 2520 3809 230 3196 507 1015 5218 840 1932 3395 1374 19078 17043 809 488 1851 10483 1332 29517 888 8829 3090 1193 22872 659 1724 1234 613 30040
internal_value=-4.37181e-05 -0.00140166 -0.000358699 -0.0601516 -0.008233 -0.0115403 0.00918615 0.00161335 0.0131311 0.0185492 0.0349157 0.000402323 -0.013248 -0.0010671 0.00125111 0.0332891 0.00987998 0.00476689 0.0290266 -0.0070684 0.0383115 0.00594519 -0.0261884 -0.00313818 -0.00224277 -0.0089554 0.025491 0.0372349 0.00677529 0.00389994
internal_weight=67210.9 62636.2 61543.7 1092.55 12326.1 10359.2 1966.86 49217.6 4682.61 4574.65 1636.73 44534.9 9979.09 38557 27813.2 380.147 5977.9 4503.03 986.826 10743.8 588.481 13440 2485.74 14373.2 13958.6 7493.35 1474.88 945.196 13155.9 10008.4
internal_count=197108 183516 180766 2750 32730 27018 5712 148036 13904 13592 5327 134132 26023 116134 81399 995 17998 13189 2706 34735 1903 40291 6286 41108 39915 19737 4809 3085 39482 30653
is_linear=0
shrinkage=0.05


Tree=5
num_leaves=31
num_cat=0
split_feature=3 5 10 0 6 16 3 5 17 1 16 3 0 9 0 16 15 7 2 2 1 5 3 5 3 12 13 1 15 4
split_gain=626.855 1407.44 367.647 345.358 343.704 412.529 393.259 307.345 305.966 283.291 232.795 325.98 210.942 202.368 198.73 220.85 164.393 176.298 157.544 317.938 235.78 187.364 185.308 172.455 161.558 157.248 126.889 126.348 126.083 157.355
threshold=0.9886434690686966 0.069804989236418882 -1.4687193889002095 0.090410490932077522 0.6145247963548609 -50.814378209685074 0.8644933750963284 0.0086349007518511395 0.070536825704506742 -0.031999608944884357 120.97117934261566 0.9244197087061361 -0.10472989848838628 1.0000000180025095e-35 -0.0022551556534495787 9.4429664866053731 1.0000000180025095e-35 0.61423663966064324 -0.0054917174322629816 -0.0057971176843258808 0.084639002227766075 0.0071694472616132829 0.91027913837685348 -0.008494859271409359 0.91181251794733587 81.495702817775211 44.067783033864423 -0.15910841571501902 98.837161416104905 -0.025784478001737551
decision_type=2 2 2 2 2 2 2 2 2 2 2 2 2 2 2 2 2 2 2 2 2 2 2 2 2 2 2 2 2 2
left_child=1 2 -1 -3 9 28 8 -2 14 10 -4 -12 -8 16 15 -7 17 -9 19 -11 21 -20 -21 -22 -24 -18 -10 -16 29 -6
right_child=7 3 4 -5 5 6 12 13 26 18 11 -13 -14 -15 27 -17 25 -19 20 22 23 -23 24 -25 -26 -27 -28 -29 -30 -31
leaf_value=-0.014379438108519197 0.0065505951610462651 -0.065979733245323122 -0.0054883645955647086 0.044861332812140088 0.0085417243337377307 0.023997612569291095 -0.055729846654447371 0.059847553908911083 0.048004462090219101 -0.00096925784555456067 -0.059327765833301051 -0.0096725003536146884 0.0073019255821773783 -0.070085067630070733 -0.068269260901331896 0.062731966912797699 0.011833071465089535 0.015599137403857384 0.00059436758854856909 0.063831372069612508 0.054349922826583824 0.020314269698741099 -0.054726972325846439 0.013902032851705135 0.04726143261328819 0.069293122528924431 -0.0067328094732074144 0.020258389502484556 -0.026292667334625576 -0.011992234238955995
leaf_weight=4246.1645241975784 2720.7747895121574 991.01513928174973 10554.124868243933 75.640097334980965 1699.9272445291281 623.44735242426395 134.64999009668827 283.67046384513378 124.10757237672806 14177.203695178032 503.97844119369984 960.33257243037224 9332.3343456536531 47.32124400138855 42.848454937338829 898.13108429312706 157.37137071788311 1090.408094778657 10510.840609490871 40.815073221921921 366.02557888627052 1360.4304844141006 493.05248813331127 941.04525090754032 42.149404093623161 489.19088764488697 720.73664613068104 678.75224190950394 668.33232940733433 2067.9553012102842
leaf_count=11739 7985 2501 29477 211 5436 1716 376 715 430 39793 1212 2555 27357 119 103 2545 489 3092 33839 150 1008 4375 1934 3025 146 1872 1847 1981 2127 6664
internal_value=0.00016171 -0.00117921 -0.000186595 -0.0581196 0.00087178 0.00682834 0.0114594 0.0175939 0.0269535 -0.00166162 -0.00808039 -0.0267626 0.00640542 0.0321232 0.0366123 0.0468611 0.0345169 0.024734 0.00110026 -0.00244877 0.00507343 0.00285424 -0.0388633 0.0252289 -0.046695 0.0553075 0.00130809 0.0150016 -0.00627818 -0.00272808
internal_weight=67042.8 62254 61187.4 1066.66 56941.2 16991.2 12555 4788.74 3088.02 39950 12018.4 1464.31 9466.98 2067.96 2243.18 1521.58 2020.64 1374.08 27931.6 14753.2 13178.3 11871.3 576.017 1307.07 535.202 646.562 844.844 721.601 4436.21 3767.88
internal_count=196819 182547 179835 2712 168096 50582 36355 14272 8622 117514 33244 3767 27733 6287 6345 4261 6168 3807 84270 42023 42247 38214 2230 4033 2080 2361 2277 2084 14227 12100
is_linear=0
shrinkage=0.05


Tree=6
num_leaves=31
num_cat=0
split_feature=3 5 13 0 6 16 14 3 17 4 0 7 17 7 16 0 0 5 3 1 0 0 3 17 14 15 13 1 14 16
split_gain=544.753 1295.57 384.763 313.482 312.54 396.948 297.026 283.608 410.506 279.291 216.964 213.35 203.465 203.103 274.093 295.59 178.478 176.019 175.421 173.25 172.315 165.571 160.543 156.842 156.214 218.26 149.721 146.892 135.491 134.855
threshold=0.98778452193271493 0.088789075088624006 64.726542684839885 0.090410490932077522 0.6145247963548609 -32.798854963051078 107.39458334054008 0.87351854173305898 0.070536825704506742 0.13813856760856039 0.018059505104457845 0.99929957559948213 0.033691140573332855 0.73590397182684486 59.835804046024968 0.0016684050476879822 -0.038974452378134065 0.0049648911520068237 0.89777050296990135 0.064398680008337275 -0.093933785229967343 -0.10472989848838628 0.96419038776183841 0.03850315622514381 4.5264046627050236 98.204333218219702 38.705708684322268 -0.15910841571501902 36.946915482496443 9.4429664866053731
decision_type=2 2 2 2 2 2 2 2 2 2 2 2 2 2 2 2 2 2 2 2 2 2 2 2 2 2 2 2 2 2
left_child=1 2 4 -3 13 24 -2 8 10 23 29 -11 17 14 19 28 -15 -4 -17 -1 -14 -9 -19 -8 25 -6 -21 -12 -16 -7
right_child=6 3 12 -5 5 7 9 21 -10 11 27 -13 20 16 15 18 -18 22 -20 26 -22 -23 -24 -25 -26 -27 -28 -29 -30 -31
leaf_value=-0.0061334862930233006 0.0072845967261245164 -0.068038925064732678 -0.0057797947806160835 0.04607543332408686 0.019411904786570119 0.02366709973471566 0.060248311687859685 -0.057044785166742475 -0.0033575126309395237 0.053746246050305771 -0.072332901210034481 -0.0092852735859056592 -0.061429003147337728 -0.019094233882264347 0.032256380195963032 -0.06909836496765559 0.0022085331215774364 -0.019281085377121632 -0.021234561750875687 0.02921296893319604 -0.012601706145504182 0.0081625297748510375 0.051376013598456075 0.013706527141988601 -0.0098574093488669398 -0.014003968268553504 -0.0011121963743709609 0.017010985449767788 -0.015057702755399749 0.053523385700900809
leaf_weight=8590.6619002223015 3335.5106405466795 856.47989074885845 793.04154923558235 64.731224238872528 1343.4082748889923 541.25365963578224 784.21468979120255 98.69797495007515 919.16097548604012 185.069022372365 50.505523011088371 488.91040733456612 185.8239833265543 1025.8228211253881 177.30318211019039 427.91573432087898 23675.874287307262 106.82177066802979 346.38250294327736 694.12963719666004 6541.8914476931095 7123.6861236989498 324.94000156223774 235.33685104548931 3618.0695623159409 768.03267703950405 984.03571808338165 516.30883397161961 1032.1207095980644 1255.5696856826544
leaf_count=25267 9436 2169 2218 176 4163 1433 3010 291 2506 482 120 1354 462 3035 432 1022 71283 288 938 2171 17038 21173 1105 735 11552 2459 2872 1507 2734 3507
internal_value=0.000115703 -0.00116681 -0.000280072 -0.0600204 0.00125363 0.00703621 0.015943 0.0128101 0.0249957 0.0329964 0.0360216 0.00802265 -0.0105379 -0.00128677 -0.00654993 -0.0235647 0.00132386 0.00820611 -0.0476865 -0.00326304 -0.0139503 0.00727143 0.0338948 0.0495054 -0.00355042 0.00725694 0.011431 0.00905007 -0.00812139 0.0445298
internal_weight=67091.7 62062.7 61141.5 921.211 53188.9 16234.7 5029.04 10505.2 3282.8 1693.53 2363.64 673.979 7952.52 36954.2 12252.5 1983.72 24701.7 1224.8 774.298 10268.8 6727.72 7222.38 431.762 1019.55 5729.51 2111.44 1678.17 566.814 1209.42 1796.82
internal_count=196938 181921 179576 2345 158465 48711 15017 30537 9073 5581 6567 1836 21111 109754 35436 5126 74318 3611 1960 30310 17500 21464 1393 3745 18174 6622 5043 1627 3166 4940
is_linear=0
shrinkage=0.05


Tree=7
num_leaves=31
num_cat=0
split_feature=3 5 14 0 0 16 1 6 16 1 10 3 2 3 0 2 7 5 16 16 0 16 17 3 1 10 1 7 17 14
split_gain=532.6 1191.99 332.694 400.323 318.366 272.732 242.169 273.576 360.291 276.459 250.964 217.026 207.741 280.478 286.067 195.007 187.804 165.245 164.825 147.856 200.501 143.372 141.059 169.309 138.752 130.269 129.214 168.902 117.985 202.346
threshold=0.99226675514949503 0.088789075088624006 0.41186641190328294 -0.10472989848838628 0.090410490932077522 21.449400042050954 0.068424100852367456 0.63157562328619343 -41.88251593111849 -0.030576973569283013 -0.053185043814980189 0.87182351638272859 -0.019697425736705867 0.91321630681803223 -0.0078269777606233253 0.04319837706797381 0.76220884542194989 0.0049648911520068237 15.777363706440562 65.759202489223398 0.0012686333456500675 41.313634233778792 0.063983042486685418 0.89474745331069627 0.015823406085061661 0.439241592880601 -0.030576973569283013 0.917411937295742 0.029992027905191471 92.467973847436937
decision_type=2 2 2 2 2 2 2 2 2 2 2 2 2 2 2 2 2 2 2 2 2 2 2 2 2 2 2 2 2 2
left_child=1 2 5 -4 -3 24 7 9 -9 10 12 19 -5 14 -14 18 -11 -2 -8 -10 -21 -16 23 -20 -1 -17 27 -19 29 -18
right_child=17 4 3 6 -6 -7 15 8 11 16 -12 -13 13 -15 21 25 28 26 22 20 -22 -23 -24 -25 -26 -27 -28 -29 -30 -31
leaf_value=0.014747827708095244 0.0072107333835053763 -0.06591771231964573 -0.040394013369419439 -0.0075775655769253214 0.046417892841204081 0.049280279891759128 -0.0042281056964267767 -0.012079402156730711 0.015903718276962915 -0.0088512200464325747 -0.00077171391414119876 0.0047119466496379952 -0.013190438667695726 -0.010724547835470683 -0.029167002797220721 0.0056684475600950043 0.0038956768257091276 0.047146283047999615 0.052683073757208834 0.06294032167386425 -0.035390877024827558 -0.064553566965475928 -0.0039987714932274666 0.011160123967732591 -0.0012381933935620916 0.034483108646016433 0.039216767734403996 -0.00066952883729459929 -0.0011307483027363956 0.032660120022258605
leaf_weight=3205.9206035584211 1821.2081627249718 851.50263653695583 652.09313689172268 4334.6065170615911 68.11685386300087 430.6850168555975 2869.3280662149191 2775.4430090337992 1566.7554872334003 5835.5005483925343 4593.0247079879045 8601.845601439476 797.04463528096676 2182.8682403117418 451.14750511944294 647.64841528236866 4288.8700327575207 263.66390556097031 391.13065613806248 367.47983914613724 60.355425745248795 783.07018382847309 585.93032047152519 659.32162277400494 2354.0773363113403 994.62942364811897 1127.5464764982462 616.55745020508766 12123.314525485039 713.04138933122158
leaf_count=9596 5355 2189 1741 11143 186 1072 8332 9009 4363 17564 12948 24934 2355 6438 1538 2196 13216 678 1217 889 152 1911 1701 2023 7208 2934 3637 1703 36149 2438
internal_value=9.53967e-06 -0.00108776 -0.00025315 -0.00144563 -0.0575969 0.0109486 -0.000989019 -0.00215202 0.00395728 -0.00441482 -0.0101982 0.00815764 -0.0152628 -0.0231678 -0.0365398 0.00836995 -0.00110465 0.0181168 0.00299381 0.0230175 0.0490686 -0.0516186 0.0156571 0.026621 0.00797942 0.0231198 0.0280096 0.0136533 0.00153503 0.00799616
internal_weight=67013.7 63184.8 62265.1 56274.4 919.619 5990.68 55622.4 49474.4 13371.9 36102.5 13141.8 10596.4 8548.74 4214.13 2031.26 6147.99 22960.7 3828.98 4505.71 1994.59 427.835 1234.22 1636.38 1050.45 5560 1642.28 2007.77 880.221 17125.2 5001.91
internal_count=196815 185442 183067 165191 2375 17876 163450 145047 39347 105700 36333 30338 23385 12242 5804 18403 69367 11373 13273 5404 1041 3449 4941 3240 16804 5130 6018 2381 51803 15654
is_linear=0
shrinkage=0.05


Tree=8
num_leaves=31
num_cat=0
split_feature=5 9 14 3 17 14 0 6 16 1 10 16 7 5 0 4 16 15 1 13 4 13 7 4 6 3 17 1 5 3
split_gain=471.022 1082.76 497.587 439.965 417.521 336.787 359.355 297.887 383.13 336.001 251.641 233.15 227.579 220.258 204.798 226.673 204.222 178.725 186.777 228.17 185.645 168.822 148.164 147.322 143.927 136.355 143.946 136.338 134.74 131.985
threshold=0.088789075088624006 1.0000000180025095e-35 104.68605311284311 0.97392112206649883 0.038791495710555755 1.5524966221778913 -0.10472989848838628 0.7258052809592247 -42.967543562393999 -0.029054257922768029 0.024872077461288226 24.231739570064057 1.1249066103757099 0.0032520325203252436 -0.0075538695349927363 0.002346335982099879 74.310699522619913 90.804545514629055 0.064398680008337275 38.289921229383474 -0.0092916673229299068 39.475970113355707 0.76220884542194989 -0.023895857779842374 0.41807885984245186 0.87436637267702944 0.066022971219742169 0.036046207902916773 -0.0054099635326760867 0.89701546850898362
decision_type=2 2 2 2 2 2 2 2 2 2 2 2 2 2 2 2 2 2 2 2 2 2 2 2 2 2 2 2 2 2
left_child=2 12 5 -4 13 11 -7 9 -9 10 14 23 -2 -5 24 16 -16 18 22 20 -20 -12 -11 27 -8 26 -10 -1 -13 -18
right_child=1 -3 3 4 -6 6 7 8 25 17 21 28 -14 -15 15 -17 29 -19 19 -21 -22 -23 -24 -25 -26 -27 -28 -29 -30 -31
leaf_value=0.019219959875453472 0.046730451068522458 -0.065282165282673763 -0.0050717144657043273 0.024977025616171027 0.0032902071357407657 -0.038700320569370554 -0.013763876410773016 -0.012519865669061075 0.033452654702835642 -0.0077025869136522337 -0.038931084334917473 -0.020143405607452213 -0.01130322350596278 0.06657123660453583 -0.019835524839959887 -0.011537155087277724 -0.064137847099015474 -0.014049477437335402 0.051194106932441225 0.0039768428584199466 0.011297467072028564 0.0028084404560342422 0.0016841794504390394 -0.0028178360713177818 0.0059541381409804472 0.0081726993114246659 0.00063662272186119787 -0.00054097302125667593 0.05847001677251662 -0.023630398725963658
leaf_weight=2925.5085752904415 360.84659843146801 843.58048762381077 1139.0818639993668 523.49677793681622 732.47178922593594 644.97585383057594 1843.7723239958286 2097.9152748137712 1191.4899840056896 5578.4952914118767 256.02997872233391 64.41349270939827 317.63511200249195 811.89470161497593 1580.3456856310368 4265.6655325591564 571.05788323283195 2049.2922349572182 533.27043701708317 3553.9333725571632 643.32517658174038 4502.9618545621634 17060.543001592159 2138.4537123441696 1858.1186057776213 6482.6581905782223 464.42524527013302 1244.0167135596275 354.3588125705719 310.39392654597759
leaf_count=8928 941 2196 3495 1843 2135 1722 5099 6770 3303 16690 928 164 847 3176 4446 11632 1387 6547 1563 10372 2169 12467 51171 6425 5130 18559 1267 3747 887 813
internal_value=3.48915e-05 -0.0274618 0.000674606 0.0198809 0.0336261 -0.000315401 -0.00159625 -0.0011599 0.00653245 -0.00292515 -0.00896457 0.0102503 0.0195617 0.0502656 -0.013312 -0.0185095 -0.0305907 0.000192882 0.00125928 0.0102952 0.0293799 0.000562887 -0.000628818 0.00785186 -0.00386666 0.0114436 0.0242489 0.0133241 0.0463781 -0.0498736
internal_weight=66944.4 1522.06 65422.4 3206.95 2067.86 62215.4 55488.7 54843.7 10236.5 44607.2 15188.3 6726.75 678.482 1335.39 10429.4 6727.46 2461.8 29418.9 27369.6 4730.53 1176.6 4758.99 22639 6307.98 3701.89 8138.57 1655.92 4169.53 418.772 881.452
internal_count=196819 3984 192835 10649 7154 182186 162035 160313 29899 130414 41902 20151 1788 5019 28507 18278 6646 88512 81965 14104 3732 13395 67861 19100 10229 23129 4570 12675 1051 2200
is_linear=0
shrinkage=0.05


Tree=9
num_leaves=31
num_cat=0
split_feature=5 9 14 5 16 3 17 10 14 17 16 5 0 1 0 7 5 17 1 13 10 3 17 0 14 3 4 3 3 16
split_gain=439.39 984.01 467.908 426.623 310.428 346.776 304.185 229.725 216.08 213.793 212.714 191.107 190.453 200.214 187.718 170.11 178.222 164.64 149.026 147.635 201.28 199.631 187.491 177.541 146.54 146.535 145.85 144.947 287.253 188.486
threshold=0.088789075088624006 1.0000000180025095e-35 105.33854967097857 0.0088996499892258791 113.45986901727323 0.93375595250055266 0.036170688147192105 -0.015027699381681215 -1.6550669593207077 0.030412946428571414 20.517652707767603 0.0038713245789323563 0.094918664098229313 -0.19811555013498564 -0.01508324221132853 2.5525873664008505 0.0071694472616132829 0.056595789445411861 0.064398680008337275 45.302012751479914 0.48925152071902434 0.89474745331069627 0.066022971219742169 0.017271586508660609 70.09287369444958 0.92229070510994204 0.032338308457711469 0.91168284714480385 0.91181251794733587 4.1827553685038721
decision_type=2 2 2 2 2 2 2 2 2 2 2 2 2 2 2 2 2 2 2 2 2 2 2 2 2 2 2 2 2 2
left_child=2 7 4 9 8 14 -5 -2 10 26 -1 -7 13 -10 24 16 18 -16 19 20 23 22 -21 25 -6 27 -4 29 -29 -15
right_child=1 -3 3 6 5 11 -8 -9 12 -11 -12 -13 -14 15 17 -17 -18 -19 -20 21 -22 -23 -24 -25 -26 -27 -28 28 -30 -31
leaf_value=0.0082665011878724996 -0.0058214606617894979 -0.063130686195524754 0.0025688004316885464 0.068419958255854299 0.0085436640854742816 -0.010246857265412159 0.017354122284912173 0.05369365180535865 -0.021228702611539644 -0.0055932210457189787 0.048712528671010197 0.0090909966310633358 0.025080546354613827 -0.0011492652305009718 -0.057099087328885349 -0.020995567470317708 0.0094776024792495826 -0.011958266227757974 0.0069475600633883867 0.012984025200308946 -0.014847339918721123 -0.0021582460194326325 -0.0063349509037727491 -0.025259156124937766 -0.027449924401888627 0.017523726752842229 0.057961085358988806 -0.049465448285357837 0.0052562636006223953 0.039010792718107666
leaf_weight=4349.8099581152201 401.49016782641411 829.92835120856762 214.00355610251427 599.67037999629974 460.57750454545021 3433.0678546875715 567.68509182333946 271.98037208616734 1117.0136755257845 1322.3043764829636 351.33259958028793 2034.8976501524448 750.30679778754711 4152.290409758687 661.79817941784859 929.88990725576878 5049.4192450642586 290.72874580323696 5850.4943195432425 4872.6750455200672 4325.8357772678137 18307.427224561572 1691.9927499294281 695.22986951470375 732.51209822297096 1149.9254343211651 267.22625054419041 440.52668319642544 526.37561851739883 314.28097668290138
leaf_count=13091 1076 2204 700 2433 1141 9288 1763 706 2860 4001 889 5738 2126 14018 1645 2914 14766 746 17565 12639 14078 52327 4381 2472 1869 3771 1039 1733 1774 1242
internal_value=3.4352e-05 -0.0266912 0.000648157 0.0200356 -0.000273582 -0.0097347 0.0435866 0.0182137 0.0010391 0.00479199 0.0112892 -0.0030503 7.86915e-05 -0.000300867 -0.0267695 0.000183058 0.000598746 -0.0433213 -0.00046046 -0.00164864 -0.00630558 0.000524134 0.00800471 -0.00122904 -0.013555 0.00130862 0.0333281 -0.0021231 -0.0196753 0.00167651
internal_weight=66962.7 1503.4 65459.3 2970.89 62488.4 7613.58 1167.36 673.471 54874.8 1803.53 4701.14 5467.97 50173.7 49423.4 2145.62 48306.4 47376.5 952.527 42327.1 36476.6 11604.5 24872.1 6564.67 7278.63 1193.09 6583.4 481.23 5433.47 966.902 4466.57
internal_count=196995 3986 193009 9936 183073 20427 4196 1782 162646 5740 13980 15026 148666 146540 5401 143680 140766 2391 126000 108435 39088 69347 17020 25010 3010 22538 1739 18767 3507 15260
is_linear=0
shrinkage=0.05


Tree=10
num_leaves=31
num_cat=0
split_feature=5 9 14 2 17 4 5 3 16 15 0 7 0 16 17 7 0 17 17 6 4 15 17 13 5 4 17 14 4 15
split_gain=401.122 941.875 408.707 440.191 333.938 319.837 273.858 290.38 363.788 367.273 210.879 206.668 194.549 194.537 318.276 178.039 193.03 158.062 154.643 169.402 153.568 152.047 155.026 151.532 184.685 144.184 138.196 132.101 127.955 114.527
threshold=0.088789075088624006 1.0000000180025095e-35 105.33854967097857 -0.11191791620398532 0.040244159394817736 0.041055718475073395 -0.04853344803572162 0.85350516156835787 12.336443326186105 61.558774403017424 0.0029161626276237728 1.1249066103757099 0.094918664098229313 120.97117934261566 0.033815701729617377 0.77189703570162826 0.022428029932921645 0.040244159394817736 0.079254262768524777 0.35211218012368978 -0.011891537792345806 97.249844980732476 0.067202840848098161 32.628517846115535 -0.008494859271409359 0.008459483526269131 0.06660421329273733 60.621804191663628 -0.050337561902789256 88.132063667858873
decision_type=2 2 2 2 2 2 2 2 2 2 2 2 2 2 2 2 2 2 2 2 2 2 2 2 2 2 2 2 2 2
left_child=2 11 6 17 5 -5 -1 8 23 10 18 -2 13 15 -15 -9 25 -4 19 -10 26 22 -11 24 -8 -17 -12 -21 -26 -25
right_child=1 -3 3 4 -6 -7 7 12 9 21 20 -13 -14 14 -16 16 -18 -19 -20 27 -22 -23 -24 29 28 -27 -28 -29 -30 -31
leaf_value=-0.031094220325399193 0.044685452946783867 -0.061528727476495085 -0.068258315648644236 0.0092897989629620748 0.0015912011664851841 0.055034532817424299 0.042692380618032148 -0.0059015398507110059 -0.0068756490143414319 0.042949521524759865 -0.075034315552651831 -0.011062146650762088 0.01675982481892058 0.010390526710674475 -0.017542707949303467 0.00051103646505325901 -0.0069052851336573176 -0.0025130716381398747 -0.012985273491596248 0.054148555523741371 0.0027160426362911297 0.081883105926992522 0.0095584400733050388 0.0029990018531317886 0.029166331891777898 0.0091863941844462019 -0.004945229782061889 0.0018316336253919423 -0.00034235169550715308 -0.0090539282203254533
leaf_weight=706.8510315567255 354.0871719121933 817.98736082017422 166.8553189188242 583.581836566329 903.81781657040119 1106.7997245788574 425.18534694612026 12818.827142298222 252.5648247897625 1045.5120142102242 164.5152023434639 313.39168429374695 1383.9123325645924 1334.8318589925766 4320.4841020703316 14284.193385899067 5734.6040665954351 202.21004036068916 310.70061230659485 493.13110482692719 405.13479228317738 168.13267661631107 520.73184551298618 5484.9760715812445 478.29134225845337 7205.2846025526524 122.84435622394085 159.74619354307652 1584.0016511827707 3076.2714972794056
leaf_count=1991 937 2215 399 1950 2770 4325 1339 37518 659 3159 400 835 3732 3926 11414 44005 16809 500 794 1221 1122 683 1603 15409 1573 20971 313 445 5344 8644
internal_value=0.000128655 -0.0255637 0.000711827 0.0188557 0.0261243 0.0392418 -0.000148678 0.000205418 0.00634222 0.0200442 0.00491054 0.0185111 -0.00170954 -0.00226886 -0.0109496 -0.00104287 0.0012449 -0.0322367 0.0174518 0.0278962 -0.0171141 0.0366984 0.0318479 0.00182437 0.0126875 0.00341983 -0.0450717 0.0413476 0.00650136 -0.00133192
internal_weight=66929.5 1485.47 65444 2963.26 2594.2 1690.38 62480.7 61773.9 14691.7 3643.01 1908.64 667.479 47082.1 45698.2 5655.32 40042.9 27224.1 369.065 1216.14 905.442 692.494 1734.38 1566.24 11048.7 2487.48 21489.5 287.36 652.877 2062.29 8561.25
internal_count=197005 3987 193018 9944 9045 6275 183074 181083 42708 10399 4954 1772 138375 134643 15340 119303 81785 899 3119 2325 1835 5445 4762 32309 8256 64976 713 1666 6917 24053
is_linear=0
shrinkage=0.05


Tree=11
num_leaves=31
num_cat=0
split_feature=5 9 14 2 17 5 16 3 14 7 16 5 0 0 7 1 0 15 3 16 4 2 4 0 3 3 15 13 17 5
split_gain=372.899 852.867 387.906 410.402 306.718 281.887 264.026 298.902 200.901 194.014 190.075 187.179 176.82 146.649 140.455 140.606 164.798 148.803 202.321 260.714 284.547 243.041 228.358 276.506 206.334 386.176 201.551 191.265 165.176 163.998
threshold=0.088789075088624006 1.0000000180025095e-35 105.33854967097857 -0.10958178180471921 0.039946003989783534 0.0069705546996103882 117.16204413262123 0.95810851246219297 -1.6550669593207077 0.72940665119640868 21.449400042050954 0.0039912194764502038 -0.10472989848838628 0.094918664098229313 2.629448280101077 -0.19811555013498564 -0.0033535643269038268 87.796784819713679 0.89474745331069627 7.3671620922169021 -0.0098340054483228006 -0.047754431295899916 -0.0073119891316031907 -0.0020422065283885443 0.91181251794733587 0.91168284714480385 59.166617361152241 35.416204002469669 0.062177849557089042 0.005739197633503502
decision_type=2 2 2 2 2 2 2 2 2 2 2 2 2 2 2 2 2 2 2 2 2 2 2 2 2 2 2 2 2 2
left_child=2 9 6 -4 5 -5 8 -8 10 -2 -1 -9 -10 14 15 16 -14 18 19 20 27 -20 23 28 25 -23 -24 -17 -21 -26
right_child=1 -3 3 4 -6 -7 7 11 12 -11 -12 -13 13 -15 -16 17 -18 -19 21 22 -22 24 26 -25 29 -27 -28 -29 -30 -31
leaf_value=0.0080395223378488551 0.047859060517780994 -0.059758618060150585 -0.030656643002912293 0.019525409170786535 0.0023385401770203182 0.06098749137843823 -0.020652164146391514 -0.0085563046367268178 -0.032048177513689179 -0.0066495052001052631 0.047291499654083261 0.014039334127890962 0.0040227056379780668 0.021901903565081121 -0.020387117135688651 0.033181403123951063 -0.035868773120968721 -0.0066614371842683004 -0.0078025753722269376 0.02582548665748792 -0.0054371121474172191 0.00073140514683332281 0.013243057044971685 -0.023104862151025349 0.0030294339384521907 -0.038361328015363003 0.039639330316749405 0.00603451018527504 -0.0030249821803488728 0.018822781518795403
leaf_weight=4355.7469696104527 287.27110441029072 798.66942313313484 374.00626969337463 906.27500487864017 925.64066949486732 748.5010371953249 3199.7931394279003 2430.489385008812 426.77915036678314 378.11686052381992 331.92300465703011 1471.3867234438658 472.07264345884323 771.57728028297424 835.91595160961151 841.36909203231335 573.33659145236015 6024.5307124257088 8613.7521314620972 1171.5464177280664 5965.8880241960287 2725.1935764551163 1709.3761843144894 686.00423242151737 12171.238232582808 822.36763745546341 1253.4512162953615 2835.4052251130342 860.51820357143879 1900.3735242784023
leaf_count=13106 766 2210 914 3160 2836 3051 8218 6641 1218 1012 852 4255 1221 2172 2617 2775 1448 19219 23292 3178 18009 8603 4585 1868 36746 3234 3648 8131 2276 5726
internal_value=3.02344e-05 -0.024926 0.000588872 0.0182924 0.0253871 0.0382799 -0.000248656 -0.00932476 0.000915886 0.0168837 0.0108189 -3.55516e-05 -4.43715e-07 0.000271829 -6.55852e-05 0.000283754 -0.0178551 0.000682285 0.00174692 0.00631165 0.00130575 -0.000919496 0.0148086 0.0043423 0.00244554 -0.00833076 0.0244102 0.0122466 0.0136082 0.00516233
internal_weight=66868.5 1464.06 65404.5 2954.42 2580.42 1654.78 62450 7101.67 55348.4 665.388 4687.67 3901.88 50660.7 50233.9 49462.3 48626.4 1045.41 47581 41556.5 15323.6 9642.66 26232.9 5680.9 2718.07 17619.2 3547.56 2962.83 3676.77 2032.06 14071.6
internal_count=196987 3988 192999 9961 9047 6211 183038 19114 163924 1778 13958 10896 149966 148748 146576 143959 2669 141290 122071 44470 28915 77601 15555 7322 54309 11837 8233 10906 5454 42472
is_linear=0
shrinkage=0.05


Tree=12
num_leaves=31
num_cat=0
split_feature=6 1 10 5 5 16 5 3 17 5 15 17 0 0 17 16 4 6 12 0 15 12 15 15 13 3 3 4 1 7
split_gain=325.393 377.876 353.636 319.439 257.748 270.475 189.848 187.784 252.417 188.908 185.872 180.846 162.963 159.415 158.964 131.423 129.722 123.227 117 112.931 110.872 128.648 104.289 103.698 164.277 214.159 191.481 191.097 136.924 135.767
threshold=0.6145247963548609 -0.029054257922768029 -0.053185043814980189 0.088789075088624006 0.069804989236418882 -53.044742244702867 0.012315270935960744 0.8644933750963284 0.070536825704506742 0.010696173442718006 6.0240933613989922 0.034978824391561587 0.018435072098138081 -0.10472989848838628 0.045431272582786751 7.3671620922169021 0.10048782043009476 0.90107883157856183 29.093288847849141 0.043296805753324154 98.529363465998287 31.3263739230085 47.727218491797196 93.442508062505794 34.411469666124603 0.91168284714480385 0.91181251794733587 -0.0092916673229299068 0.084639002227766075 0.88773080150375272
decision_type=2 2 2 2 2 2 2 2 2 2 2 2 2 2 2 2 2 2 2 2 2 2 2 2 2 2 2 2 2 2
left_child=1 2 3 -1 5 20 -4 8 12 13 -3 -11 15 -9 -5 -7 23 19 -10 -15 21 -2 -17 24 25 27 -27 28 -12 -26
right_child=4 10 6 14 -6 7 -8 9 18 11 16 -13 -14 17 -16 22 -18 -19 -20 -21 -22 -23 -24 -25 29 26 -28 -29 -30 -31
leaf_value=-0.011983918657417214 0.0073769379538314132 0.024535791500412189 -0.0011589068269825555 -0.064088914242943565 -0.035811515163426379 0.019672382397995777 0.033584056306837841 -0.044586106610930598 0.057219654393824239 0.045427646091224322 0.021091922219465202 0.01103512227184153 0.0049118209624638203 0.0044834945560350238 -0.0068568359864398815 0.0081472310982472953 -0.036745506540111009 0.015056079609134968 -0.0062748651104588262 -0.0095943125345474538 -0.022040031030672827 -0.011716572687884896 0.053282404078441231 -0.010615712624613395 -0.0041239553321254629 -0.057041136567895279 0.027036523711793898 -0.0023748084131479824 0.058053526775365676 0.0034119348140445372
leaf_weight=9432.5124458670616 1897.6220195442438 809.4291605502367 4973.4056907445192 458.37185840308666 378.69993011653423 769.47225776314735 426.95496451854706 169.22818288207054 78.478948563337326 529.02623882889748 1202.2279274612665 1377.4365513622761 578.81434741616249 7398.3459737449884 165.00264550745487 149.16784732043743 235.11289776861668 2156.9861133247614 960.78985108435154 1764.2769466936588 806.3506084382534 1648.695946007967 901.11045084893703 1940.3245034813881 10695.537055239081 187.67491242289543 105.94652830064297 727.14010080695152 316.53565512597561 13546.890905290842
leaf_count=25981 6153 2606 14045 1248 1080 2139 1128 477 273 1882 4153 3928 1704 21969 433 408 651 6306 2548 4957 2570 5231 2615 6108 31633 724 385 2503 898 40219
internal_value=2.02946e-05 -0.0023897 -0.00873247 -0.0142749 0.00507431 0.00580515 0.00158789 0.00867796 0.0191024 0.00600259 0.000903746 0.0205787 0.0280205 0.00358382 -0.04894 0.0353708 0.000243173 0.00430396 -0.00148016 0.00177279 -0.00530489 -0.0014997 0.046872 0.000545952 0.0013546 0.0134536 -0.0267037 0.0187036 0.0287953 8.71691e-05
internal_weight=66787.6 45223.1 15456.2 10055.9 21564.5 21185.8 5400.36 16833.1 3437.83 13395.3 29766.8 1906.46 2398.56 11488.8 623.375 1819.75 28957.4 11319.6 1039.27 9162.62 4352.67 3546.32 1050.28 28722.3 26782 2539.53 293.621 2245.9 1518.76 24242.4
internal_count=196955 132715 42835 27662 64240 63160 15173 49206 9687 39519 89880 5810 6866 33709 1681 5162 87274 33232 2821 26926 13954 11384 3023 86623 80515 8663 1109 7554 5051 71852
is_linear=0
shrinkage=0.05


Tree=13
num_leaves=31
num_cat=0
split_feature=3 13 3 16 6 16 3 17 1 14 4 16 13 17 14 0 4 12 0 16 3 2 2 2 1 3 14 14 15 15
split_gain=312.299 507.482 337.333 293.749 199.979 239.405 192.263 240.927 177.137 284.607 182.458 216.251 158.562 157.596 163.831 147.137 142.42 134.896 131.013 145.322 165.613 129.185 126.837 236.96 162.262 135.054 154.836 124.147 149.585 116.102
threshold=0.99226675514949503 69.651585181021872 0.97981711104740066 214.06058144855936 0.6145247963548609 -50.814378209685074 0.8644933750963284 0.066022971219742169 -0.029054257922768029 8.6565248290837307 0.0063291139240505565 131.29093659151366 39.84043072246142 0.033559437567444443 99.287549547655928 -0.10472989848838628 -0.032100827900434829 29.093288847849141 -0.00079286429468837982 48.414987366479657 0.88438397792138279 -0.035610249628122127 -0.0054917174322629816 -0.0057971176843258808 0.1085481192927706 0.8893113707045005 56.19088768359812 78.868457391312489 63.999957333361785 98.837161416104905
decision_type=2 2 2 2 2 2 2 2 2 2 2 2 2 2 2 2 2 2 2 2 2 2 2 2 2 2 2 2 2 2
left_child=1 4 3 -3 8 29 7 16 9 -1 11 12 -11 14 -4 -8 -7 -9 -14 -20 21 -21 23 27 -24 -25 -27 -10 -29 -6
right_child=-2 2 13 -5 5 6 15 17 22 10 -12 -13 18 -15 -16 -17 -18 -19 19 20 -22 -23 24 25 -26 26 -28 28 -30 -31
leaf_value=0.011136848837610555 0.014099876547416859 -0.014619783947267552 -0.0035442431303496524 -0.045717623044014902 -0.0015092839139739663 0.046467805975945929 -0.043489044250837348 0.060146286554133857 -0.0030710375568376198 -0.048700632766500329 0.00015445661108132728 -0.0507200003788724 -0.0044145486760859753 -0.0075766197653308349 0.056919195164141748 0.0056666836081122017 0.019348558108151472 -0.0029182440121640375 -0.0079260987373432398 -0.0077598904866838878 -0.016144955880204395 -0.066472713627057478 0.0031236415566976024 0.063436464579232674 0.02749637876175906 -0.058056899401904061 0.0057058389814238879 0.0064925563622647885 0.060523377576776408 -0.023809724620814911
leaf_weight=1979.1124871522188 3780.9611048102379 2659.7730467766523 199.54133284091949 1062.8090054392815 3822.5422702878714 757.91823346912861 154.66651633381844 91.330340474843979 12009.563452720642 281.39350461959839 3337.2101395279169 379.42087490856647 3843.0106561332941 683.31272922456264 255.4684966057539 9683.9956997781992 1340.1539676785469 1184.9078031778336 1460.9947921484709 122.41888847947121 763.8187253177166 399.20385256409645 12348.692249193788 32.614079818129539 722.86224438250065 368.77446405589581 128.34408670663834 2065.6230314075947 136.56776288151741 688.8226406276226
leaf_count=5541 11405 7015 591 2949 12266 2212 441 324 33915 1048 9290 966 10682 1949 1022 28469 3833 3147 4213 299 2026 981 39829 121 2223 1437 502 5747 334 2193
internal_value=0.000142896 -0.000695203 -0.0162146 -0.0234983 0.000603133 0.0050306 0.00842611 0.0187251 -0.00134027 -0.006267 -0.0095203 -0.0139735 -0.0119443 0.00760473 0.0304034 0.00489394 0.0291453 0.00159479 -0.0103746 -0.0187144 -0.0309761 -0.0526935 0.000885743 -0.00229378 0.00447146 -0.0351284 -0.0415949 -0.0010699 0.00984325 -0.00491425
internal_weight=66745.8 62964.9 4860.9 3722.58 58104 17724.3 13213 3374.31 40379.6 12566.6 10587.5 7250.26 6870.84 1138.32 455.01 9838.66 2098.07 1276.24 6589.45 2746.44 1285.44 521.623 27813 14741.5 13071.6 529.733 497.119 14211.8 2202.19 4511.36
internal_count=196970 185565 13526 9964 172039 52885 38426 9516 119154 35046 29505 20215 19249 3562 1613 28910 6045 3471 18201 7519 3306 1280 84108 42056 42052 2060 1939 39996 6081 14459
is_linear=0
shrinkage=0.05


Tree=14
num_leaves=31
num_cat=0
split_feature=10 3 0 12 6 13 0 17 13 4 9 7 1 13 17 0 0 10 4 12 3 1 14 2 0 2 14 1 6 4
split_gain=292.867 309.439 287.303 222.748 189.103 168.572 216.376 160.177 152.783 138.619 217.638 139.171 147.882 145.697 138.029 118.323 115.54 138.401 137.731 139.142 135.403 115.237 102.129 100.231 96.6709 102.347 106.111 96.5187 125.227 102.593
threshold=-1.2123673087012126 0.98055049280330209 0.094918664098229313 91.013283556530084 0.69999475004374745 44.856921633149369 -0.028917087063171167 0.032411408252231259 26.660810186052853 0.079374002707503069 1.0000000180025095e-35 0.80145563867705605 0.05859014343816444 39.292046290809502 0.042604856375539922 -0.10472989848838628 -0.0020422065283885443 -0.083611831203989448 -0.025784478001737551 38.899077928384287 0.89474745331069627 0.092088722313455204 102.10912850162737 -0.13825320062880184 -0.10472989848838628 1.0000000180025095e-35 105.98821269679856 -0.085006904805105074 0.39506124066513471 -0.01659626092723215
decision_type=2 2 2 2 2 2 2 2 2 2 2 2 2 2 2 2 2 2 2 2 2 2 2 2 2 2 2 2 2 2
left_child=1 3 4 24 9 6 8 22 -6 11 14 12 16 -14 -11 -7 20 23 -19 -20 27 -8 -3 -18 -1 26 -26 28 29 -2
right_child=2 7 -4 -5 5 15 21 -9 -10 10 -12 -13 13 -15 -16 -17 17 18 19 -21 -22 -23 -24 -25 25 -27 -28 -29 -30 -31
leaf_value=-0.040100403933004868 -0.011085572350219931 0.0042059302201926923 0.022260663871120079 -0.046465742266328526 0.03889314409008654 -0.025563911455432738 -0.017737750750914948 0.00050039792683733483 0.0033812915362628317 0.042132399907598705 -0.059099463844293924 0.0019518826925147043 0.019954262519078458 -0.0033353237365478165 -0.020674465801388771 0.011905225876319463 0.0063464565191993574 0.020489869428072682 -0.023339809991840269 -0.0028651511881320093 -0.0078175813880204219 0.021116141265922268 0.05062831580504961 -0.02362414168953679 -0.0045610658136574127 -0.021200237708220132 -0.048618773748800935 0.00012695187595632946 0.033926380117549441 0.039825548780843066
leaf_weight=274.82556849718094 429.23206055164337 189.53464050590992 1597.7251256108284 480.28606830537319 357.61609509587288 216.8864993751049 1786.6249187588692 1436.5214208215475 1978.8001746684313 129.44147853553295 259.94211095571518 25920.493861630559 1204.3093298971653 1517.9681735187769 269.83346816897392 7385.9393238574266 320.07091635465622 468.36467790603638 1109.8047668784857 3288.6677521020174 4097.0560008883476 213.65970966219902 316.01564590632915 2172.221321195364 4283.7734362781048 1468.482737749815 141.1682662665844 2707.5582947582006 573.37415796518326 128.60135677456856
leaf_count=742 1124 550 4381 1352 1400 557 6127 4204 6301 487 740 77836 3750 4399 724 21094 817 1297 3587 9576 11999 712 1298 6094 11418 4489 355 7876 1452 325
internal_value=7.80618e-05 -0.00853913 0.00135144 -0.0136679 0.000760545 0.00634929 -0.00151713 0.0090189 0.0088168 -0.000735677 -0.0234937 -0.000394229 -0.00376946 0.00696776 -0.000313024 0.0108363 -0.00568053 -0.0101933 -0.00528648 -0.00803123 -0.00149569 -0.0135876 0.0332242 -0.0197752 -0.0111141 -0.00976244 -0.00596663 0.00525158 0.0175174 0.000651335
internal_weight=66724.8 8590.61 58134.2 6648.54 56536.5 11939.5 4336.7 1942.07 2336.42 44596.9 659.217 43937.7 18017.2 2722.28 399.275 7602.83 15295 7359.13 4866.84 4398.47 7935.82 2000.28 505.55 2492.29 6168.25 5893.42 4424.94 3838.77 1131.21 557.833
internal_count=197063 24408 172655 18356 168274 36191 14540 6052 7701 132083 1951 130132 52296 8149 1211 21651 44147 21371 14460 13163 22776 6839 1848 6911 17004 16262 11773 10777 2901 1449
is_linear=0
shrinkage=0.05


Tree=15
num_leaves=31
num_cat=0
split_feature=5 9 14 5 14 0 17 1 6 1 15 10 5 2 10 5 0 0 4 12 7 3 2 3 17 14 2 1 4 1
split_gain=275.898 719.415 318.598 340.797 243.455 279.576 240.825 199.261 189.743 194.983 213.23 184.372 180.035 179.504 177.443 182.273 157.553 155.204 193.462 178.022 140.064 129.5 273.054 129.318 125.784 124.182 164.282 179.771 203.225 119.921
threshold=0.088789075088624006 1.0000000180025095e-35 104.68605311284311 0.007840246634415406 4.1487325079312791 -0.10472989848838628 0.036839501789110989 0.010312813247346364 0.7851233180799021 -0.003256006671924327 90.804545514629055 -0.015027699381681215 0.0010560777390991041 -0.12669127860599361 -0.06823975570351383 0.011043987260947354 0.022428029932921645 -0.012184251165232899 0.002346335982099879 51.765442405338199 0.60584073501153035 0.89701546850898362 -0.033901551675681298 0.87523719506706277 0.029269183653165467 70.09287369444958 0.0054462657850149069 0.080441336856111476 -0.0037492258881979819 -0.010752791776261822
decision_type=2 2 2 2 2 2 2 2 2 2 2 2 2 2 2 2 2 2 2 2 2 2 2 2 2 2 2 2 2 2
left_child=2 11 4 13 7 -6 -5 12 9 14 16 -2 -1 -4 17 -16 25 20 19 -19 23 22 -21 -7 -15 26 -11 -28 -29 -10
right_child=1 -3 3 6 5 8 -8 -9 29 10 -12 -13 -14 24 15 -17 -18 18 -20 21 -22 -23 -24 -25 -26 -27 27 28 -30 -31
leaf_value=0.0076736644542691017 -0.0052962892801818734 -0.055201678663470546 -0.040944896522876584 0.057898613872613192 -0.034958198110985918 0.039318113704833506 0.013722280686611844 -0.0005940056112196826 0.013278045749502766 -0.0033929482108463783 -0.016532381174986389 0.048526599695751592 0.028844828511744153 0.0314532313877149 -0.0019336408443756089 0.027212566300359849 -0.0073951028415740437 -0.0068258926580082374 -0.0075458698819417802 -0.0049910602942668933 -0.0050798716439771907 -0.019369475249519191 -0.061735364661367691 -0.0037514393010818787 0.00028316938132887164 0.010799530695441234 0.0040340623077824902 0.049407099423011025 0.0018471579486609799 0.00017058545477118464
leaf_weight=2988.1213381588459 398.82704892754555 754.31676238775253 208.80408772826195 636.37292794883251 618.48847328126431 377.40748706459999 598.79040542244911 3955.8073660284281 3390.2816922962666 7177.5398484021425 1615.6728592664003 264.72149460017681 1512.4309929460287 433.04583522677422 8547.86344358325 572.32753936946392 3489.5477240979671 1178.8656293302774 6643.1632858365774 306.70853711664677 3455.5768278539181 1111.3366977572441 686.59127695858479 323.82261522114277 1281.3417262434959 5112.9634770900011 4454.6180017888546 508.79927305877209 402.1401455104351 3595.8132635951042
leaf_count=9028 1075 2234 504 2716 1676 966 1857 12182 9287 20894 5120 711 4339 1597 24482 1546 10441 3549 18339 762 9763 3070 1731 909 4041 15418 14767 1486 1330 11081
internal_value=2.25388e-05 -0.0217974 0.000497159 0.0159881 -0.000291636 -0.00153623 0.0364825 0.00759261 -0.00114584 -0.0023127 0.000975315 0.0161763 0.0147883 0.00282555 -0.00553804 -0.000104603 0.00231303 -0.00905663 -0.0124532 -0.0223818 -0.000945374 -0.031095 -0.044214 0.0194289 0.00815657 0.00423174 0.0015545 0.00817274 0.0284115 0.0065315
internal_weight=66602.1 1417.87 65184.2 3158.35 62025.9 53569.5 1235.16 8456.36 52951 45964.9 22761.3 663.549 4500.55 1923.19 23203.7 9120.19 21145.6 14083.5 9926.67 3283.5 4156.81 2104.64 993.3 701.23 1714.39 17656.1 12543.1 5365.56 910.939 6986.09
internal_count=196901 4020 192881 10715 182166 156617 4573 25549 154941 134573 69456 1786 13367 6142 65117 26028 64336 39089 27451 9112 11638 5563 2493 1875 5638 53895 38477 17583 2816 20368
is_linear=0
shrinkage=0.05


Tree=16
num_leaves=31
num_cat=0
split_feature=10 5 3 0 5 5 14 17 14 3 16 15 17 4 4 15 4 1 2 2 0 4 17 7 16 2 0 14 17 7
split_gain=245.692 274.81 277.677 223.618 368.718 191.758 236.33 182.283 183.531 182.09 331.452 340.751 186.499 155.454 139.308 182.476 210.043 147.235 186.24 131.465 127.715 157.171 136.275 120.683 118.952 108.667 104.153 110.479 129.019 100.83
threshold=-1.2123673087012126 0.088789075088624006 0.98055049280330209 0.090410490932077522 0.088789075088624006 0.0069705546996103882 104.04695847849409 0.036839501789110989 102.10912850162737 0.87436637267702944 9.4429664866053731 54.850102892709778 0.067202840848098161 -0.060272313343782406 -0.0062307276662768021 90.14074985133179 -0.050337561902789256 0.063100706367943654 0.022313894574697613 -0.0079504807231002544 -0.004136205047914219 -0.0084273361879425562 0.056889580872244445 0.83938498528553007 76.526048460420625 0.071743904858841231 0.026386755173194925 105.33854967097857 0.030544668198405182 0.55351050318925166
decision_type=2 2 2 2 2 2 2 2 2 2 2 2 2 2 2 2 2 2 2 2 2 2 2 2 2 2 2 2 2 2
left_child=1 2 -1 4 5 9 25 8 -4 10 14 20 -13 -11 15 17 -17 -2 -19 -3 22 -22 -12 -15 -8 -7 -25 -28 -29 -5
right_child=3 19 7 29 -6 6 24 -9 -10 13 11 12 -14 23 -16 16 -18 18 -20 -21 21 -23 -24 26 -26 -27 27 28 -30 -31
leaf_value=-0.010196140003291353 0.0057971242679959994 -0.008225236699472149 0.0017537944978584877 0.046103053603891941 -0.056091577132262871 0.0031239562329209744 0.0058497862286978029 -0.0013641435778997746 0.052908267832245316 -0.051185550806267882 0.034943891078836609 0.037290245512883194 0.0070886860214817733 -0.0057330118574234236 -0.0078851078883045815 0.013290107299929341 -0.010358254376415396 0.0068435455908113845 0.049368538848241411 -0.055460173343884138 -0.045135720843048836 0.0026198379016744338 -0.0053499217202779758 0.0022064810151875441 0.058204892493276761 0.019950342945282695 -0.0104806590289553 0.058266074358217984 -0.0028609266698496351 0.013618824294011816
leaf_weight=6162.5252686142921 3183.832244053483 225.58297827839851 299.84293209016323 286.91541717946529 284.12793639302254 5215.029618665576 158.06870365142822 990.62190084159374 422.27601817250252 161.51203978061676 359.55401477217674 1723.445813536644 726.69128090143204 13020.333252191544 3753.465850263834 1333.6760986298323 3172.538891389966 529.01141698658466 501.59324386715889 424.52400420606136 294.54864853620529 415.09383955597878 503.93192563951015 15898.048843249679 345.89947295188904 1175.8725394308567 3096.8361966460943 130.82874247431755 253.7582728266716 1426.9276338666677
leaf_count=16967 9355 640 877 775 860 15025 544 2848 1766 603 958 5219 2172 38463 11091 3955 9912 1471 1423 1270 741 1152 1281 48027 1408 3522 8978 539 816 3969
internal_value=9.93908e-05 -0.00782572 -0.0052465 0.00126527 0.000723068 0.00101157 0.00881935 0.0125626 0.0316676 -8.57637e-05 0.00419379 0.016673 0.0283327 -0.00225403 0.000168875 0.0036354 -0.0033592 0.0111143 0.0275404 -0.03907 -0.00148683 -0.0172019 0.0114284 -0.0020101 0.0417838 0.00621987 0.000491177 -0.00734182 0.0179332 0.019057
internal_weight=66476.9 8525.37 7875.27 57951.5 56237.7 55953.6 6894.87 1712.74 722.119 49058.7 16497.4 4023.27 2450.14 32561.3 12474.1 8720.65 4506.21 4214.44 1030.6 650.107 1573.13 709.642 863.486 32399.8 503.968 6390.9 19379.5 3481.42 384.587 1713.84
internal_count=196627 24368 22458 172259 167515 166655 20499 5491 2643 146156 48730 11523 7391 97426 37207 26116 13867 12249 2894 1910 4132 1893 2239 96823 1952 18547 58360 10333 1355 4744
is_linear=0
shrinkage=0.05


Tree=17
num_leaves=31
num_cat=0
split_feature=5 9 5 17 14 5 14 6 16 0 1 15 2 7 0 17 7 10 0 16 4 13 16 5 2 15 17 4 0 14
split_gain=231.668 610.778 253.356 363.209 328.776 216.435 168.791 146.731 244.168 183.963 189.661 207.804 132.216 130.737 121.302 118.569 114.61 113.878 111.45 104.91 116.779 103.073 194.495 122.988 102.759 99.4677 97.2015 95.7394 94.1454 101.201
threshold=0.088789075088624006 1.0000000180025095e-35 0.0069705546996103882 0.035511903487639856 92.931736416836074 -0.04853344803572162 0.41186641190328294 0.7258052809592247 -37.311409507239269 0.022428029932921645 0.054431970165311323 93.103127230595774 -0.079373587541512122 1.1191264332813848 -0.03294097018423197 0.051183347590533203 0.74242463742240561 -0.84843841214614579 -0.027724548014854914 21.449400042050954 -0.023895857779842374 37.450741463297682 15.2507147714377 -0.0092411952920100054 0.073067391243852725 58.775486214087273 0.06497789956468121 0.009067168080840406 0.069325336900362244 9.4732764870395645
decision_type=2 2 2 2 2 2 2 2 2 2 2 2 2 2 2 2 2 2 2 2 2 2 2 2 2 2 2 2 2 2
left_child=2 13 5 4 24 -1 19 9 -9 10 16 21 -10 -2 27 -3 18 28 -8 20 26 23 -23 -12 -4 -24 -7 -14 29 -5
right_child=1 15 3 17 -6 6 7 8 12 -11 11 -13 14 -15 -16 -17 -18 -19 -20 -21 -22 22 25 -25 -26 -27 -28 -29 -30 -31
leaf_value=-0.027882797253123998 0.036134821271336735 -0.06058718830779565 0.0054010361704822998 0.03122096194628133 0.047201295226952253 0.017653490572230469 0.0095550687708446103 -0.010522298079053813 -0.0029210735109357622 -0.01198841318191368 0.05007873684995421 -0.022826252764498203 0.027807502501411032 -0.0086356333333845979 0.0078603083725061959 -0.0029851654857148092 -0.00083289766860545646 0.0070502054154340382 -0.0091407536313177148 0.03571654932972923 -0.0047971594037418434 -0.0025347484198598425 0.011943953146056964 0.013940035825687548 0.042260525576664695 0.042233225802266995 -0.00051783374227578813 -0.023770730115778221 0.0099467267841441623 -0.014129286195514571
leaf_weight=727.77405461668968 340.47907729446888 611.11552950739861 1415.6247890591621 131.41609457135201 959.26926681399345 2220.6582957953215 875.50245009362698 2205.5188058465719 1933.9109145700932 4699.3708980083466 301.394117385149 526.19465279579163 1392.5926801562309 312.93231825530529 4190.8547076284885 104.63393154740334 19463.162775784731 4543.419416218996 8905.5991364866495 322.52181565761566 1604.1200828701258 2387.2952955067158 817.60186018049717 1075.6584074944258 218.23656091094017 405.46434015035629 1100.7179398685694 96.184137418866158 704.64999814331532 1924.6993639618158
leaf_count=2066 943 1900 4357 360 3858 7088 2316 7075 5005 13329 868 1612 3995 837 12798 321 58145 12983 25920 839 4857 7009 2380 3515 652 1256 3085 261 2087 5249
internal_value=9.58379e-05 -0.0202586 0.000523602 0.00789069 0.0239662 -0.000796067 -0.000434521 -0.0013424 0.00412701 -0.00270348 -0.00144813 0.00705806 0.00837067 0.0146933 0.0122155 -0.0521665 -0.00305185 0.00218359 -0.0074673 0.00809001 0.00628102 0.010211 0.0057718 0.0218497 0.0103244 0.0219853 0.0116314 0.0244752 -0.00582546 -0.0112307
internal_weight=66518.6 1369.16 65149.4 9897.32 2593.13 55252.1 54524.3 49276.3 9819.06 39457.2 34757.9 5513.61 7613.54 653.411 5679.63 715.749 29244.3 7304.18 9781.1 5248.02 4925.5 4987.41 3610.36 1377.05 1633.86 1223.07 3321.38 1488.78 2760.77 2056.12
internal_count=196966 4001 192965 29546 8867 163419 161353 145484 29134 116350 103021 16640 22059 1780 17054 2221 86381 20679 28236 15869 15030 15028 10645 4383 5009 3636 10173 4256 7696 5609
is_linear=0
shrinkage=0.05


Tree=18
num_leaves=31
num_cat=0
split_feature=6 1 16 3 16 5 3 17 0 0 5 17 16 0 17 16 4 12 2 2 3 3 1 5 5 6 15 7 2 2
split_gain=210.066 256.205 240.641 195.859 178.482 180.246 145.692 209.69 155.626 152.848 132.367 133.945 130.462 127.432 120.223 112.833 112.812 107.165 106.837 204.853 127.277 148.072 125.946 128.605 103.77 98.5288 94.0976 93.6466 92.3463 151.937
threshold=0.6145247963548609 -0.029054257922768029 129.18497053271088 0.9595076787551049 -51.908642265814379 0.069804989236418882 0.86358573850620701 0.070536825704506742 -0.10472989848838628 0.018059505104457845 0.011466054461840904 0.035511903487639856 333.22214391425933 0.069325336900362244 0.051936276513091094 6.3529420749431056 0.096613901119716364 29.093288847849141 -0.0054917174322629816 -0.0057971176843258808 0.91181251794733587 0.90735989003215745 0.10467062256388868 0.0086349007518511395 -0.009395579061033275 0.90740572702643341 33.846101775228078 2.3002353265395183 -0.0057971176843258808 -0.0054917174322629816
decision_type=2 2 2 2 2 2 2 2 2 2 2 2 2 2 2 2 2 2 2 2 2 2 2 2 2 2 2 2 2 2
left_child=1 2 28 14 -2 6 7 9 -8 15 25 -12 -5 16 -4 -6 18 -9 19 -3 21 -21 23 -20 -24 27 -25 -10 -1 -30
right_child=4 13 3 12 5 -7 8 17 10 -11 11 -13 -14 -15 -16 -17 -18 -19 22 20 -22 -23 24 26 -26 -27 -28 -29 29 -31
leaf_value=-4.7395271428111469e-05 -0.004715514375154958 -0.0009715547304950669 -0.044601743613225359 -0.00058498122818135439 0.017178909571629115 -0.029306156665616808 -0.042354086151998288 0.05483373011213926 0.0027487200863560209 0.0024838535705667777 0.039872822200084417 0.0095474454047363832 -0.047616015180448189 0.024671060292989495 -0.01616073712111812 0.043120021447268723 -0.033462765885118761 -0.0067633628646454197 0.0011404051485837386 0.054431425478202268 0.049758388846891446 -0.046727560692359692 0.052466431668527047 0.032969424482550046 0.012118159736257501 0.013562202323782647 0.0050887174738692888 -0.017303160174686204 -0.039333760927507719 -0.0065320928335816904
leaf_weight=6691.0770791321993 4444.772842258215 15101.806127771735 868.38743205368519 1201.851570174098 713.39178770780563 343.64424894750118 171.67170628905296 76.299341276288033 8731.8883337378502 565.80576734244823 510.34298853576183 1270.9336267709732 168.07385347783566 553.24348863959312 649.4599994122982 1016.3962273597717 243.2121352404356 947.12334442138672 11304.15837945044 39.184316962957382 43.908074647188187 470.96616691350937 220.75523050129414 573.79733590781689 572.91743540763855 2030.540159240365 640.37055793404579 623.86779752373695 377.89878222346306 5364.7655987888575
leaf_count=17429 14276 42495 2356 3374 1984 1054 494 271 25703 1668 1895 3621 485 1816 1686 3012 700 2519 36397 146 152 1867 617 1961 1852 5955 2064 1841 1500 15972
internal_value=0.000131911 -0.00180581 -0.00705922 -0.0200616 0.00420544 0.00653762 0.00727705 0.0166512 0.0049446 0.0250426 0.00556125 0.0182358 -0.00635514 0.000898444 -0.0324323 0.0324215 0.000448202 -0.00217111 0.000732916 -0.00206706 -0.031927 -0.0389576 0.00402589 0.00280131 0.0233408 0.00357844 0.0182647 0.00141161 -0.00403937 -0.00869062
internal_weight=66532.5 45085.8 15321.5 2887.77 21446.7 17001.9 16658.3 3319.02 13339.2 2295.59 13167.6 1781.28 1369.93 29764.3 1517.85 1729.79 29211.1 1023.42 28967.9 15655.9 554.059 510.15 13312 12518.3 793.673 11386.3 1214.17 9355.76 12433.7 5742.66
internal_count=197162 132869 42802 7901 64293 50017 48963 9454 39509 6664 39015 5516 3859 90067 4042 4996 88251 2790 87551 44660 2165 2013 42891 40422 2469 33499 4025 27544 34901 17472
is_linear=0
shrinkage=0.05


Tree=19
num_leaves=31
num_cat=0
split_feature=5 5 9 14 2 17 4 14 16 15 1 13 4 5 7 13 3 1 16 15 5 3 17 7 0 0 7 16 11 13
split_gain=215.048 198.53 591.845 214.069 348.452 209.44 220.959 200.563 171.505 158.73 176.145 138.66 154.619 136.945 136.732 131.893 163.729 128.034 117.885 138.402 116.654 122.013 105.34 105.073 119.996 118.33 233.279 161.627 136.086 164.596
threshold=-0.04853344803572162 0.088789075088624006 1.0000000180025095e-35 106.6752963573141 -0.11891893949222453 0.038791495710555755 0.042175726457097447 3.0241706254104206 20.517652707767603 88.461453402448697 0.068424100852367456 39.292046290809502 -0.0092916673229299068 -0.0046296296296297048 1.1249066103757099 30.027757930349349 0.91168284714480385 0.0048899852941917754 15.777363706440562 96.937419278033488 -0.0058230217953096344 0.87771586136117652 0.051183347590533203 3.2305346602036082 0.094918664098229313 0.017271586508660609 0.8842755653855453 133.49570307638473 1.0000000180025095e-35 48.634238855685098
decision_type=2 2 2 2 2 2 2 2 2 2 2 2 2 2 2 2 2 2 2 2 2 2 2 2 2 2 2 2 2 2
left_child=-1 3 14 7 -5 6 -6 8 15 10 23 12 -12 -11 -3 16 18 -17 19 -2 -10 -22 -4 24 25 26 27 -9 -27 -30
right_child=1 2 22 4 5 -7 -8 9 20 13 11 -13 -14 -15 -16 17 -18 -19 -20 -21 21 -23 -24 -25 -26 28 -28 -29 29 -31
leaf_value=-0.027298492433671214 0.037750930707866226 0.037220884615371909 -0.059320763341663113 -0.03818368519773821 0.0067285336540520019 0.0025400794190745522 0.049560721948507497 -0.002670125322360016 -0.019468288238917435 0.0029456608139679669 0.048057839709023574 0.0042106409697389739 0.0099536364653731411 -0.016973859101840273 -0.0086730195952739661 0.0097555952820561898 -0.041295211458691763 -0.0049592781724259426 0.069236479013308469 -0.001470554301560653 0.055702119378923623 -0.015115091162350009 -0.0048925041999086389 -0.017119883890397394 0.014962055002341322 -0.0088497745199522266 0.0048725523120131762 -0.027930938844826399 -0.01332931253484638 0.013098315625537921
leaf_weight=712.40965887904167 504.44018974900246 342.24103584885597 583.94285896420479 271.02362503111362 465.70694376528263 845.83509527146816 851.88165771961212 16684.366310328245 83.884485065937042 1271.9967856407166 425.60637730360031 3630.8747690171003 710.9544053375721 2682.3950981497765 308.66561344265938 3062.535415276885 96.131323665380478 2857.5994021892548 142.05015181005001 405.91322866082191 389.1229864358902 72.091385617852211 104.85930424928665 1003.5128602981567 1181.5098825544119 8265.5031222999096 15090.865284591913 658.20622918009758 888.51621532440186 1748.7989863604307
leaf_count=2034 1738 959 1897 662 1574 2654 3690 48354 216 4121 1296 10642 2414 8560 829 8902 380 8491 611 1462 996 217 327 2961 3190 23809 44430 1735 2929 4729
internal_value=2.45405e-05 0.000321126 -0.0187291 0.000718096 0.0152615 0.0219568 0.0344215 0.000145725 0.00774503 -0.000920943 -0.000162483 0.00898148 0.0242225 -0.0105664 0.0154576 0.00566113 0.0211674 0.00265285 0.026873 0.0202626 0.0347684 0.0446328 -0.0510349 -0.00112013 -0.000759464 -0.00118809 0.000326742 -0.00362885 -0.00569438 0.0041948
internal_weight=66343.4 65631 1339.71 64291.3 2434.45 2163.42 1317.59 61856.9 7613.77 54243.1 50288.7 4767.44 1136.56 3954.39 650.907 7068.67 1148.53 5920.13 1052.4 910.353 545.099 461.214 688.802 45521.3 44517.8 43336.3 32433.4 17342.6 10902.8 2637.32
internal_count=196809 194775 4012 190763 8580 7918 5264 182183 23013 159170 146489 14352 3710 12681 1788 21584 4191 17393 3811 3200 1429 1213 2224 132137 129176 125986 94519 50089 31467 7658
is_linear=0
shrinkage=0.05


Tree=20
num_leaves=31
num_cat=0
split_feature=10 5 6 16 0 2 0 5 7 5 1 14 2 14 15 14 14 17 5 16 14 4 17 17 4 15 14 2 0 1
split_gain=209.529 206.494 186.244 224.712 161.317 128.65 122.614 214.908 126.671 159.9 154.026 115.914 125.589 110.949 198.386 108.792 104.068 101.85 98.9591 106.458 118.952 149.807 142.349 94.1031 92.9177 120.564 129.029 91.1254 90.9263 90.3666
threshold=-1.2123673087012126 0.088789075088624006 0.62068751487064 -32.798854963051078 0.073282953873110124 -0.0079504807231002544 0.094918664098229313 0.088789075088624006 0.75888207401683383 -0.0089373180010458003 0.0021603280911827861 9.4732764870395645 -0.075262484500546817 9.067986526890234 98.204333218219702 106.6752963573141 59.507854262137798 0.038791495710555755 0.0038713245789323563 18.645402641481063 17.766441540771694 0.0069557532731850955 0.041775174346975918 0.029992027905191471 -0.01659626092723215 57.20336559179426 76.014115173828344 0.015883928356513081 0.024309514988578852 0.023671540137106685
decision_type=2 2 2 2 2 2 2 2 2 2 2 2 2 2 2 2 2 2 2 2 2 2 2 2 2 2 2 2 2 2
left_child=1 4 6 13 23 -3 7 8 9 10 -2 -5 24 14 29 16 -14 -17 28 27 -21 -22 -23 -1 -13 -26 -27 -20 -10 -4
right_child=2 5 3 11 -6 -7 -8 -9 18 -11 -12 12 15 -15 -16 17 -18 -19 19 20 21 22 -24 -25 25 26 -28 -29 -30 -31
leaf_value=0.014873148368028383 -0.0023896538265899196 -0.0046067802682419438 0.023974007042714306 0.023397880292086382 0.010618605526584571 -0.05236697202434587 0.024207263367788535 -0.051991708394076089 0.00050007178438623407 -0.0070618092438316134 0.024477363280755754 -0.020772742360420537 0.015486481499482835 -0.0099063719491537666 -0.015283236470050296 0.041942286134034966 0.0036632940136642703 0.0041183823189904628 -0.010354049007934289 0.054054460950126559 -0.012846341092363482 0.025809918799399006 0.0015064629972967882 -0.0099830150532034603 -0.0035769484097392134 0.010475744653671716 0.075772454375242909 0.0083655338578237197 -0.012489063380200135 0.00073698995744740994
leaf_weight=406.10613334178925 1473.7252420932055 219.44626167416573 995.24009622633457 1270.412063896656 1339.687871992588 394.42752297222614 483.42820602655411 206.58002564311028 18275.995376512408 11682.226178839803 836.1011625379324 539.78984391689301 3175.5993920713663 2856.9427897185087 854.03529877960682 492.06232117116451 4496.5603798478842 278.83355614542961 1241.6122093051672 167.59204877912998 549.64520542323589 1489.9858087301254 1011.5290004462004 6106.1516536176205 1563.8391447663307 292.89452503621578 102.00466530025005 1364.6364493966103 1454.5444165915251 721.86548191308975
leaf_count=1373 4097 637 3102 3977 4150 1273 1356 676 55025 34151 2456 1384 9276 9178 2740 1983 13329 880 3855 429 1436 4655 2627 16968 4096 804 252 4465 4063 2259
internal_value=-1.87945e-05 -0.00736586 0.00105587 0.00533959 -0.00518242 -0.0352938 -0.00082211 -0.00112648 -0.00086078 -0.00468507 0.00733556 0.00910198 0.0074421 -0.00312494 0.00441029 0.0103562 0.00855705 0.0282614 0.00123308 0.00695942 0.0130418 0.0107891 0.0159824 -0.00843298 -0.00240512 0.00265664 0.0273422 -0.000552442 -0.000457493 0.0142052
internal_weight=66343.5 8465.82 57877.7 17640.1 7851.95 613.874 40237.6 39754.2 39547.6 13992.1 2309.83 12212 10941.6 5428.08 2571.14 8443.06 7672.16 770.896 25555.5 5825 3218.75 3051.16 2501.51 6512.26 2498.53 1958.74 394.899 2606.25 19730.5 1717.11
internal_count=196952 24401 172551 53260 22491 1910 119291 117935 117259 40704 6553 35981 32004 17279 8101 25468 22605 2863 76555 17467 9147 8718 7282 18341 6536 5152 1056 8320 59088 5361
is_linear=0
shrinkage=0.05


Tree=21
num_leaves=31
num_cat=0
split_feature=5 5 9 14 2 5 17 12 16 3 5 15 14 5 1 13 4 4 4 10 16 17 3 3 5 14 17 2 4 4
split_gain=191.563 174.587 485.529 183.589 253.278 203.496 165.35 164.898 129.22 184.421 155.315 153.55 156.973 151.402 132.618 154.844 145.13 127.074 125.684 116.788 110.785 119.374 114.584 109.334 104.348 100.732 99.9395 92.9126 90.9743 90.0832
threshold=-0.04853344803572162 0.088789075088624006 1.0000000180025095e-35 105.33854967097857 -0.11891893949222453 0.0069705546996103882 0.039946003989783534 18.421535321961041 120.97117934261566 0.9456539424723045 0.0016866962588274472 87.796784819713679 -1.6550669593207077 -0.0058230217953096344 0.068424100852367456 39.652837051949277 -0.0040106951871658461 -0.020916909407401259 -0.065672539458253729 -0.015027699381681215 13.366947128478872 0.063983042486685418 0.90140991235916978 0.87771586136117652 0.0013388673422488619 4.5264046627050236 0.040244159394817736 -0.055928552659224785 0.018842825176375925 0.002346335982099879
decision_type=2 2 2 2 2 2 2 2 2 2 2 2 2 2 2 2 2 2 2 2 2 2 2 2 2 2 2 2 2 2
left_child=-1 3 19 7 26 -6 -7 18 11 13 -11 12 24 29 -14 16 -16 25 23 -3 -17 22 -22 -2 -9 -13 -5 -4 -15 -10
right_child=1 2 27 4 5 6 -8 8 9 10 -12 17 14 28 15 20 -18 -19 -20 -21 21 -23 -24 -25 -26 -27 -28 -29 -30 -31
leaf_value=-0.025952389546108363 0.046780117420875893 -0.004602912668699455 0.0043251352824617371 -0.06095743458689315 0.0061961159095127753 0.049730693744736598 0.0084803463210589691 0.0067057720810318605 0.020764389633387694 -0.0097049616654559592 0.009480129105361574 0.004225657012826723 -7.3072093580704242e-05 -0.041831457419816115 0.04342736032242793 -0.0037158600168303458 0.0073367694318208195 -0.015041882036828319 0.0079244579789074301 0.038916351034000533 0.045317555908310221 -0.0047912357926457178 0.0095991357556795883 -0.064673211751226187 0.032496163870516091 -0.010790487080740443 -0.00437381028209921 -0.055302234505364693 -0.01617657781126448 -0.014500474839555169
leaf_weight=708.24499627947807 367.47239148616791 385.57324714958668 73.706575706601143 138.63633951544762 1458.5385785102844 680.23490977287292 377.89260216057301 1032.8687283545732 288.30596870183945 2361.7844628244638 1906.5172816514969 2970.8735857158899 39589.824750870466 690.4486468732357 549.11909237504005 2057.9854138493538 565.32895955443382 2673.2298175543547 1355.4516625851393 256.86026504635811 400.48024320602417 516.69212982058525 511.06928665935993 23.406046971678734 632.29380659759045 1789.6064151376486 178.52487644553185 574.96903766691685 691.77827268838882 486.96983286738396
leaf_count=2033 1359 1051 228 336 4899 3090 1159 2924 728 6454 5468 8985 115847 1755 1731 5958 1950 8498 4631 734 1237 1461 1542 90 1731 5614 442 1968 1807 1266
internal_value=-8.80375e-05 0.000191263 -0.0180132 0.000556824 0.0129996 0.0183062 0.0349988 -1.6881e-05 -0.000459773 -0.00715784 -0.00113558 0.000347902 0.00142854 -0.019072 0.000860669 0.00889572 0.0251196 -0.00631814 0.0151277 0.0127971 0.00370941 0.0144086 0.0252917 0.0401062 0.0164989 -0.00141936 -0.0291074 -0.048527 -0.0289917 -0.00138634
internal_weight=66294.7 65586.4 1291.11 64295.3 2833.83 2516.67 1058.13 61461.5 59715.2 6425.8 4268.3 53289.4 45855.7 2157.5 44190.5 4600.68 1114.45 7433.71 1746.33 642.434 3486.23 1428.24 911.55 390.878 1665.16 4760.48 317.161 648.676 1382.23 775.276
internal_count=196976 194943 3981 190962 9926 9148 4249 181036 174956 17478 11922 157478 134381 5556 129726 13879 3681 23097 6080 1785 10198 4240 2779 1449 4655 14599 778 2196 3562 1994
is_linear=0
shrinkage=0.05


Tree=22
num_leaves=31
num_cat=0
split_feature=10 0 5 3 5 5 14 3 16 8 12 4 4 6 0 17 13 16 5 17 7 5 13 16 1 17 16 16 3 17
split_gain=177.204 172.171 285.152 160.164 162.403 147.891 196.347 134.934 247.813 209.117 166.845 146.853 145.993 279.222 138.62 169.642 120.058 115.321 104.893 96.8748 89.9607 92.3112 149.223 109.4 89.5562 88.3499 124.421 115.514 127.896 81.6937
threshold=-1.2979945482951341 0.094918664098229313 0.088789075088624006 0.98055049280330209 0.057247545080448943 0.006083187625470555 105.98821269679856 0.88105928394952271 14.292658276884426 1.0000000180025095e-35 25.894410593573877 -0.060272313343782406 -0.01404227621615972 0.39506124066513471 -0.0054224014370298067 0.061748816272333966 31.249645992092223 90.735979696711027 -0.0071252863350920728 0.026520509193776534 1.257921093264353 -0.01375122789783889 38.289921229383474 -32.798854963051078 -0.057032998401143918 0.038935890559089421 -23.710576155545297 115.35449537690782 0.92297858571067881 0.032411408252231259
decision_type=2 2 2 2 2 2 2 2 2 2 2 2 2 2 2 2 2 2 2 2 2 2 2 2 2 2 2 2 2 2
left_child=3 2 5 4 -1 7 25 8 16 10 -10 -9 13 -12 15 24 18 -8 -2 -13 21 22 -18 -23 -15 26 -7 -27 -29 -5
right_child=1 -3 -4 29 -6 6 17 11 9 -11 12 19 -14 14 -16 -17 20 -19 -20 -21 -22 23 -24 -25 -26 27 -28 28 -30 -31
leaf_value=-0.0086780007005028813 0.031415277225382378 0.016910225624950214 -0.046338825163612644 0.02535287397443577 -0.039152835056018465 -0.0056880028457933227 0.0039097442124921998 -0.053176740357713019 0.059554620415414518 -0.023224503055767235 -0.021540633271367134 0.0043039596906104755 0.024586888183132417 0.053880594264429454 -0.025121777273982154 0.0026697642858151721 0.049069361115131292 0.054850231352136784 0.0049259643316424424 -0.003241887060943228 -0.014378918295991595 -0.0053780225555860673 0.0030194766681397463 0.0071388054613954104 0.0090962519025105087 0.00404174581017971 0.018388398891038799 -0.04926357604717508 -0.0025625008454396936 -3.2866988982395076e-05
leaf_weight=5186.1117689907551 471.74080544710159 1657.1859287768602 322.25555917620659 420.84621506929398 477.4168479591608 723.7704818546772 168.16772463917732 140.74575582146645 217.91524559259415 351.39537519216537 656.96387021243572 5102.2629171162844 1831.4459731280804 453.34460724890232 156.22573295235634 466.28378926217556 232.67091958224773 327.40718340873718 1798.5461212843657 25565.384763017297 1331.0309639424086 6671.72376704216 721.26183715462685 2364.3535428643227 148.0978872179985 4199.0213322639465 2074.9478309899569 223.34255364537239 426.67310465872288 1283.3498014062643
leaf_count=14342 1552 4634 1098 1647 1567 2462 590 544 945 967 1765 15583 5302 1195 420 1239 667 1472 6212 76092 4002 20021 1984 6279 476 11910 6277 567 1128 3791
internal_value=0.000106809 0.00102268 0.000561958 -0.00720301 -0.0112469 0.000827934 0.0070646 -0.000215323 0.00324077 0.0137303 0.0170344 -0.00222032 0.0145384 0.00475428 0.0188682 0.0253047 -6.37552e-05 0.0375642 0.0104302 -0.00198646 -0.00216817 -0.000541258 0.0142514 -0.00210291 0.042853 0.00508823 0.0121621 0.00100543 -0.0186088 0.00623607
internal_weight=66171.9 58804.2 57147 7367.72 5663.53 56824.7 8143.33 48681.4 17873 4281.67 3930.28 30808.4 3712.36 1880.92 1223.95 1067.73 13591.3 495.575 2270.29 30667.6 11321 9990.01 953.933 9036.08 601.442 7647.76 2798.72 4849.04 650.016 1704.2
internal_count=196730 175383 170749 21347 15909 169651 24406 145245 53026 12309 11342 92219 10397 5095 3330 2910 40717 2062 7764 91675 32953 28951 2651 26300 1671 22344 8739 13605 1695 5438
is_linear=0
shrinkage=0.05


Tree=23
num_leaves=31
num_cat=0
split_feature=5 5 9 14 2 5 14 1 7 15 1 0 6 16 16 4 10 15 5 5 10 4 5 5 2 6 1 4 4 0
split_gain=178.355 153.825 423.649 155.251 263.149 170.465 151.904 205.163 157.851 152.683 169.016 153.44 149.546 146.208 134.464 133.355 126.919 126.896 112.194 109.235 107.21 106.218 103.247 99.5461 99.2376 97.279 96.186 89.1007 85.8368 95.5747
threshold=-0.04853344803572162 0.088789075088624006 1.0000000180025095e-35 106.6752963573141 -0.10125725767344308 0.0067807059708667747 7.1208192586602896 0.016388401688159932 0.6307260984507207 87.796784819713679 0.023671540137106685 0.017271586508660609 0.7258052809592247 15.2507147714377 17.6855100503955 -0.083795829552212583 -0.053185043814980189 55.231314220892131 -0.0015012761185082544 0.012315270935960744 -0.015027699381681215 0.089464640351494609 -0.0083428683517248175 0.0010560777390991041 0.12980419130601592 0.78846078032617284 -0.026145280104322322 0.13813856760856039 -0.0029260332578094346 -0.022514531160729625
decision_type=2 2 2 2 2 2 2 2 2 2 2 2 2 2 2 2 2 2 2 2 2 2 2 2 2 2 2 2 2 2
left_child=-1 3 20 6 17 -6 7 8 -2 10 12 13 16 18 15 -9 -8 21 28 24 -3 -5 -17 -10 -18 -4 -25 -7 29 -12
right_child=1 2 25 4 5 27 9 14 23 -11 11 -13 -14 -15 -16 22 19 -19 -20 -21 -22 -23 -24 26 -26 -27 -28 -29 -30 -31
leaf_value=-0.024751381202881759 -0.00090459031180043891 -0.0047819867746528889 -0.053643915071400719 -0.054950492105268603 0.0071887675483818404 0.044272122063481405 -0.0065210643339258427 0.040547843103107974 0.011852739336577277 -0.011992018325280495 -0.0027620952435741773 -0.0035676637887737481 0.0046342942512796912 0.016179934837068657 0.04564222194240343 0.014115434324348961 0.00066149642587977028 0.073217329564414207 -0.0035905658643239618 0.022256302662196401 0.037020412174409649 0.0092875198183456267 -0.0083773754630502989 0.041329710439966409 -0.016308746319342149 0.0060830700023679673 0.014666924298050429 0.0056897626556452778 0.0021612361594026503 0.026099700872775512
leaf_weight=714.84181262552738 1658.4127074033022 391.68651247024536 547.15883694589138 224.37840786576271 1151.4217881858349 714.92027868330479 16399.242332354188 164.70453715324402 2696.1730436384678 2922.9910625964403 387.34564614295959 4161.4489890784025 6692.7800499200821 3443.7489683181047 143.02000233530998 591.24634301662445 10228.167628094554 28.747114092111588 3010.8810926377773 540.06180992722511 252.10129755735397 90.228057160973549 3721.4584099650383 701.11743719875813 940.7006698846817 77.8770781904459 653.56119981408119 189.25005765259266 1691.9555212706327 1105.4365134388208
leaf_count=2055 4668 1065 1952 548 3975 3180 46364 575 8474 9318 1197 12775 18793 10432 369 1810 29747 68 9467 1483 730 231 11490 1971 2879 273 2078 608 5222 3374
internal_value=8.86207e-05 0.000359623 -0.0168803 0.000700063 0.01318 0.0199481 0.000216043 0.00574996 0.012089 -0.000893398 -0.000225909 0.0044563 -0.00208271 0.00792036 -0.00208296 -0.00360743 -0.00368208 -0.0273389 0.00332939 0.000294137 0.0115874 -0.0365273 -0.00529374 0.0174086 -0.000767826 -0.0462022 0.0284663 0.0361965 0.00987158 0.0186107
internal_weight=66237.1 65522.2 1268.82 64253.4 2398.95 2055.59 61854.5 10329.7 5709.26 51524.8 48601.8 13800.8 34801 9639.37 4620.43 4477.41 28108.2 343.354 6195.62 11708.9 643.788 314.606 4312.7 4050.85 11168.9 625.036 1354.68 904.17 3184.74 1492.78
internal_count=197171 195116 4020 191096 8610 7763 182486 31435 17191 151051 141733 42467 99266 29692 14244 13875 80473 847 19260 34109 1795 779 13300 12523 32626 2225 4049 3788 9793 4571
is_linear=0
shrinkage=0.05


Tree=24
num_leaves=31
num_cat=0
split_feature=0 5 9 14 5 17 16 17 4 12 15 2 15 14 16 0 3 0 17 4 17 17 5 7 10 4 0 7 16 1
split_gain=154.362 141.343 402.906 165.429 225.916 208.165 135.423 135.087 126.08 127.939 112.962 111.118 106.748 124.502 128.922 100.325 182.171 124.216 110.17 104.969 98.1439 97.7523 97.3229 95.2754 91.9954 90.4339 89.2443 97.757 88.5383 85.3941
threshold=-0.10472989848838628 0.088789075088624006 1.0000000180025095e-35 102.10912850162737 0.0091757635582394598 0.034711540641925019 120.97117934261566 0.02774703845296669 -0.10104186322677398 29.761024977238566 60.396009704945705 -0.11408642945675934 99.137895424607038 -1.6550669593207077 22.337667448625123 -0.071653519471861618 0.92229070510994204 -0.015424470325631693 0.056889580872244445 0.002346335982099879 0.039946003989783534 0.049593334949046504 -0.0035282420059182802 2.7187200139331797 -0.015027699381681215 0.027136719079291497 0.094918664098229313 3.2305346602036082 15.777363706440562 -0.19811555013498564
decision_type=2 2 2 2 2 2 2 2 2 2 2 2 2 2 2 2 2 2 2 2 2 2 2 2 2 2 2 2 2 2
left_child=8 3 24 6 7 -6 12 25 9 -1 11 20 13 14 -2 19 17 -17 -19 -8 -9 -4 -18 -7 -3 -5 27 29 -14 -15
right_child=1 2 21 4 5 23 15 10 -10 -11 -12 -13 28 26 -16 16 22 18 -20 -21 -22 -23 -24 -25 -26 -27 -28 -29 -30 -31
leaf_value=0.051455422620600599 0.0069320658570061148 -0.0034662925744394892 -0.05524412753902283 0.0015615198296191355 0.052334596456871586 0.020381868116629592 0.060742578093763488 -0.064847918904266791 -0.033395415881881878 -0.033871230030108078 0.063900934241577959 -0.00021174475887805917 -0.024632354018059754 -0.01384027351149318 0.041713680482244213 -0.0090719583783330209 -0.014498343458259741 -0.057172283093508226 -0.0062301198003793887 -0.012279543383937009 -0.0084672410926925467 -0.0026884836693339613 0.00086290005991573925 -0.022295707281704581 0.035721046333467718 0.046600948697136053 0.017288077714194758 -0.024117106254351608 0.032040751779051822 0.00057031209608846933
leaf_weight=101.49104286730289 3865.9842132180929 399.8286911547184 493.05176304280758 197.88915230333805 514.07287202775478 626.55582085251808 108.76956135034561 134.00473864376545 589.57977202534676 77.460741356015205 61.139957323670387 1788.030066639185 634.54212754964828 1050.9178578108549 286.13951286673546 487.96197564899921 1541.8438797146082 403.32147261500359 144.03469659388065 89.883813068270683 182.04447478055954 107.82549089193344 3112.7374219745398 165.26871453225613 239.46416306495667 255.15508586168289 762.47315466403961 414.92541238665581 77.312200963497162 47196.877333775163
leaf_count=409 11542 1084 1838 642 2504 2033 269 328 1650 216 155 5744 2006 2722 781 1250 4170 1061 376 234 449 356 8549 510 704 1032 2155 1318 333 140465
internal_value=3.95703e-05 0.000301593 -0.0164172 0.000625049 0.0105719 0.0275591 -2.35802e-05 0.00209926 -0.0222381 0.0145211 -0.00309578 -0.00504256 0.00075759 0.00101315 0.00932901 -0.00722553 -0.00844499 -0.0274147 -0.043767 0.0277026 -0.0323726 -0.0458132 -0.00422556 0.0114743 0.0112124 0.0269278 0.000314553 4.86031e-05 -0.0184773 0.000256425
internal_weight=66110.6 65342.1 1240.17 64101.9 3924.16 1305.9 60177.7 2618.26 768.532 178.952 2165.22 2104.08 54289.2 53577.3 4152.12 5888.55 5689.9 1035.32 547.356 198.653 316.049 600.877 4654.58 791.825 639.293 453.044 49425.2 48662.7 711.854 48247.8
internal_count=196885 194610 3982 190628 13397 5047 177231 8350 2275 625 6676 6521 161322 158983 12323 15909 15406 2687 1437 503 777 2194 12719 2543 1788 1674 146660 144505 2339 143187
is_linear=0
shrinkage=0.05


Tree=25
num_leaves=31
num_cat=0
split_feature=6 1 14 5 16 16 3 17 4 0 5 2 3 5 17 16 15 1 17 12 4 0 3 2 10 15 14 6 16 16
split_gain=155.565 166.752 201.672 173.249 162.033 142.668 133.496 187.534 129.852 117.239 102.301 98.6862 162.258 167.065 140.094 125.583 305.968 110.222 104.453 95.6025 93.6263 147.537 166.841 144.158 105.829 86.6329 113.989 82.9944 82.9443 81.5891
threshold=0.6145247963548609 -0.021360834122227959 16.895833317609448 0.0031327503470724998 297.49538393963405 -51.908642265814379 0.87090558766859349 0.06497789956468121 -0.05794670615933372 -0.10472989848838628 0.088789075088624006 -0.046783867879167641 0.96419038776183841 0.0052546881727666426 0.040552077404667076 15.777363706440562 55.231314220892131 0.12848558330006135 0.062177849557089042 25.894410593573877 0.004052228725799246 -0.001600640854153574 0.89238252648852467 -0.055928552659224785 0.07350582015956364 98.837161416104905 4.5264046627050236 0.2439021415827565 46.635851506630139 -140.28443616219906
decision_type=2 2 2 2 2 2 2 2 2 2 2 2 2 2 2 2 2 2 2 2 2 2 2 2 2 2 2 2 2 2
left_child=1 2 3 -1 20 25 7 8 -7 -8 -11 14 17 -14 -3 -16 -17 29 -18 -9 21 27 23 -23 -22 26 -2 -4 -25 -13
right_child=5 11 4 -5 -6 6 9 19 -10 10 -12 12 13 -15 15 16 18 -19 -20 -21 24 22 -24 28 -26 -27 -28 -29 -30 -31
leaf_value=-0.00052103072228327401 0.010366042622960396 -0.012251447414056607 -0.014571372240677017 0.027167845171483199 -0.039059926365494602 0.051929833795586994 -0.041868305369753403 0.062761021472689402 0.017932702942451192 0.0043211435617277784 -0.032368304991608442 0.015074267036629086 0.0056750855567316285 0.031414468150739921 -0.006858457789495895 -0.0019130932284594914 0.043508303700991818 0.022399052633681117 0.0080875159926079507 -0.0030328767729145296 -0.0062596813716829167 0.003415082947829886 -0.01032821714977827 -0.024960535839399476 0.0090674228214937553 -0.021090375852397605 -0.0079083535911761999 0.000314080782719829 -0.05584499149426693 -0.00090442711292134975
leaf_weight=2478.8845406472683 1315.2261536568403 3029.4873452037573 1472.2288391888142 731.68992677330971 410.49072603881359 326.54913912713528 142.23834022879601 57.547471597790718 2007.7820433974266 12748.143042474985 192.86648193001747 847.38190643489361 2036.347044929862 913.09808772802353 2865.6672892421484 2455.4908550530672 623.51032309234142 570.89959171414375 312.42809429764748 1360.8087284564972 5163.6212696433067 198.91053637862206 1747.4502418488264 360.55503609776497 1440.3837309032679 663.70487259328365 2429.7899035066366 2572.8766718357801 547.51072885096073 13961.901885405183
leaf_count=7144 4201 8761 4204 2041 1372 1072 432 242 5808 38042 702 2676 5928 3331 7752 6406 1648 1815 884 3667 14488 500 5012 1065 4015 2114 7859 7226 1427 44908
internal_value=4.2747e-05 -0.00163017 -0.00550654 0.00578926 -0.00811298 0.00356588 0.00566263 0.0139759 0.0226886 0.00327812 0.00377434 0.000773534 0.00290102 0.0136436 -0.00342565 0.000847518 0.00735886 0.000840936 0.0316844 -0.000363397 -0.00717223 -0.0112455 -0.0199494 -0.0351372 -0.00291672 -0.00444114 -0.0014905 -0.00510353 -0.0435821 9.86803e-06
internal_weight=65985.5 44740.8 17124.6 3210.57 13914 21244.7 16835.9 3752.69 2334.33 13083.2 12941 27616.2 18329.6 2949.45 9286.58 6257.1 3391.43 15380.2 935.938 1418.36 13503.5 6899.53 2854.43 1106.98 6604.01 4408.72 3745.02 4045.11 908.066 14809.3
internal_count=196742 132603 48494 9185 39309 64139 49965 10789 6880 39176 38744 84109 58658 9259 25451 16690 8938 49399 2532 3909 37937 19434 8004 2992 18503 14174 12060 11430 2492 47584
is_linear=0
shrinkage=0.05


Tree=26
num_leaves=31
num_cat=0
split_feature=10 5 3 17 14 6 16 3 4 12 17 2 6 14 15 16 15 1 1 16 2 4 14 5 4 12 12 10 3 14
split_gain=142.074 167.624 152.983 144.272 133.891 133.596 162.194 175.683 214.086 186.376 112.712 100.118 98.3556 97.7409 143.917 97.172 158.492 92.3125 90.3148 116.873 127.335 114.662 113.409 104.895 101.552 107.448 96.83 114.337 95.6066 96.4326
threshold=-1.1190002043722327 0.088789075088624006 0.98055049280330209 0.03643441721195427 102.10912850162737 0.57142811791419346 -35.015031007040996 0.89394982301052484 -0.055799197053980169 27.385018873443055 0.066022971219742169 -0.0079504807231002544 0.82839222078776142 9.067986526890234 98.204333218219702 -119.68714668845445 90.14074985133179 0.094987751112499297 0.024230916592770078 15.2507147714377 0.010239669427669172 -0.0070369074010251933 8.6565248290837307 -0.0058230217953096344 0.0081724556194380255 55.047528239304164 45.014517895822372 0.35352643746984608 0.88353725460849619 41.89119459128252
decision_type=2 2 2 2 2 2 2 2 2 2 2 2 2 2 2 2 2 2 2 2 2 2 2 2 2 2 2 2 2 2
left_child=1 2 -1 4 -4 15 13 9 -9 -8 -11 -3 -10 14 -7 -2 18 -15 22 20 -20 23 -17 -22 25 -24 -26 -28 -21 -30
right_child=5 11 3 -5 -6 6 7 8 12 10 -12 -13 -14 17 -16 16 -18 -19 19 28 21 -23 24 -25 26 -27 27 -29 29 -31
leaf_value=-0.0072212194112185038 0.0099355681472371223 -0.0041799285183693998 0.002398091626025594 -0.0026218015801908875 0.044509699575146652 0.011601555788583106 0.061847220089522287 -0.065815838481835851 0.0011294363311945934 0.018773528093099331 -0.00022524212104653164 -0.046185141966366666 0.012197067080540554 -0.011353255922115526 -0.012495397109260634 0.0078130584884373994 -0.013685686662367427 0.01585528364920754 -0.007344497739789767 0.026329207627666325 0.044644523105491579 0.0010435792684720525 -0.0029438979815125002 0.0080558757989203297 -0.045434991984072713 -0.012828499740832083 -0.0014163087153776781 0.01386678959820987 -0.020046174084251585 0.01011824024353712
leaf_weight=7153.3899594992399 1978.0599884837866 222.97296695411205 343.02447386085987 1120.4994116127491 419.68320873379707 2009.3167356848717 209.84445968270302 109.80765989422798 6803.1810198575258 2795.5318393260241 1083.1105452477932 389.92864209413528 2847.6114849895239 2911.9179409444332 895.89490693807602 2491.035924449563 2461.4402466118336 349.11271743476391 3215.7752388119698 796.47889716923237 331.87909200787544 2200.0302735120058 7967.2979892939329 478.0390262901783 110.85213966667652 4197.8219542950392 6134.4857538789511 1528.7590552866459 302.47764605283737 2135.9390531629324
leaf_count=19893 6108 675 1013 3246 1944 6273 941 440 20304 7890 2869 1421 8575 9448 2884 7220 7824 1051 9401 2588 1006 7118 24065 1575 324 11479 17668 4333 966 6398
internal_value=6.4616e-06 -0.00559949 -0.00388325 0.00879609 0.0255702 0.00096651 0.00424663 0.00724997 0.00360523 0.0159512 0.0134681 -0.0309037 0.00439511 -0.00249874 0.00417066 -0.000840591 -0.0014611 -0.00844042 -0.000517566 0.00357951 -0.000426415 0.00696474 -0.00224563 0.0230488 -0.00350227 -0.00635478 0.000961409 0.00163255 0.0112891 0.00637644
internal_weight=65995.2 9649.5 9036.6 1883.21 762.708 56345.7 20015.3 13849.1 9760.6 4088.49 3878.64 612.902 9650.79 6166.24 2905.21 36330.4 34352.3 3261.03 31890.9 9460.62 6225.72 3009.95 22430.3 809.918 19939.2 12165.1 7774.1 7663.24 3234.9 2438.42
internal_count=196940 28192 26096 6203 2957 168748 60675 41019 29319 11700 10759 2096 28879 19656 9157 108073 101965 10499 94141 29052 19100 9699 65089 2581 57869 35544 22325 22001 9952 7364
is_linear=0
shrinkage=0.05


Tree=27
num_leaves=31
num_cat=0
split_feature=0 6 1 2 10 4 16 3 14 17 7 13 15 2 17 16 15 7 4 4 16 13 15 0 17 1 0 10 16 15
split_gain=144.213 136.959 137.359 148.631 231.99 115.125 104.974 175.56 133.907 152.706 110.117 101.737 99.1077 123.954 121.705 118.318 182.222 101.367 109.068 96.1958 143.501 140.503 127.345 95.8361 120.71 112.119 116.703 97.103 96.1404 143.508
threshold=-0.10472989848838628 0.57692085799670345 -0.030576973569283013 -0.0087336799687546662 -0.76718917161726663 -0.10104186322677398 -56.462886136104238 0.88184511109422414 105.33854967097857 0.030412946428571414 1.6661468827644954 39.84043072246142 93.103127230595774 -0.04004722703584624 0.04487577639751554 12.336443326186105 55.624965234396761 1.1932039844133011 -0.020916909407401259 -0.015606242496998766 15.777363706440562 34.68215869456035 83.999832000336042 0.029913886815860394 0.070536825704506742 -0.026145280104322322 0.0063910745353684397 0.23142014698134067 8.4270829689281452 59.541939280962339
decision_type=2 2 2 2 2 2 2 2 2 2 2 2 2 2 2 2 2 2 2 2 2 2 2 2 2 2 2 2 2 2
left_child=5 2 3 -2 -5 11 -3 23 10 -10 -9 -1 13 14 17 -16 -17 18 -4 20 21 -15 -21 24 25 26 -8 -28 -27 -30
right_child=1 6 12 4 -6 -7 7 8 9 -11 -12 -13 -14 19 15 16 -18 -19 -20 22 -22 -23 -24 -25 -26 28 27 -29 29 -31
